%YAML:1.0
mlp: !!opencv-ml-ann-mlp
   layer_sizes: !!opencv-matrix
      rows: 1
      cols: 3
      dt: i
      data: [ 136, 50, 5 ]
   activation_function: SIGMOID_SYM
   f_param1: 5.9999999999999998e-001
   f_param2: 1.
   min_val: -9.4999999999999996e-001
   max_val: 9.4999999999999996e-001
   min_val1: -9.7999999999999998e-001
   max_val1: 9.7999999999999998e-001
   training_params:
      train_method: BACKPROP
      dw_scale: 1.0000000000000001e-001
      moment_scale: 1.0000000000000001e-001
      term_criteria: { epsilon:2.2204460492503131e-016, iterations:1000 }
   input_scale: [ 1.9012528724596427e+000, 1.1215229265655192e-002,
       2.2525842318250935e+000, 7.1676532894301911e-003,
       2.5920009419398093e+000, 1.0517394532684474e-002,
       2.5668142960277360e+000, 5.5177601940816327e-003,
       2.5878939524343521e+000, -6.7958001289508329e-003,
       2.5976746445888192e+000, -3.4771882562993538e-002,
       2.6244772987501186e+000, -2.9954540969254737e-002,
       2.6756948365524966e+000, -2.6122610733684482e-002,
       2.5492272421546835e+000, -1.9342723307240031e-002,
       2.6292491257614969e+000, -2.5559115426535106e-002,
       2.8177426323236978e+000, -3.8229378162433464e-002,
       2.6110879493838643e+000, -1.1741102879802137e-002,
       2.7846245993479126e+000, -2.2432513791178454e-002,
       2.5407413777668495e+000, -2.0596582994040897e-002,
       2.6924029579564319e+000, -2.2013372582516129e-002,
       2.5744783865680789e+000, -3.3029709511729156e-002,
       2.7778191858093733e+000, 1.1898288971671951e-002,
       2.3601747898503134e+000, 2.2641996523309206e-002,
       3.1244278983854428e+000, 1.6404132222574436e-002,
       2.9180096438466818e+000, 1.1244129967813718e-002,
       2.4746039567720124e+000, -2.7242896962005148e-002,
       2.7318280743589858e+000, -3.4068581894040571e-002,
       2.8808590310865458e+000, -3.4447036586873411e-002,
       2.7229814095730349e+000, -3.5445774656930058e-002,
       2.9728096569151354e+000, -2.4783413547937352e-002,
       2.9593597900261868e+000, -2.3765752221229834e-002,
       3.4799711854953452e+000, -1.6171282672952775e-003,
       2.6266429663035575e+000, -3.0162388783452405e-002,
       2.5256576591906561e+000, -3.0607581093990893e-002,
       2.6607184962028505e+000, -2.1988304829531777e-002,
       2.5917426791120857e+000, -3.3114303445904276e-002,
       1.7813553318154363e+000, 5.8883086800807964e-003,
       2.5961615333762031e+000, -1.0387059523147229e-002,
       2.4226404256161134e+000, 1.2926262705123606e-002,
       2.3223810032026484e+000, -3.0802055602048160e-002,
       2.4100628049392268e+000, -2.9508251992800771e-002,
       2.4872422837975132e+000, -1.6182970405863736e-002,
       2.5958004433570907e+000, -2.5463913823151524e-002,
       2.8338319564724355e+000, -3.7586023372527824e-002,
       2.4878021356348419e+000, -2.4489643740650557e-002,
       2.5273181435071992e+000, 4.6047005762850481e-003,
       2.4806161009891938e+000, -1.7164867855807946e-002,
       2.3516452359418776e+000, -2.0184215099419842e-002,
       2.4446232767453351e+000, -1.7786017623189078e-002,
       2.4146620015158984e+000, -2.1009912003018837e-002,
       2.9954717193192169e+000, 1.1350245116320201e-003,
       2.9798866941665123e+000, 2.4969079859884735e-002,
       2.2817357782757490e+000, -3.8017092368625174e-002,
       2.3661498000378343e+000, -2.9313648135231692e-002,
       2.6683333012805970e+000, -1.8506053661613533e-002,
       2.6851753695271650e+000, -3.5012647155615619e-002,
       2.8316171696767483e+000, -2.3411706016645582e-002,
       2.8323768367412052e+000, -2.0912227724646116e-002,
       3.1633617330262731e+000, 9.1556135803834027e-003,
       2.3763118117126645e+000, -2.3456434890017391e-002,
       2.2519393805944179e+000, -3.3828234024115306e-002,
       2.2654508622207867e+000, -1.9143693718043878e-002,
       2.3525901867176322e+000, -3.5114041202858236e-002,
       3.7519867325293719e+000, -3.8702006701457473e-002,
       5.0831356229953135e+000, -4.8844399144696050e-002,
       6.0944257060370957e+000, -4.7689748735982848e-002,
       5.7158174955926020e+000, -4.1538510384656495e-002,
       4.7918228118843480e+000, -4.6422080167509927e-002,
       5.4857063919571383e+000, -3.5922357107235743e-002,
       4.8605687038888377e+000, -4.5956366400189415e-002,
       3.7711019336271896e+000, -2.8481795494894189e-002,
       5.1717903484820837e+000, -3.5249504800434324e-002,
       4.7561271101665934e+000, -4.4350078162250124e-002,
       4.1740549124760413e+000, -3.3183975042756962e-002,
       4.5888414906340609e+000, -3.9254249928924061e-002,
       4.5060641985985175e+000, -2.0739325048748754e-002,
       5.3651115319647857e+000, -3.8653740450126643e-002,
       4.7758061208732983e+000, -4.0181414317913451e-002,
       5.1984203044971542e+000, -2.5820274103784509e-002,
       4.7326615484250834e+000, -4.0879023208766622e-002,
       4.5786953202678342e+000, -2.6060037612801668e-002,
       4.7762826576508903e+000, 1.9538061320228665e-002,
       4.7367100131471789e+000, -2.8766663464266835e-002,
       4.8334480149978534e+000, -1.1507785567542958e-002,
       4.8671279569662529e+000, -2.6756905536790242e-002,
       4.2913747712004824e+000, -1.2187392800838588e-002,
       5.4248252586277115e+000, 3.5085011155631923e-002,
       6.8697246228845286e+000, 4.5887466741902222e-002,
       5.0370744679150627e+000, 1.8838026197959781e-002,
       4.8002960292197754e+000, 2.4494347426560451e-003,
       5.4799820216637132e+000, 1.7803370063295930e-002,
       5.6269886491514391e+000, 6.8250714748209441e-003,
       5.7642645369378309e+000, 3.9829180011171528e-002,
       5.3402376336360611e+000, 4.7604214160687747e-002,
       5.1343625566095614e+000, 3.8262532276239429e-002,
       4.9453567304479700e+000, 5.1607402660145622e-002,
       1.0069516528662319e+001, 1.4148653754954575e-002,
       6.4125541372501011e+000, 1.9782396132014782e-002,
       1.1999673879346405e+001, 5.7650340126441683e-003,
       1.2310794983435503e+001, -2.3658961126009459e-002,
       7.4777310283899059e+000, -1.2426202781425684e-002,
       5.9558664115422166e+000, 2.4493568317176102e-002,
       5.3767399768821180e+000, 3.6334112677453803e-002,
       4.9595530545879081e+000, 1.7774160041003732e-002,
       5.1625200649501739e+000, 3.2855138479586925e-002,
       5.7863167061566232e+000, 2.4463785001249717e-002,
       8.2374314661466137e+000, 1.0230966306759398e-002,
       7.7249226542651979e+000, -7.5126360787455045e-004,
       6.8950119581618967e+000, -2.3185880247021132e-002,
       5.6473918649247157e+000, 1.2740868417208369e-002,
       5.7481799114918593e+000, 4.1489086848496379e-002,
       5.4150568125328471e+000, 1.5629097201335995e-002,
       5.0972446973997787e+000, 3.3889443043096108e-002,
       6.2541647229830923e+000, 2.2553232260432300e-002,
       5.8862607366223214e+000, 5.1782605032670327e-003,
       7.1097906112302418e+000, 3.1814464019760060e-003,
       5.4474542124618441e+000, 2.9494248542787080e-002,
       4.8296963071948076e+000, 2.6138463986813590e-002,
       4.6052417794021911e+000, 1.3820349164509667e-002,
       4.4361098797913119e+000, 1.9013686530221594e-002,
       9.4527347736688796e+000, -2.2045632443656191e-002,
       8.0219347378168759e+000, -1.4379313621206322e-002,
       5.9635122458909562e+000, 4.3263483366787307e-003,
       5.1702226555923669e+000, 9.3376414853271663e-003,
       4.9346611259217337e+000, 3.9821616697244388e-003,
       5.0320814968281349e+000, 2.8676341139378786e-003,
       7.6552627412376486e+000, 1.0617414940854686e-002,
       6.0612432438392903e+000, -2.2138494712112960e-003,
       5.3047570887807813e+000, 1.6306077150235028e-002,
       5.1953691222794554e+000, -3.0973991505634942e-003,
       4.9349575470083078e+000, 8.3569395253634219e-003,
       5.7920485778722375e+000, -4.1697460295683575e-003,
       5.5844584622877678e+000, 6.3011927570017943e-003,
       6.3427175679668775e+000, -4.1061828564311802e-003,
       4.7742327840193646e+000, 5.1299011743972727e-003,
       4.4851604996889325e+000, 1.3297228808521345e-002,
       5.1050735359176045e+000, 1.1016590676487184e-002,
       5.0167637180220250e+000, 1.9346715653074994e-002,
       4.4669741031926362e+000, 2.0480302372448089e-002,
       5.3768763841832605e+000, 5.3812611851765071e-002,
       4.0574007970278769e+000, 2.4288780906232051e-002 ]
   output_scale: [ 5.2631578947368418e-001, 4.9999999999999994e-001,
       5.2631578947368418e-001, 4.9999999999999994e-001,
       5.2631578947368418e-001, 4.9999999999999994e-001,
       5.2631578947368418e-001, 4.9999999999999994e-001,
       5.2631578947368418e-001, 4.9999999999999994e-001 ]
   inv_output_scale: [ 1.8999999999999999e+000, -9.4999999999999996e-001,
       1.8999999999999999e+000, -9.4999999999999996e-001,
       1.8999999999999999e+000, -9.4999999999999996e-001,
       1.8999999999999999e+000, -9.4999999999999996e-001,
       1.8999999999999999e+000, -9.4999999999999996e-001 ]
   weights:
      - [ -1.2549728252664232e+000, -5.1600788955174737e-001,
          4.5931988224469853e+000, -3.2882696958320503e+000,
          -7.1803093351444502e-001, -2.5923179744867828e+000,
          6.4311078776232011e-001, 1.1864071567834524e+000,
          1.0454750443162557e+000, 5.6320301528831240e-001,
          4.1114314202044850e+000, -2.6743785172388973e-001,
          -1.6374510891070628e+000, 2.0207555871306904e-001,
          -5.8545754959514804e+000, 5.5508095637774590e-001,
          1.1545664013676458e+000, 4.8624624622312179e-001,
          1.0589627030844730e+000, -1.1628555274343062e+000,
          -4.9697017981541342e-001, 4.3846693435643427e-003,
          -2.3281741701626024e+000, -1.8071765861671292e+000,
          1.5977394336183743e+000, -5.7589157202046748e-001,
          2.3178118842387208e+000, -1.8018908610929874e+000,
          4.1699985828345437e-001, -4.4805444482846174e-001,
          -2.8752259673836056e+000, -1.2907106721308972e-001,
          1.8309355075197311e+000, -1.9215979611215592e-001,
          1.4639921601224983e+000, 8.9159926795878086e-001,
          1.1874876844352382e+000, 1.1562453119319964e-001,
          2.2914710079383251e+000, 3.0220446768893323e+000,
          -1.9385749139110846e+000, 2.7723567038863695e-001,
          -3.8836817983757101e+000, -6.7096177669938817e-001,
          -2.7000897331168456e+000, 1.1344122517935937e+000,
          1.5497142635259902e+000, -6.5434000755027144e-001,
          -5.9161418728134640e-001, -1.2192503403423869e+000,
          -2.9173590269166829e+000, -5.6943414510656938e-002,
          6.8036435885193691e-001, 1.5537121895432675e+000,
          1.7118023392391968e-001, -3.5243893710368486e+000,
          -4.1303027618429944e+000, 1.3820665848213880e+000,
          -2.4662741629027281e+000, -6.2456655184498056e-001,
          1.9676146486029134e+000, 5.9953108951384726e-001,
          6.6575978389381218e-001, -1.0466369637947266e+000,
          -7.8164590264496363e+000, -4.5757507459660679e-001,
          1.4690017526245951e+000, -1.0030451934877138e+000,
          -7.2379046018209703e-001, -1.1111164954114954e+000,
          -2.0398949539091724e+000, 9.8952330296600954e-001,
          -1.1558550087812183e+000, -8.5838283474637944e-001,
          5.3159954799777731e-001, 2.4661779910910715e+000,
          -7.8110218875549275e-001, -3.6073594087085259e+000,
          -2.4065841074721397e+000, -7.1329620799228144e-001,
          -5.1018493122558013e+000, 6.6757492674324695e-002,
          -3.9909634225507515e+000, 1.0834081303719133e+001,
          -1.7462361939082247e+000, 3.2792816531181184e+000,
          1.8727243484738940e-001, -1.6839800173122732e+000,
          3.2241012831564606e+000, -4.2050914329714278e-001,
          -1.9971536238856738e-001, -2.4147961560263426e-001,
          2.0196869827729018e+000, -4.7960015835090969e-001,
          2.4473202361879334e-001, -1.7422528974557854e+000,
          8.2107334925899400e-001, -9.2780927689585735e-001,
          -1.0569460839314764e+000, -1.0975818011880492e+000,
          6.5009663923608141e+000, -2.3167728617397203e+000,
          -1.4777235965646494e+000, 7.4132669222541892e-001,
          -7.3098158459800078e-001, 5.4834803727602512e+000,
          -1.6139423037584484e+000, -3.5800606826416675e-001,
          -3.6467808169538150e+000, -1.8355135108186781e-002,
          1.4802331872129373e+000, 1.4689217108155084e+000,
          4.0154604730223467e+000, -3.3716651989402652e-001,
          2.3071428245921806e+000, -6.1836029364165257e-001,
          -2.2173609046411973e+000, -1.0010255861513113e+000,
          -3.3562403615532371e-001, -1.4180304560033814e+000,
          -5.3072944123158750e-001, 1.2980674982851753e-001,
          2.4937088497969531e-001, 2.8383033692916722e+000,
          1.0131361441919995e+000, 1.8249126593958394e+000,
          8.4604840127795171e+000, 1.8666935785714274e+000,
          -2.2296972047096939e+000, 9.9517699121169104e-002,
          -1.2334687327411236e+000, 5.0497224329955070e+000,
          -6.1335130712703094e+000, -2.4078433219545157e+000,
          -4.2808771544014386e+000, 3.0636362206872807e+000,
          2.5743181305571396e+000, 3.5346117372744468e+000,
          -1.8876150913382714e+000, -5.2920503325027866e-002,
          -3.2763870147732441e+000, -2.4522145415748914e-001,
          9.5807977389578944e+000, 6.8320092140286270e-001,
          -1.2341974206761894e+000, 8.7383066250025421e-001,
          1.0025917754151294e+000, -2.0756594630459397e+000,
          -3.2856505584142819e+000, 6.4849229744444337e-001,
          4.4788560547386789e+000, 6.5032965389670822e-002,
          -2.9723858206027021e-001, 1.2570354987931911e+000,
          -6.5579444783030461e-001, 1.9653588293428448e+000,
          -1.1257144839180224e+000, 2.2768145043084900e-001,
          1.4514531039154617e+000, -1.6619700250860270e+000,
          -1.1920488593132153e-001, 1.7218279150203364e-001,
          -2.7468368688871578e+000, 6.9103480864094802e-001,
          -2.3401448010018927e-001, -5.2162927001909976e-001,
          9.3578365022709908e-001, -1.1875291862023163e+000,
          -6.3277348004405143e-001, -1.5568899906878794e-001,
          -2.2644156294334192e+000, 1.4762955136975615e+000,
          1.5514162261290825e+000, -1.4805119235115911e+000,
          1.9647392914652614e-001, -7.9545756473672447e-001,
          -1.8579287706838397e+000, -3.5712328741792088e-001,
          5.9226972870585970e-001, 1.8213647530414820e+000,
          -2.0131644484391313e+000, -4.1290603387529035e-001,
          -1.5477883793453755e+000, 1.2462771805386414e+000,
          2.1618064017791236e-001, 1.2491946599252632e+000,
          1.4322480265366675e+000, -2.5738477622825799e+000,
          4.8804351722992323e-001, -2.2042483593555549e+000,
          7.0007554972883146e-001, 2.0703349090481242e+000,
          2.9102871399922581e+000, -3.7081251964558476e-001,
          1.2864749367797208e+000, -1.2014721736608960e+000,
          -2.8895303895226898e+000, -2.0883658567064453e-001,
          4.4514596771075325e+000, -5.1522470453769431e-001,
          -1.6266236395016906e+000, 5.5788459413132485e-001,
          6.4261420848351747e-001, 6.9271135466567868e-001,
          4.5206542639912700e-001, -1.2579996923230086e+000,
          -2.9339488236822850e+000, -1.0376917830370759e-001,
          2.0876618640576448e+000, 5.4935142956784488e-001,
          1.5162781680970800e+000, 5.0595656621417706e-001,
          3.2025318280618187e+000, -1.3382363405587820e+000,
          -4.5154297364878215e-001, 3.0348232617867033e-001,
          7.5063544502568869e-001, -7.7757219950098611e-001,
          1.2209981882510696e+000, -2.1173508732854840e+000,
          2.5656342523145841e+000, -1.6981154719134588e+000,
          1.1033606426860418e-002, -6.2134962198488075e-001,
          1.1990193654237802e+000, -7.7764238546186604e-001,
          2.9153880670475281e+000, 3.0950425210820649e+000,
          1.4215575999969317e+000, -2.2613112431821456e+000,
          2.1516132391734472e-001, 1.7070560958553907e-001,
          4.0235014979030803e-001, 3.8978367105865663e+000,
          -9.2669714030415473e-001, 2.4670738138597597e+000,
          -1.0520548270542487e+000, 1.1031541669339988e+000,
          -2.1619147326713466e+000, 1.5250185507541596e+000,
          2.7170684262640177e-001, -1.9436512973918935e-001,
          7.8779779034366249e-001, -1.4140651075716895e+000,
          3.7136058319851900e-001, -2.1003710718977024e+000,
          6.4264730191755459e-001, -2.5965836085791444e-001,
          -4.9750694933946491e+000, 1.6646910314987365e-001,
          -4.3348223102649071e+000, -7.7591985698726396e-001,
          9.5016954691435040e-001, -8.1077238808648633e-001,
          -2.4447382747557531e-001, 3.2276131141118863e-001,
          -2.1333114694201800e+000, 8.2966171261444133e-001,
          1.1547134519067274e-001, 2.0387047530023258e-001,
          1.0999596443074686e+000, -6.0145230939287884e-002,
          1.5330973868020246e+000, -5.0700621084623410e-001,
          -1.5748468724520526e+000, -9.4621502212211372e-001,
          -1.1688950859188583e+000, 1.0275433879966654e-001,
          1.1132887614128912e+000, 9.5719140495186164e-002,
          -3.0572278416359358e+000, -1.5650374916321103e-001,
          -4.8483135382501636e+000, -2.3061875325702634e+000,
          1.6559435405111722e-001, 1.2349962870462561e+000,
          4.1787083306962431e+000, 1.0971834883042750e+000,
          -9.9283495788207471e-002, -4.6914479205616055e-001,
          -2.7755195614356758e+000, 7.3998261846784563e-001,
          -4.3014063103296063e-001, 5.5384258860574276e-001,
          -5.5909520095152521e-001, -5.5185292531101127e-001,
          -4.5643919993621268e-001, 9.1609645937151740e-001,
          5.0424771042557517e-003, -1.6447628970959876e+000,
          -2.9106841283269285e+000, -6.2780822745457898e-001,
          1.8478984378662491e+000, -8.0869034247614865e-002,
          -1.5558492111990385e-001, -1.3311146811714629e+000,
          3.7075447778905257e+000, 1.5261971635672014e+000,
          -4.4490022762295309e+000, -9.1335651727089262e-001,
          -1.1366233332715650e+001, -7.4224557968314642e-001,
          -6.0794955365549963e-001, -7.0240168271009085e-001,
          5.4422226162650668e-002, -1.9305109014527508e+000,
          -2.5117430090189128e+000, -4.7925717882099578e-001,
          -1.6719023208842723e-001, 1.7247371602201245e-001,
          1.8683534698588300e+000, 7.2699917537540426e-001,
          5.7467250858090724e-001, 5.8740926034704488e-001,
          -8.6263493377669576e-001, -3.4870226048214259e-001,
          -1.5949675516437118e+000, -3.6055438539961149e-001,
          -2.8612120309004280e-001, 2.5913232142777820e-001,
          -1.7926844824201902e+000, 2.1222399171976871e+000,
          -7.3276455088324000e-001, -3.7168326706328086e-001,
          7.0776162576567947e-001, 1.3969721095432002e+000,
          2.9613004198301360e+000, 1.0309657176814928e+000,
          7.4720253351955124e-001, -1.1089057009185928e-001,
          -2.5845414308560879e+000, -4.4816000423094149e-001,
          -1.2066951137740523e+000, 3.6174430575512667e-001,
          -2.1428187204351326e-001, -5.8414110296529886e-001,
          1.0387949693403682e+000, 3.4985918199100008e-001,
          1.2749539853316540e+000, 3.6874483158972138e-001,
          -7.5248729697431316e-001, -1.0318557529850956e+000,
          6.9147369462236333e-002, 2.6791679167219951e-001,
          -1.4464221102747803e+000, -1.6609172080895140e-001,
          1.0626350761459631e+000, 8.8077864037602616e-001,
          -1.1404782251769401e+000, 1.4403673830045236e+000,
          -1.3595898871339802e+001, -5.8221468629577344e-001,
          -2.9914138165245441e-001, -6.3009435483332599e-001,
          4.6603149561794099e-001, -1.5996025592805205e+000,
          -2.5403898642889318e+000, 4.8533045057374199e-002,
          1.0104092472596594e-002, 8.0311279296442917e-001,
          1.8091763857581378e+000, 1.3852337001709181e+000,
          2.4950991845367132e+000, 8.6719294511006517e-002,
          -1.6596553923190920e+000, -6.0356465418538252e-001,
          -8.7090868665782173e-001, -1.7764386029376606e+000,
          7.0111941141472844e-001, -4.7757665437562657e-001,
          5.9010938341821606e-001, 9.2416857822873566e-001,
          -3.2310686543108802e+000, 7.6365248219982668e-002,
          6.3654762175399904e-001, 3.8980913279088059e-001,
          4.6978038327153504e+000, 6.0804764835379033e-001,
          1.0087350089126672e+000, -1.9212688737653940e+000,
          -1.2221701900179522e+000, -4.3266768138466133e-001,
          1.9461795435441440e+000, 3.2972327409103626e+000,
          2.9463495621125374e-001, -1.1921677192486022e+000,
          5.8270465586380704e-001, 1.9419453640968873e+000,
          -2.9902022405261403e-001, 1.5743986498572609e+000,
          2.8986101339893228e-001, -1.0015287109706477e+000,
          -2.0962995187869295e+000, 8.5306898597660485e-001,
          -1.9961938095964611e+000, -6.5901406654627936e-001,
          3.5229471213196728e+000, 3.8810334193268442e-001,
          -3.2509077695561581e+000, 1.2367964009066774e+000,
          -5.9008175244275272e+000, -2.9607609335550028e-001,
          1.3768738875891546e+000, 2.0291223301611128e+000,
          1.0504264642611687e+000, 6.1693086476177472e-001,
          -3.2032882419307240e+000, 4.8250019849054482e-001,
          6.8029538664202216e-001, -3.2940043016252513e-001,
          1.5789122145558261e+000, -5.1392658155906934e-001,
          -3.7326898755043452e+000, -9.0807776999866152e-001,
          -3.3006863490842777e+000, 8.0326673548443073e-001,
          -2.1609270993468060e-001, -1.1175274404545501e+000,
          3.9340033974683741e-001, -9.7621487875199064e-001,
          -1.2359690904267235e+000, 2.0095632543135209e+000,
          1.0359189933868840e+000, -5.4954636570206195e-001,
          2.9224567620629527e-001, -9.1906126585317039e-003,
          3.7094223715989800e+000, -7.5102675885234449e-001,
          1.5988611886271620e+000, 1.2591118156085512e+000,
          -1.0935506681433240e+000, 5.4061143652475707e-001,
          -1.6518110746057109e+000, -7.5276280122569683e-001,
          2.6673233374204175e+000, -2.1537336189918945e+000,
          5.0575673547893307e-001, 1.3837112496191926e+000,
          2.1094677791724084e+000, -3.7221495597413408e+000,
          1.3102500821605239e+000, -1.0338558317740840e+000,
          3.0230338298571278e+000, -4.2795925845711502e-001,
          -4.6989537069192823e-002, -4.4703741972836014e-001,
          -1.5978215848705672e+000, -1.7413531945999838e-001,
          6.2058773357104853e+000, 2.0539090895457668e+000,
          -6.5571107616713098e+000, -1.2044099905174759e+000,
          -2.5515400814810243e+000, 4.9336561536796780e-001,
          -9.0487670006373078e-001, -2.7712900354161996e-001,
          -3.4117160524011925e+000, 2.8239218345089738e+000,
          1.2762780191033993e+000, -7.7571531562154072e-001,
          -1.5302762854671653e-001, -8.0606511896910993e-001,
          4.0415993776283193e-001, -7.9840938066378686e-001,
          2.5913315830747869e+000, 7.0577139684257217e-001,
          -1.1910980945833007e+000, -2.9568498311984298e-001,
          -1.9998576012689007e-001, 1.0380798628585590e+000,
          -2.0083895586617673e+000, 1.4281986538770286e+000,
          1.4891617976096347e+000, 5.0132808113934280e-001,
          -7.0080224522538892e-001, -7.5208306103926670e-001,
          -9.1666162894172487e-001, 9.4283389051306754e-001,
          2.3160171714172595e-001, -1.6852510620142530e-001,
          -1.6667006654843597e+000, 9.1498915023768213e-001,
          -1.0587186033132738e+000, -2.2561069771068123e+000,
          -3.2501546710014745e-001, -5.2618877111460967e-002,
          1.9361376660547973e+000, 1.0327365913020878e+000,
          -1.4125276916166971e+000, -1.6862239080207422e-001,
          1.4286565213141194e+000, 5.1918498901050425e-001,
          5.7001987997442374e+000, 1.9986277686216114e-001,
          2.0094767409735015e+000, -6.2283500697726335e-001,
          -1.8946694198584761e+000, 6.0284582547952792e-001,
          1.2141318668414816e-001, 2.3026182553433125e-001,
          -1.1740737503257385e+001, -6.6231072594740081e-001,
          -1.3456254414602671e+000, -6.4139587985429702e-001,
          -4.7761222987479962e-001, -2.9375050412073056e-001,
          -2.9286912746860989e+000, 1.6613636902623120e-002,
          4.1341207380803845e-002, -1.2005713523359401e-001,
          -3.5463760310253167e-002, -6.2095014846642127e-001,
          -3.9343970962683947e+000, 7.0105022982097365e-001,
          4.3594444781117375e-001, 1.8679045930499646e-001,
          -8.3471198664123536e-001, 4.1088182037136045e-001,
          1.4371289506786611e+000, 3.3200976544346855e-001,
          3.1256380306203937e+000, 3.5133117613414035e+000,
          2.0100309385822293e+000, 5.7969715295961322e-001,
          2.2165990641931699e+000, 1.9040259018325936e-001,
          1.3765183336012556e+000, 5.3870221462878412e-002,
          -1.2103850199580195e+000, 7.8783678094012821e-001,
          2.4891967462123696e-001, -5.5606556536608220e-001,
          -1.9048256762134508e+000, 3.2651310607612190e+000,
          5.0778878098788971e-001, -5.5328690089079446e-001,
          3.5610847387479522e-002, 2.8044214352105507e-001,
          -1.9710727906014935e+000, 1.4025539751348732e+000,
          -3.5201401681310956e-001, -3.3142569914514968e+000,
          -5.7732185058568275e+000, -3.1101170876749151e-001,
          -7.7390151449069311e-001, 1.2311625762077383e+000,
          1.8033223648762600e-001, 9.1172610985580815e-001,
          -1.2383287939925962e-001, -1.2199275179523310e+000,
          -3.6561763529507227e+000, 5.2244539556550540e-001,
          1.7307570979513505e+000, 1.2299337622618493e-001,
          1.1400376344486758e+000, -1.5018287195516438e+000,
          -3.4279718742442049e+000, -8.5675482999476571e-001,
          5.6323084699605575e-001, 1.1135979861680612e+000,
          -1.7020390822131355e+000, -4.3020939772999794e-001,
          -2.9612921580952007e+000, -1.0640238943432947e+000,
          4.7580581849361403e-001, -1.8991375569824290e-001,
          4.8332132581843013e-001, 5.0400927159282030e-002,
          -4.4622783786970388e-001, -9.8478535961487434e-001,
          9.6500078488717234e-001, -3.7577523898535470e-001,
          3.7041233647342118e+000, -8.9398032383725601e-001,
          8.2377299130681847e-001, -4.5155615284853739e-003,
          6.1013874500587191e+000, 4.1393164798706378e-001,
          2.0611192965140712e-001, -8.1518229958715227e-001,
          5.8855048825378535e+000, -3.7188079628880988e-002,
          1.5332458301028049e+000, 5.2085111923278160e-001,
          4.8639594469445496e-001, 4.6878010281510263e-001,
          1.4323368531647729e+000, -5.8145948280261261e-001,
          -8.0378901014299542e-001, 7.9637045081125929e-002,
          5.3783838183076560e-001, -1.4778789804822539e+000,
          -1.9405450755613611e+000, -3.6810235113204293e-001,
          -4.5183359777245335e-001, -2.4740359489032995e-001,
          -2.7828565221723106e-001, 7.1765168674270574e-001,
          -6.3861260859988205e+000, -4.8542203716757765e-001,
          -4.4416194185779840e+000, -6.1000614481999638e-001,
          -6.5369213307120788e-001, -9.9131373525403566e-001,
          7.2955100240470294e-001, 5.4604304850598218e-001,
          -1.7344528439263003e+000, -4.5725502205138041e-001,
          5.1856896794760898e-001, -5.7820983677690163e-001,
          9.0349590040543604e-001, -9.5326372610334720e-001,
          -8.5457385325701785e-001, 4.9065303597244159e-001,
          -4.4537387260639844e-001, -6.8598410469835036e-001,
          -1.3562747936065451e+000, -8.5234200034187441e-002,
          -4.9012324345215147e-001, 1.2981775092021344e+000,
          2.2442378933101632e+000, 2.1577367493992661e+000,
          7.9864597174255314e-001, -6.4161257517182990e-001,
          -3.1396906660253582e-001, 1.2641065067942254e+000,
          3.2995613650019795e+000, -3.7583837850080776e-001,
          7.8001435176314793e-001, 1.6030870723580212e-001,
          -6.3194625965820894e-001, -9.3091487165161535e-001,
          -6.3098382630270100e-001, 5.2950458646872856e-001,
          6.8942753772118881e-001, -9.3502750811275182e-001,
          -6.9357261675144810e-001, -4.4141407599933113e-001,
          1.6725250891754815e+000, 8.4722550804156818e-002,
          -4.7095625056492840e-001, -8.7676967071709699e-001,
          -5.0059958177766639e-001, 2.1483526536883962e-001,
          -9.9592325339383558e-001, -5.9830087317373171e-001,
          1.4956796918225468e+000, 1.1655046614518072e+000,
          7.5945155705062695e-001, 1.0016350583213782e+000,
          -2.6429863015973227e+000, 2.9091115487182326e-002,
          -4.5085290441608761e-001, -6.8956370323508165e-001,
          -3.1107525412238396e-001, 1.2524292189891089e+000,
          -9.5503141197941910e-001, -5.6474781300694343e-001,
          2.5137936268631325e-002, 3.9135871539955641e-001,
          3.1185023413515776e+000, -6.7772098386154234e-001,
          1.7539377036129136e+000, 9.4377596053133850e-001,
          -1.0787749650444611e+000, -6.5160289940369998e-001,
          -1.4430823704834039e+000, 1.9118353150326634e-001,
          4.2318461220118486e-001, 5.2022451191882058e-001,
          -9.1790264600118610e-001, 1.3230707395505203e+000,
          -2.3033507811522167e+000, -2.0518953607477153e+000,
          -7.0530416548486607e-001, 6.7624666018285196e-001,
          1.1844197552970024e+000, 1.4197009994529168e+000,
          1.3951917537947349e+000, -9.8626885926432561e-001,
          -3.2626757517245637e+000, -1.5133409466552419e+000,
          1.0316847406119642e+000, -1.2977088605406017e-001,
          -1.5412277813993808e-001, 3.3668715779037073e-001,
          -1.6609604956185240e+000, -8.1152007483898780e-001,
          2.7269451134673289e-001, 2.7817094953796551e-001,
          -1.5653883239795212e+000, 4.0372408829238493e-001,
          -5.7126469866417628e-001, 1.5410673349320518e+000,
          -1.0041964015427514e+000, -1.2348304074480354e+000,
          1.7763247415547101e+000, 2.9953608644142754e-001,
          -5.2231550102332325e-001, -1.1563064698764933e-001,
          -6.7898535449515309e+000, -9.3584680018817160e-002,
          -6.2963927069153613e-001, -5.3301761088387056e-001,
          -1.2737186257237834e-002, 9.4483072589370143e-001,
          -2.9241770615414714e-001, -2.1549955683814104e-001,
          7.2543311586369585e-001, -1.0656002745998314e+000,
          3.5459196410515927e+000, 6.6768882801802654e-001,
          2.0395165385352129e-001, 7.7585946827479901e-001,
          -1.7647044905907812e+000, -1.1026056074090637e-001,
          2.5002474338253139e-001, 5.2982237729935999e-001,
          9.6233884911101353e-001, 1.1607865800323347e+000,
          1.5156730875148516e-001, 1.1571808657261520e+000,
          -2.0309380670369483e+000, -6.0145055917119972e-001,
          1.1060749197410618e+000, 2.2859927782302192e+000,
          1.9467075965601482e-001, -1.7323132642774144e+000,
          1.8507264903712846e+000, -4.8442303987310303e-001,
          -1.2527819177051129e+000, 6.7017071540277950e-001,
          -1.0796951507090846e+000, 1.3643517186311527e+000,
          -1.2354025394405550e+000, -6.4780664747741423e-001,
          7.0034429687684818e-001, 3.7613068733355920e-001,
          9.5933498215452262e-001, -6.7400118929707442e-001,
          -6.3311467150247169e-001, -1.2990411877285435e+000,
          -1.2143295619854990e+000, 4.0945863628194212e-001,
          -5.3183267575099979e-001, -8.7554561678007559e-001,
          2.5333095942120374e+000, 3.3431382642414570e-001,
          -1.2940091427730758e+000, 1.5640068207623092e-001,
          -6.7364733017242386e+000, 6.4124500634763648e-001,
          -7.4622294916596554e-001, -1.6913635786180419e+000,
          -5.5574735989267676e-001, 6.8495499399563819e-001,
          2.8269597801291657e-001, -9.9468958098622706e-001,
          7.4811079264287150e-001, -5.7989175413291394e-001,
          2.0877021719647093e+000, -4.2803351766278691e-001,
          2.6380899457378632e-001, 1.0013673064661346e+000,
          -1.4054530153551097e+000, -7.5297063303090339e-001,
          -1.2175581355466349e+000, 4.1445343576085808e-001,
          1.0431592775906011e+000, 9.6453561411164268e-001,
          -6.0798416987613668e-001, 9.8939623459596360e-001,
          -1.3896023080353046e+000, 1.0939281047643555e-001,
          1.8237705491501668e-001, 2.2328718193531630e-001,
          8.7497609331958559e-001, -8.6496721150505551e-001,
          2.1456129281372349e+000, -4.3962352754997874e-001,
          -1.6512784145565562e+000, 1.0327097869330744e+000,
          1.1374302409951140e+000, 6.5194384594761301e-001,
          -3.5413404226289807e-001, -7.6970632858634058e-001,
          3.5105702543011534e+000, 8.5384387192960054e-001,
          -1.0430881989921660e-001, 7.3108462715656530e-001,
          -1.0068680462051303e+000, 2.5457098582279120e-001,
          9.4839471449042634e-001, 4.6888186036386220e-001,
          -5.0846919080896813e-001, -1.0419829619919205e+000,
          2.1746354912835759e+000, 1.8402259887448782e+000,
          -4.3135099016523508e+000, -1.0196965388953201e+000,
          3.9920539234583514e+000, 1.8758036194680616e-001,
          -3.4511296766585451e+000, -1.6035540041597957e-001,
          -3.9497962033932421e-001, -3.5194718557259125e-001,
          -4.8380591652820470e+000, 3.4762900286321501e-002,
          -8.9072284035058802e-001, 9.7201602201575865e-002,
          -4.3597200321063279e-001, -4.5867586538545135e-001,
          -3.0371306456679412e+000, -1.2856559680512547e+000,
          1.9748994847175477e-001, 1.2131781150626377e+000,
          8.1264065086946335e-001, 2.2405877864311616e+000,
          1.4052991857661852e+000, 2.2240386813274569e+000,
          -8.8837715981065235e-001, 8.7185913093739048e-002,
          -1.1577079066358861e-001, 1.8662944593679749e+000,
          -3.0401773730717618e-001, 7.7943452562933746e-001,
          3.3168644034101833e+000, -2.5286513135976660e+000,
          3.3962803206381613e+000, -2.5401970842096793e+000,
          1.6491506423804143e+000, 2.4098145765159003e+000,
          2.3939712708668006e+000, -4.1682589001957909e-001,
          -5.4237020113156897e-001, 4.8082654404830183e-001,
          -3.3812081580694482e+000, -9.9329730044424658e-001,
          1.4179325284021878e+000, -3.8273936322486590e-001,
          -1.4963850348492214e+000, -1.2433672758255145e+000,
          -1.4500323892353195e+000, -1.2220579795982176e+000,
          8.6244749166736112e-001, 3.5751243931684951e-001,
          6.0747686505062726e+000, 6.3228031085341940e-001,
          -5.6723032510480085e+000, -2.8242116296004188e-001,
          -1.1200169625543399e+000, -5.1086816763428367e-001,
          -9.6121126283191594e-001, -1.3293361120633793e+000,
          3.8166059327797286e-001, 2.0616869400802442e+000,
          6.3427752609608090e-001, -1.6497349140987774e+000,
          -2.2731621551942562e+000, -1.0206954091214175e+000,
          -9.4107891162159896e-001, 1.0640585193922114e+000,
          2.3780777972840381e+000, -3.9228153403449156e-001,
          -3.5734328536715090e+000, -1.3697309112862471e-001,
          2.7839899564401754e-001, -2.6003299401771454e+000,
          -4.3109240063257370e-001, 2.4239344967361469e+000,
          -1.8512507235407052e-001, 1.1848547103692917e+000,
          -1.3387637059262622e-001, 1.3622775498908259e+000,
          1.0506632645602598e+000, -1.6307339089430044e+000,
          -3.0921857225998970e+000, 1.4733254449612889e+000,
          -4.4832502389141915e+000, -2.8728650640062448e+000,
          -1.9671719574392184e+000, -9.9785199544957043e-002,
          -2.7584386517367947e+000, 7.6630202683522039e-002,
          -1.4221743077757016e+000, 1.7063756505407199e+000,
          -1.3397744160404672e+000, 1.8583258369027630e-001,
          -1.8104394043962395e+000, 1.3935601997275133e+000,
          -1.4142980649709895e+000, 3.0392043503908722e-001,
          -3.6250449225010317e-001, -5.4362491285742753e-001,
          -7.1952006651675737e-001, -7.7841909573877810e-001,
          1.5961334863879764e+000, 3.2525047361607197e-002,
          -1.0824359827153214e+000, -1.4725857784512959e+000,
          6.2185360855239518e+000, 1.1772675968482602e+000,
          1.5001359726144508e+000, 7.3744965895270875e-001,
          7.5427549337445032e-001, -3.0178588091726914e+000,
          1.1561056909376786e+000, 2.7881633557027213e-001,
          8.8263011096355060e-001, 4.7618325205465645e-001,
          1.9067513189646990e+000, -8.1032386084257213e-001,
          -2.3244317631842923e+000, 5.2535753156758380e-001,
          -2.3501094555854718e+000, -8.0426964108204013e-001,
          -1.0104657758213971e-001, -1.6051515666840286e+000,
          -1.8118297834356870e-001, -1.8415526453057143e+000,
          1.1757979437498826e-001, 9.7677938289816946e-001,
          1.6744673449182976e+000, -7.9789446643816364e-001,
          1.2967116807620420e+000, -5.2665952171554620e-001,
          -1.7538773511531929e+000, -5.6113814205940660e-001,
          -1.6223871607809677e+000, 2.1932647865903912e-001,
          1.1466983179821775e+000, -8.5765567187368397e-001,
          1.1982565161402479e+000, -1.1324893817526955e+000,
          1.0823605857848402e+000, -1.8570794190625681e+000,
          -5.8992595373569023e-001, 4.3592217236441583e-001,
          -2.0199152345587277e+000, -1.1361775729751258e-003,
          6.2853590118986502e-001, 2.6363814193198007e+000,
          -2.0677909060686511e-001, 9.5239217831376632e-001,
          1.2757883459954391e+000, 9.3187748078529631e-001,
          -2.9281215675393897e+000, -1.6621760791338869e+000,
          -9.9812926334252428e-001, 1.7652464435931456e+000,
          6.2197928603591688e+000, -6.3831844285624584e-001,
          -1.2329699768810782e+000, -1.2923407885716052e+000,
          8.7461476637929103e-001, -9.2555810705358221e-001,
          -1.5594994803315105e+000, -1.5954548015863443e+000,
          -2.1783307623706330e-001, 5.9998606544380682e-002,
          -1.8975544514883071e+000, 1.5389380148181557e+000,
          -1.4030400803819398e+000, -1.1156098776016063e-001,
          -3.5010425395803135e-001, -5.4035201914228626e-001,
          -1.6668185453081625e+000, -8.7654689526117291e-001,
          -2.1184564095419980e-001, -1.9465202760398530e-002,
          -1.2684020319704334e+000, 2.3383936986331399e-001,
          2.9998905426335170e+000, -8.9527100110360391e-001,
          -2.9802730253625138e+000, -1.7683106017505382e-001,
          -1.9987328610998207e+000, -2.5075576032884439e-001,
          -9.2697045241493414e-001, -1.0777197518309152e-001,
          -8.5575011457689321e-001, -1.8908984226238021e+000,
          5.7431142952437542e-001, 3.0849795126501284e-001,
          2.2570478242175321e-001, 1.1243921869191420e+000,
          5.2389869199485928e-001, 5.6286208330481424e-001,
          -2.3318193093951449e+000, -3.2720925693281705e-001,
          4.7398390993851897e-001, -1.6569185488906746e+000,
          -6.7897518740814156e-001, -5.9160340922947685e-001,
          1.7997736663074251e-001, 1.1782460036801532e+000,
          -2.2845168166382628e+000, 4.5052443186996183e-001,
          5.2818569895896355e+000, 1.9344217191445767e+000,
          8.5958770962971922e+000, 1.1092973906126374e-002,
          1.3789160645918439e+000, -3.8251268481052682e-002,
          -2.8892917806634173e-002, 6.1188665349120308e-001,
          -3.1908320521531544e-002, 3.2981682621160746e-001,
          1.6769632936596750e+000, -2.5093535389970845e-001,
          2.8477663302580272e+000, -2.2057251146411656e+000,
          -1.4502779950519367e+000, -3.1575168163663708e-001,
          -1.2528314553770474e+000, 1.3822755653027203e+000,
          -5.6891855084853304e-001, 2.1723918841874683e+000,
          1.6718185414502045e+000, 3.2500975165761636e-001,
          7.5649866507598951e-001, -1.3118648248699689e+000,
          -3.8294964274623027e+000, -1.5620991908942830e+000,
          1.1349222984271792e+000, 1.1296963517476426e+000,
          4.4273656813580482e+000, -1.0734927087904262e+000,
          -2.2995638965942955e-001, -4.6120503528699930e-001,
          -4.9179609859437962e-001, -3.6581307635138116e-001,
          2.5163571087972474e+000, -1.2724398649592592e+000,
          1.4398298737440167e+000, 4.9619909536210699e-001,
          -1.3584966305181889e+000, -4.3146800038718591e-001,
          2.9500552230192950e-001, -8.7955536008034485e-001,
          -1.9842020985504158e+000, 6.6035367220217889e-001,
          -1.5589028060761043e+000, -6.0637816522232690e-001,
          -1.1442177692484212e+000, 9.4718684379640783e-001,
          5.2572598206081693e+000, 5.2758925629235054e-001,
          -1.1968604363628219e+000, 8.8185413141793301e-001,
          -3.6116203533330111e+000, -5.8705065408085932e-001,
          3.2395747763514937e-001, -9.7808708324025262e-001,
          -3.2004253781589768e-002, -2.5612158272829486e+000,
          -2.3690655685806279e+000, 7.5125466011762843e-001,
          1.2676257226492518e+000, 1.0371115011514125e-001,
          -1.2350285313315716e+000, 9.3189656665793341e-001,
          9.5813063986165348e-001, 7.0829551353367284e-002,
          -2.1121811249601201e+000, -1.0214744621327861e-001,
          5.3193990393198576e-001, 2.1613089336941244e-001,
          4.0558317125552201e-001, -2.2007490176634579e+000,
          -6.2230856763775233e-001, 7.7808241552668644e-001,
          4.8256827796730857e+000, -7.0328854949676806e-002,
          5.9509643833353321e-001, 9.9957543317303910e-001,
          -1.1752335407754344e+000, 3.0478520907186313e-001,
          -1.6470429807584053e+000, 1.6236581576671936e+000,
          4.1652299046695113e-001, 2.5650022817222878e-001,
          -7.6323686447590922e-001, 9.7765851265812787e-001,
          3.0202228460154656e+000, 1.5084499322031835e+000,
          2.7491920968365919e+000, 1.0365607913822501e+000,
          7.5745378969881205e-001, -6.1021621786390634e-001,
          -1.4814677855756722e+000, -1.4182150153869344e+000,
          1.1009618312236082e+000, 5.6663484878752357e-001,
          -1.6431256204508934e-001, 3.4705227365711644e-001,
          -1.8896609713568646e-001, -2.4025936183700869e-001,
          3.2456374426615389e+000, 1.2795474053358027e+000,
          -6.2717489196218930e+000, -8.7326969610841698e-001,
          -1.2484575835339400e+000, -1.1524423541254387e+000,
          -7.6710663556293177e-002, -1.8630794712220722e+000,
          -1.3208670300460548e+000, 2.4602167930442584e-001,
          -4.1482306665820179e-001, -1.5163143037783156e-001,
          -3.0075556807427302e+000, 8.6320390849805428e-001,
          2.1002444257385213e+000, 1.4901594094099793e-002,
          1.3723320060657904e+000, -6.3885461120515652e-001,
          -3.8821671082922343e-001, 3.8872844592065897e-001,
          6.3319148116590851e-001, 1.0851956485447960e-001,
          -1.1907953710577110e+000, -2.5380661750863315e-001,
          -5.8927984001263911e-001, 5.7928838679214611e-001,
          -6.7919668837542480e-001, 1.0165317236421390e+000,
          2.5868177845704294e+000, 1.0689167055311080e-001,
          -2.4111365418184236e-001, -3.3514637000448289e-001,
          -1.4099526070219572e+000, -4.6384752931978662e-001,
          5.3246438237313232e-001, 2.2452835412173080e+000,
          9.8433366380542942e-001, 8.8206205377416924e-001,
          1.0035768728953336e+000, 1.4665816300176682e+000,
          -1.4213166074111714e+000, 1.9999925330690716e-002,
          -3.7846823362767795e-001, -1.5084757672993840e+000,
          1.1006970266791691e+000, 1.2292434152267098e+000,
          -1.0094222267372059e+000, 1.6279626415366932e-001,
          1.0391665328535116e+000, -2.5047510567373255e-001,
          -4.7124042996128707e-001, 1.5832656531018046e+000,
          -6.7245277734883571e+000, 2.5240857692791796e-001,
          4.9286572384634442e-001, -6.7838834878220433e-001,
          -3.0600518791848380e-001, 6.2754298312160606e-001,
          -3.3132433694007540e-001, 3.5040335693540241e+000,
          -7.8287946311130996e-001, 1.2193024127839116e+000,
          4.2980278386711229e-001, -1.0962107226862816e+000,
          -6.0824577078367548e-001, 4.1292476753087526e-001,
          -1.1725570928013251e+000, 7.3178448126022975e-003,
          -1.6135616900201100e+000, 5.7653554532339657e-001,
          -6.6337217723788283e-002, 3.6533624476127002e-001,
          -1.3058417879727457e-001, 1.1436063452504859e+000,
          -2.7818538445521686e+000, -2.5545933572340684e-001,
          1.9913518999406568e+000, -2.2329832649799521e+000,
          2.5600044201658947e+000, -4.6620802825978697e-001,
          -1.2727914068758459e-001, -9.4204582272198201e-001,
          -4.3920838192969852e-001, -1.5688992664249948e+000,
          1.1038747622394440e+000, 7.1840663310852637e-001,
          4.5928237486458406e-001, -6.3820054504422952e-001,
          -8.0736100614235895e-001, 1.6472308869661427e+000,
          -1.3910853263250111e+000, 7.1723838011929308e-001,
          -1.1570249747115839e-002, 8.9654595495146538e-001,
          -2.0839849379318869e+000, 1.0171254539423047e+000,
          -1.7197762616774439e+000, 6.0800624795108438e-001,
          6.5255437317527226e-002, -2.7305374998909532e-001,
          -3.0143298609589109e+000, 1.4259871386789420e+000,
          -2.6362197682682251e+000, -9.3913132051145631e-001,
          9.5540053813847681e-001, 2.3946215450568892e-001,
          1.6737328308536076e-001, -4.9660126650384268e-001,
          -6.3072624830820456e-001, 8.7268855922321276e-001,
          -6.4173356843294005e-001, -2.1458153658281834e-001,
          -6.6855790411828131e-001, 7.6754510225205363e-001,
          -2.7834406063888484e-001, 1.6545029756353422e-001,
          -1.7367492951869656e+000, -1.9393529710946747e-001,
          5.8184984178899102e-001, -2.2334523554635566e-001,
          3.4821539731828932e-001, -3.2919012924603277e+000,
          -5.9473491285778224e-001, 9.6506961696788918e-001,
          6.4164102323541119e+000, 3.2339479021014123e-001,
          7.8652432149830465e-001, 4.4848454048668068e-001,
          -3.3560569749950586e+000, 9.3756588728310120e-001,
          -3.2251759881316133e-001, 2.8463058647847657e+000,
          -2.2987985234670071e-002, 1.0227442445422430e+000,
          -9.2528591515930858e-001, 2.4369803674417723e+000,
          2.5383877594968092e+000, -1.0429966953599079e+000,
          4.3257283491749785e+000, -1.9439023285609543e-002,
          -3.9333454616056633e-002, -1.7507401728584196e-001,
          -1.5864320479622260e+000, 6.1985166267928116e-001,
          -2.7320033497467594e-001, 9.0079895936335208e-001,
          -4.1608267544854860e-001, 1.7890556600498533e+000,
          -3.6681996755739874e+000, -1.5958289468433240e+000,
          4.3115233844807079e+000, 4.8091385500981193e-001,
          6.7311223640025508e-002, 2.3047884355193182e-002,
          1.1705198350687980e+000, -1.5393794769209326e-001,
          -1.8440247000799523e-001, -3.2270014833700329e+000,
          -8.1893707111070760e-002, -3.5332993685339416e+000,
          -1.2807588678952606e+000, -1.1267536616289555e+000,
          -2.4853223241741018e+000, 2.7583842626426311e+000,
          -1.2389227950078279e+000, -3.9457873487027850e-001,
          2.8079432889963636e+000, 5.0930307617371032e-003,
          -2.9266077237819188e-001, 9.4447763370002191e-001,
          4.0996480882375241e-001, 1.0150196525006436e+000,
          6.5488459521358044e-001, 3.5229887169393198e-001,
          1.9312812814607068e+000, 3.3210988452448276e-001,
          -7.3140050962948444e-001, 1.6990045453224258e+000,
          -4.5852371628152455e-001, 4.9026281752902595e-001,
          1.0007969055280400e-001, 3.2017497604489342e-001,
          -1.7920583011641531e+000, -1.0436819562139264e-002,
          -2.1625945520963161e+000, 1.8722582861490873e+000,
          1.0586380175478136e+000, -1.0612520049110701e+000,
          3.3087433253743388e+000, 1.5660714413306456e+000,
          -1.3691735936209655e+000, 1.4867369150317487e+000,
          -1.6691051954556819e+000, -5.0516080439067124e-001,
          -2.2078978134906121e-001, 2.3226519924162714e+000,
          -1.6918875976291770e+000, 9.0747061562210729e-001,
          -2.4614286985529548e+000, -1.7537798606255421e+000,
          -4.6245019066984723e+000, 3.3591594716022599e-001,
          2.5694374912507660e+000, -2.5668112595730880e-001,
          2.8278672803982297e-001, -7.0879324116605835e-001,
          -3.4352331656693669e-001, -1.0783808736229148e+000,
          5.6828717770914916e-001, -2.0387518940396294e+000,
          -1.6856565004265693e+000, 1.3763984674941401e+000,
          -1.7988466815448606e-001, 7.1491432455791637e-001,
          -4.5772784007986589e+000, -2.7190960400167691e-001,
          5.2262659718156879e-001, 5.6056638005080817e-001,
          -7.9403251388008533e-001, -1.1880349730053331e-001,
          -4.7145983427413984e-001, 2.3312665143752285e+000,
          8.2538240884337777e-001, -1.5606131639596992e+000,
          -2.8763172359557796e+000, 1.1007027233083180e+000,
          -1.0436431171165941e+000, 3.7576463589808545e-001,
          -8.0831893939460475e-001, -2.2398009406790553e+000,
          -1.8910137349398230e-002, -1.3895261933432848e+000,
          -1.5669823199509005e+000, -1.2613915894107073e+000,
          -9.2643037414860296e-001, 9.3699537543385247e-001,
          -1.5204684774505277e+000, 1.4261723106465891e+000,
          -2.1492826266905474e-001, 4.6250088974245934e-001,
          -1.6841000342105685e+000, -6.1230175955653299e-001,
          2.7156043663158530e-001, -3.0011057491015936e-001,
          -6.2354325803369370e-001, -1.7897312348537217e-001,
          -8.7057422832453724e-001, -4.6989260770712576e-001,
          -1.2720221241937451e+000, 4.0490527208891447e-001,
          -5.5214283493552561e+000, 2.5144074639001750e+000,
          3.9799346538300457e+000, 9.1044172396807865e-001,
          7.9414806329111043e-001, 1.4523112006436476e+000,
          6.6873335138363255e-001, -1.0558938678850069e+000,
          6.9503602589309610e-001, -9.6631750856324117e-001,
          -1.0787396317714155e+000, -1.3025876541804668e-001,
          1.3544359547667715e+000, -9.2377475909597606e-001,
          -1.0173324427944261e+000, -1.3372092144658573e-001,
          -1.2410339430775352e+000, 7.3538213454053114e-001,
          -1.5742727870523507e+000, 8.7390165737490799e-001,
          1.4415189335429153e+000, -1.2725933732803008e+000,
          7.7507155948295303e-001, 5.7508769721294102e-002,
          2.7070410570792641e-001, 2.5922276045624892e-001,
          7.7380222011835942e-001, 9.4639765148293542e-001,
          5.6123602922589999e-001, 5.6269384135247213e-001,
          -2.9355022674391773e-001, 4.1887399232165479e-001,
          4.5638416678419236e-001, 4.8816730742656561e-001,
          -2.4424845785869347e+000, -3.3273047449838722e-001,
          2.6511581653960514e-001, -4.2383382160981636e-001,
          2.4740011511429776e+000, -1.0574078156377600e+000,
          -5.9636899476267526e-002, -2.2083252555754034e+000,
          -1.8239827789974969e+000, -2.8871885356447391e-001,
          -6.3130541045908017e-001, -1.2490448906128284e+000,
          8.0653434937240676e-001, 1.4104473200170273e+000,
          1.2350092124056098e+000, -6.8149896286406919e-001,
          -2.3372631903160275e+000, -3.3937393847494429e-001,
          4.2489309191972335e+000, 6.0767805619560522e-001,
          1.1355078207848956e+000, 3.8847327691684180e-001,
          1.1176481565153577e-001, -1.4060955619754320e-001,
          4.7744974763057207e-001, 2.5131109246550754e-001,
          -1.1087251074363060e+000, 1.1295337063374600e+000,
          2.4412099017375888e+000, -8.4061212507212191e-001,
          1.5184318331811468e+000, 5.7331064022361537e-002,
          2.3669862481184770e-001, 4.8989567157096608e-001,
          -1.7785109796202843e+000, -7.0134023532086642e-001,
          5.3785818149356723e-001, -7.9670198205539600e-001,
          -3.0383333049776040e-001, 7.1474327290070538e-001,
          -2.7580093963616283e+000, -3.3103129563789779e-001,
          8.2225177797894600e-001, 1.3349260394228157e+000,
          1.5478550158562396e+000, -1.0568812625285315e+000,
          1.2527100417771975e-001, 6.3898572212829810e-002,
          -2.4734264959857870e+000, -4.9567511578675577e-001,
          -7.6773664878157644e-001, -1.5691941943451179e-001,
          1.2932978856747475e+000, -1.3237356881807012e+000,
          2.1387914909598043e+000, -1.1713781073889738e-001,
          3.3973126228250417e-001, -5.7327387675193819e-001,
          -1.1613413543506552e+000, 1.9658373404190206e+000,
          5.3127112982062696e-001, 4.7332474572254141e-001,
          2.3884885724848359e-001, 1.2533213670916612e+000,
          1.8544882335106090e+000, 2.7506831591824238e-001,
          -5.3939780111426461e-001, 1.2751433331959616e+000,
          4.7225316070631971e+000, 7.4278248064212615e-001,
          1.1592776456446292e+000, -9.1791695368966406e-002,
          -6.4609294456884861e-002, 1.6662651872724275e+000,
          1.0022477464078838e+000, -5.1214639238215197e-002,
          -1.8546146211389551e+000, -5.2155273924969214e-001,
          -3.5014591610387091e-001, -1.5924028803064343e+000,
          1.2569231358515154e+000, 4.9266684355371038e-001,
          -1.6876934701688384e-001, 6.8286267944478418e-001,
          -1.1968229529932026e+000, 1.7544127358810174e-001,
          1.5038812241657222e+000, -1.4646917321056288e+000,
          2.6442969141770439e-001, 1.4900152236970052e+000,
          9.0003448352793358e-001, -6.2989375945451187e-001,
          1.8605227596883673e+000, 2.1202780053291392e+000,
          -1.4761738483416947e-001, 5.3739474415079169e-001,
          -1.2702568857658927e+000, 1.2745247572461775e+000,
          -1.1918101702786565e+000, 5.4198008873718430e-002,
          -1.9293244080431089e+000, 9.4355422489322627e-001,
          1.1247373829830816e+000, -7.0569521647964140e-001,
          1.8144674918046089e+000, 1.6661707222046357e-001,
          -2.8262159479042355e+000, -2.2449639684235452e+000,
          -1.6533770983431995e+000, -4.5266829464805108e-001,
          5.4364928586334560e-001, 3.0995990707181920e-001,
          -1.0089547008476571e+000, 1.1853784255122894e+000,
          1.9503822308943048e+000, 2.0105019311968572e-001,
          4.9385655769782377e-001, -1.9631926858086887e-001,
          1.0397253152678871e+000, 3.5313503985673950e-001,
          1.4926859989105306e+000, -1.2665786048830046e+000,
          8.6138546061496590e-001, -3.2216831780872179e-001,
          1.3914984574943492e+000, -1.0950372653888978e+000,
          -8.9543275545301737e-001, 1.3466778265120223e+000,
          -2.5270055563460797e-001, -3.3916282022089012e-001,
          1.2467657214614549e+000, -5.9147885823744584e-001,
          1.6509082342959003e+000, 5.3065338762719971e-001,
          -1.7300665395649146e+000, -3.8069086357883053e-001,
          -9.9034210541101020e-001, -5.5850160105113962e-002,
          -6.6445236726770751e-001, 2.7670844885228052e-001,
          -3.7855651401640306e-001, -9.8924745168184364e-002,
          5.6050608941591773e-001, 2.1532072075096290e-001,
          1.7021236051705121e-001, 5.1354195250892332e-001,
          -8.4822914799652016e-001, -2.3951913900041430e-001,
          -2.1128354240018115e+000, -6.7300645770599288e-001,
          -1.2765504648892387e+000, 3.3243932626942335e-001,
          9.6729534015102692e-001, -5.1311467733940708e-001,
          3.1193866345148908e+000, -3.0458970605023816e-001,
          -3.0611494060976612e+000, -8.6424492655188856e-001,
          -7.9483297863850733e-001, 1.6339561615033140e+000,
          3.0911179866524012e+000, -5.3501561813876275e-001,
          -1.1084270381070804e+000, 7.3243358034156325e-001,
          2.8949386125200380e+000, 7.9587552495861760e-002,
          -4.8431142228000903e+000, 1.1577683696592591e+000,
          -7.3793511724491578e+000, 1.0099643906928224e+000,
          -4.3519848534498856e-001, -1.3660175933742025e+000,
          1.2212700482174568e-001, -2.2536137836281753e-001,
          -5.0777685186955113e+000, -2.5089438883821331e+000,
          9.6205858138325739e-001, -2.4368238367560262e+000,
          -3.4798131205388940e+000, 1.3724612895956403e+000,
          6.9717153225903494e-002, 1.7202670131231055e+000,
          -1.7447155309013291e+000, 5.9481328289507251e-001,
          3.1181207578595610e-001, 5.4588266212534386e-001,
          7.0697170127294251e-001, -6.9114498847566008e-001,
          -1.7614477793523670e-001, -5.2710648433814333e-001,
          -2.2136203321483503e+000, -1.6451874690124519e+000,
          -8.8120125909317237e-001, -4.3252893458709546e-001,
          3.8021179933835421e+000, 1.9218057633721384e+000,
          -1.9655620456876488e+000, 2.0310858033096211e+000,
          -5.0046037972336899e-001, -2.9489906782038995e+000,
          1.0865860905453522e+000, 2.8526375776691624e+000,
          1.5358628707912134e+000, 4.2140523310664996e-001,
          5.9987743073506694e+000, -4.3566402937906834e-001,
          -3.3383147801161539e+000, 3.3864868870830078e-001,
          -4.8873954980552670e-001, -1.0255201962605887e+000,
          -1.3813812293503263e+000, -2.3936203450223828e-001,
          -1.8685754792851654e+000, 1.7629504483684679e+000,
          1.3718186283395724e+000, 1.1431333114746098e+000,
          -2.9361109270996693e+000, 5.4417212355460473e-002,
          -5.6367073710271436e+000, 1.6456114849525483e+000,
          -1.6336215906042087e-001, 1.8521609954638847e+000,
          -3.3112343781080739e-001, 1.3365567768056047e-001,
          -3.1633124647964777e+000, -1.7019585015143317e+000,
          8.7907406513186837e-001, -8.9907309594279305e-001,
          -2.9311895957252112e+000, -2.4808495545940282e-001,
          -2.5650985606968097e+000, 7.8276168538710456e-001,
          -2.0686640340070479e+000, 5.9084446266413815e-001,
          3.2839951425934206e+000, 8.8506717665161092e-002,
          2.5677980566231047e+000, 5.3774707619689843e-001,
          6.5213423270770010e-001, -1.1670638055599035e-001,
          3.0484323589312896e+000, -2.8193423158922282e-001,
          1.1967208378710535e-001, -5.3126849237612928e-001,
          -1.6831619005564293e+000, -3.1707586401339789e+000,
          -1.0613051383339138e+000, 7.3028919089265532e-001,
          -6.6941440357137239e-001, -1.6861930503286973e+000,
          6.8113223277207513e-001, 5.0504296139981548e+000,
          -1.0329762178104683e-001, -3.1691843453328126e+000,
          9.5866187935169289e-001, -8.4661485147823445e-001,
          -2.7997394319188147e+000, -9.5658066539886510e-001,
          1.0464704690608206e+000, -9.6440606699174636e-001,
          -1.8391343575692214e+000, -1.0748725104723771e+000,
          1.1044311135188380e+000, -9.2474843436826382e-001,
          -3.2455197692769007e+000, 9.8637072090665256e-001,
          -4.6716194800376698e+000, -4.5133970789223693e-001,
          3.7805473159620844e+000, -7.0131048698298326e-001,
          -5.4824963705736904e-002, 1.7527696036872733e+000,
          9.5027215687865307e-001, -1.8068368598453755e+000,
          4.7702578006056617e+000, 4.0967908885834109e-001,
          7.0358172348825843e-001, -1.6647906148931018e+000,
          1.9217602126535713e-001, 7.4387959945171678e-001,
          1.2912170874118907e+000, -3.8021011620569106e-001,
          -1.1288094691310744e+000, -7.6276306791259152e-001,
          1.8883360054585892e+000, -8.5001223945584425e-001,
          -5.2100288670931597e-002, -1.1024386351690076e+000,
          -3.8724834596592234e-001, 9.8283944085422559e-001,
          3.0823470098258565e+000, 1.2836192923534449e+000,
          -2.0880526407282174e-001, -8.9095238044236147e-001,
          -1.3965563150190208e+000, 2.8949004769792510e+000,
          2.1613615258233425e+000, 2.7480047655033651e-001,
          2.3451960390203430e+000, 6.3727947392942774e-001,
          -1.9090573976781082e+000, 2.9257698679357795e+000,
          3.0578269669224145e-001, 3.8510043028434482e+000,
          2.7011727133350751e+000, 1.4112847780227233e-001,
          -4.4620612553012187e+000, -2.0202641234637873e+000,
          1.1747374929400207e+000, 8.2189572958342849e-001,
          -7.6145747321119495e-001, -1.6539887204875197e+000,
          1.8128199411163759e+000, -1.1475406422946974e+000,
          -5.2821144437191692e-001, -9.9295872526040896e-001,
          1.3869267570035546e+000, -6.2887614467128994e-001,
          2.2660363668551020e+000, -1.6140687384021174e-001,
          -1.7954865587231081e+000, -1.1141759577566510e+000,
          -4.9997855223370075e-001, 1.0765401625019488e+000,
          -2.0255472691451755e+000, -1.2059089673438343e+000,
          1.1542592766419846e+000, 7.3534054069853461e-001,
          6.6669422345429663e-001, -9.7789790548235400e-001,
          -6.5496142139961344e-001, 6.9450260579304823e-001,
          -1.8670367397398606e+000, -1.0800741921542353e-001,
          4.5873989234195639e-001, -2.0969683620328117e+000,
          -1.3542769216184327e+000, -6.6529140098491779e-001,
          5.2815125635451288e-001, 1.6916862685237883e+000,
          1.1649107100285707e+000, -2.1644067905293410e-001,
          -5.9291221451213338e-001, -3.5437028181847613e-001,
          1.6486195883796697e+000, 4.8871503274684036e-002,
          -2.7840076311866885e-001, -9.3543324334210409e-001,
          -8.1624401750434850e-001, -1.2535762490731057e+000,
          1.5791889777124433e+000, 3.7662639837326393e+000,
          -3.3232772730568585e-002, 1.6368806122623630e-001,
          -2.3570641072801596e-001, -1.2489764938604657e+000,
          -1.1941826335731385e+000, -9.8111583083296838e-001,
          -4.0319135893142351e-002, -5.5743204998312212e-001,
          1.8219079648407566e-001, -7.0839879466664812e-001,
          1.4289431452330731e-001, 7.5656066302667774e-002,
          1.8452598523825448e+000, -1.2686987317964746e-001,
          -2.4402329377157184e-002, 2.4282699965998142e-001,
          -4.6395026809929191e-001, 3.1788769520516369e-001,
          1.2393920793013725e-001, -1.7500704701685066e+000,
          2.1787201977371363e-002, -3.3672571235481491e-001,
          -3.7660114820493090e-001, -7.4758057080352791e-001,
          2.7111318496668186e+000, 8.7790127019718756e-001,
          -8.1233959680157286e-003, 9.4577639433275684e-001,
          5.6744098730658177e-001, 2.3915099166746573e-001,
          -1.5207360165330921e+000, -2.2031202010256162e-001,
          -8.1235966148053662e-001, -1.4359627961339924e-001,
          -4.1940512799738094e-001, 5.8758788169263798e-001,
          -1.2390122955180016e+000, -9.6029530782886549e-002,
          -5.3401661739040818e-001, -1.9170783469703295e-001,
          7.8884938672241597e-002, 1.6062198556260784e-001,
          7.4315071654620690e-001, 1.3091713860138818e+000,
          -1.5841254405565889e-002, -3.1209149596454128e-001,
          -1.2800621917676580e+000, -1.6872926531216057e-002,
          2.5234577392562749e+000, 3.0936909162442063e+000,
          7.7135963585419776e-001, -4.1582267089861963e-001,
          -2.1021058564278240e-003, -6.9468816612343109e-001,
          -1.0102584557176668e+000, 2.3192172232791841e-001,
          -2.2352887329710898e+000, 3.2424300643347653e-001,
          -1.0312671628644390e+000, -2.4979965439062046e-001,
          -2.8022545570623930e-001, -1.1298643677186453e+000,
          2.0532467032929860e-001, 2.4865929251477398e-001,
          -7.4330971883968422e-001, -4.6346691878790452e-001,
          3.1239829115752764e+000, -5.8795818844076009e-001,
          -2.4078974135233100e-001, 4.2034341149166637e-001,
          -9.0019374432342725e-001, 3.5222327262581365e+000,
          3.4120498334586484e+000, 1.0069779298594903e+000,
          1.6184206349817860e+000, 1.6128776755985452e+000,
          1.0813310534762111e+000, -1.8131544815422923e-001,
          1.0451375947881769e+000, 7.9678216419120662e-001,
          7.0332061342865668e-002, -2.9154425088732278e-001,
          -8.6106779931119271e-001, 7.5558713350701509e-002,
          -1.2247247048152659e+000, -4.8332789157460759e-001,
          7.2905796323195729e-002, 1.9394327170644090e+000,
          1.2241472591375275e+000, 9.3286560400210050e-001,
          6.4656208791635916e-001, 2.1042808285283249e-001,
          2.7399905042762480e+000, 2.7174259654539030e+000,
          -3.2657451721335118e-001, 2.5771297368837137e-001,
          1.8725678853988639e+000, 9.9603723262149979e-001,
          -4.9039215068855208e-001, 2.3691740820164284e+000,
          -1.2721965629640861e+000, 2.4966368390230684e-001,
          2.4425846814445080e+000, -1.4303049127337866e+000,
          -2.8576269646041093e+000, -2.3106930437007259e-001,
          2.3925513087243580e-001, 1.5135549826027821e+000,
          -3.6770723139630643e+000, -1.2342392569498630e+000,
          7.1509413479912742e-001, 6.2884481709609719e-001,
          4.4090923268828552e-001, -1.4613302093579303e+000,
          -2.2736652421712208e-004, -3.9280756898377150e-001,
          -4.1201381788550231e+000, 2.0918788259997462e-001,
          -1.2380989371618849e+000, -1.6680196573756807e+000,
          -1.5120223462011988e+000, -2.5883131423844974e-001,
          -2.1603150903820985e+000, 3.7547591662383450e-001,
          7.4839752367093637e-001, 1.2847405928249906e+000,
          8.3732950272555351e-001, 3.3565352399428711e-001,
          1.3449186113076461e+000, -5.3766434523383816e-003,
          1.1315679546642750e+000, 3.9861277310716314e-001,
          1.6823836429352426e-001, -4.3861619369557880e-001,
          1.6088249220235626e+000, 1.0916176302901408e+000,
          5.5606012597817778e-001, 2.3999891646951407e-001,
          -1.9128132540801510e+000, -1.5647080825519550e+000,
          9.6866729320953582e-001, 1.4273580637090519e+000,
          -1.4133635373809810e+000, -7.8284461125485871e-001,
          -5.2479481240286230e-001, -1.4265461697827286e+000,
          2.0076631787247134e-001, -1.4767800991107298e+000,
          7.1104531750566091e-001, 2.6637121603741631e+000,
          -7.8485633707095181e-001, -2.9008003546598315e+000,
          -1.9917080785911176e+000, -3.2541835413521109e-001,
          -4.3155748604955041e-001, 9.4296269297644519e-001,
          -7.3731035896400410e-001, -1.1105533583653326e+000,
          -5.5257624169468689e-001, 7.7121046836904561e-001,
          -7.1428876902314609e-001, -4.5823978088075201e-002,
          1.8349980487976767e+000, 8.3149835358028379e-001,
          -2.7309515216141955e+000, -8.4418475833779449e-001,
          -3.7574858768233748e+000, 8.4939991722676556e-001,
          7.2803556281998316e-001, -3.1856678598364235e-001,
          5.7890283634578787e-001, -1.4243341094574002e+000,
          2.7981334066137364e+000, 3.1028167108586713e-001,
          3.5598110982263713e+000, 3.9926728678812867e-001,
          6.9829884005442133e-001, 4.1396479215109409e-002,
          9.1284123356819602e-001, 2.3493679021657454e-001,
          2.0894369382334217e+000, 2.2612147667674740e-001,
          1.6693291605103144e+000, 5.1162150893656178e-001,
          1.3541445241533994e+000, 3.3047421580311059e-001,
          -1.2483910472693227e+000, 6.1654717334696074e-001,
          -1.9002170980205546e+000, 6.9812427091501858e-002,
          6.8642637235820825e-001, 6.6154502328166354e-001,
          -9.9873192477774875e-001, 9.2413537280820401e-001,
          2.6121371805193849e+000, -5.3012600358013451e-001,
          1.0235102321028418e-001, 1.5329021486111556e+000,
          2.5026683432355332e+000, -6.8005737838173708e-001,
          -9.9999536129075750e-001, -3.5625596070937120e+000,
          -1.9230668718678894e+000, -1.3156953303573544e+000,
          5.0600824610160018e+000, 6.0475081026008204e-001,
          -1.2816617135869646e+000, -3.5614066620469059e-001,
          -1.6257057291698260e+000, 4.6285673177126757e-001,
          -6.4245240319000391e-002, -3.0809520592841833e-001,
          -6.4449741544111483e-001, 9.6253878068265653e-001,
          1.4491320570975394e+000, -9.9625284427869143e-001,
          2.3114277918731849e+000, -6.4616452270340474e-001,
          2.2381602637866624e+000, -2.5227979312242949e-001,
          -6.2618468430048299e-002, -2.9345521350969048e+000,
          3.2110564536227537e+000, 8.2665962896807643e-001,
          1.7207564423631330e+000, 1.1190193528762313e+000,
          -1.2273969674269229e+000, -5.1932889340033850e-001,
          4.9357641201217545e-001, -3.7502850088917605e-001,
          -2.1945315277764013e+000, -1.3954357638586554e-001,
          8.9162632409342787e-002, 2.3751454105489472e-001,
          1.1546223670073266e-001, -7.7712199496535828e-001,
          -7.5701264041104055e-001, 1.3608500795417842e+000,
          4.4995785368236474e+000, 1.6787798611804592e+000,
          1.1086363953445679e+000, -4.8980845108934068e-001,
          4.9423379261403158e+000, 1.4845328957463746e+000,
          1.9642433042977643e+000, 1.3047564201307462e+000,
          2.3482683458393332e+000, 6.4299311147238503e-001,
          1.2495440806053415e+000, 1.6637410824948655e+000,
          -2.0659503717864507e-002, -3.5436480313629382e+000,
          -1.2053092019160625e+000, -1.4799572228364681e+000,
          4.2225746403817405e-001, -1.3043361346568689e+000,
          6.2267342062808695e-001, 6.2530483084615618e-001,
          -5.6240432385669497e+000, -9.5750513568952522e-001,
          -2.7642978941985485e-001, -8.9169711937118490e-001,
          7.5098174902671089e-001, -3.1477314578804805e-001,
          -2.4836540906269340e+000, -1.9331951542926176e+000,
          -7.6770770418598655e-001, 9.2930808408314658e-001,
          2.2013846165585989e+000, 6.8805429742249596e-002,
          3.8512686047916078e-001, -5.6650539102256536e-001,
          6.9083975745633897e+000, -1.5092726301623915e+000,
          1.2895042509363814e+000, -5.6974573052031796e-001,
          3.3739286018687920e+000, 1.1220063314221158e+000,
          -1.8782473356630069e+000, 3.7273732238988133e-001,
          6.9218203453426708e-001, -3.5228280117115562e-001,
          -1.2031712289857408e+000, 8.0359523626925389e-001,
          -6.4296366240295066e-001, 2.8838614205465483e+000,
          8.6464964249326204e-001, 1.1026564684286397e+000,
          -1.8217751689689188e+000, 4.4497171505479888e-001,
          1.5431524812164585e+000, -1.5009917574333784e+000,
          -1.5966897120547582e-001, 4.3700065813840361e+000,
          1.1190209659311030e+000, -5.3105460257679049e-001,
          -7.1242131020078359e-001, -3.0519904769202072e-001,
          -2.4564742986173220e+000, -1.3830819158643322e+000,
          6.1090453972891319e-002, 2.5654305270550304e+000,
          2.2170090681291552e+000, 1.8432877262709743e-001,
          1.3897997117281300e+000, 3.8871355317660339e-001,
          -3.8942900331667135e-001, 2.4332522266509935e+000,
          2.5267282556541866e+000, -1.2677064763942072e+000,
          -5.8795624486349107e-001, -3.0405006414242028e+000,
          -3.9525493404985262e-001, -1.3335279693857369e-001,
          -1.8694124190203516e+000, 2.2957315244951260e-002,
          1.6120643587811545e+000, 1.0512174062505661e+000,
          1.6809150495973160e+000, -4.2849609634409008e-001,
          -3.9446130424442682e-001, 1.1058298175905730e+000,
          -7.7420129935828741e-001, -3.0871323558536445e-001,
          1.4219087888171793e+000, 6.0625391175970245e-001,
          -9.3566983666021675e-001, -2.6970283822307867e-001,
          -1.5514826931546346e+000, 7.2023901259759219e-003,
          -4.3960819241799864e-001, 2.2673659035784954e-001,
          -3.3622040643051188e-001, 4.0997581847980658e-001,
          -8.9879007347717910e-001, 9.3006301606321240e-001,
          9.4211776112812251e-001, -6.3582693620621838e-003,
          -5.4861271129268196e-001, -9.9771802445495505e-001,
          -7.7506640134755489e-001, -1.0457220795475147e-001,
          2.8298400184458466e-001, 1.4956966975503569e-001,
          -8.4339634284189535e-001, -1.1010055576104529e+000,
          2.3225764633073562e-002, -8.8153613055173352e-001,
          -2.0066622035873727e-001, 1.8654015284554297e+000,
          1.2388776668913826e-001, -9.3264563143906298e-002,
          -8.9576454579892673e-001, 1.0122791630305545e+000,
          -8.5301723448819800e-001, 4.0800024133259771e-001,
          -1.2358752568700659e+000, 1.1250312906878426e-001,
          1.3562477157389274e+000, 4.2159015789561516e-001,
          6.3889563931611937e-001, -1.1481134252781720e+000,
          6.3364581766413158e-002, 2.7650257272999545e-001,
          -1.8618420235707058e+000, 1.0876652509794438e+000,
          2.3121759539185219e-001, 9.6011435775764753e-001,
          -1.5678533539589223e-001, -1.0922386688761845e-001,
          5.3469450282412756e-001, 2.8968078395181562e-001,
          -9.5253794113798829e-001, -8.9122710692843499e-002,
          2.5893962423880934e+000, -1.8784525066076155e-001,
          -3.1154501436512048e+000, 3.7389945657144363e-001,
          -2.0916227808158956e+000, 1.8634136685262370e-001,
          -1.2600829821819299e+000, -9.9408382998014591e-002,
          1.1668032005358295e+000, 3.4999787367263097e-001,
          -5.3489424919371364e-001, -4.2764995088528485e-001,
          -1.8933948516392071e-001, 8.1422241816066698e-001,
          5.0586330967141757e-001, -1.0741611445494250e+000,
          -5.7676007022376363e-001, -2.6757106598731767e-001,
          4.8057807840878941e-001, -3.5541088465379378e-001,
          -1.1992990546638240e+000, 7.6877099491786571e-001,
          8.5206124635133940e-001, -2.4065924244860210e-001,
          1.2082298388763599e+000, 2.6842263797235479e+000,
          1.7497576317735306e+000, 4.9649340698770833e-001,
          -1.8920038779535162e+000, 9.6147289404957648e-001,
          -2.9247589719401419e+000, -5.3836003179907344e-001,
          -1.6218175783326125e+000, -4.3610981552960754e-001,
          1.9448030744137787e-001, -8.1504806098071508e-002,
          -6.8920059486291374e-001, -1.0162704514689147e+000,
          -5.2424356463943933e-001, 5.7029001270885205e-001,
          3.0760716061729907e+000, -1.3780072478973310e-001,
          4.9510200248867910e+000, 4.0634169514763752e-001,
          5.8147755310479210e-001, -3.4096083674436450e-001,
          5.7984027168834484e-001, 1.0383395318983519e+000,
          1.6122695733713838e-001, -1.5998858661285278e+000,
          2.7001045416726837e+000, 7.3097016989765307e-001,
          1.0309184656830415e-002, 2.4227389331909671e-001,
          -1.0258697833016719e+000, 7.1212761047919848e-001,
          -2.8986746684792564e-001, 9.9992247166092041e-001,
          5.7196412326908563e-001, -3.4173976395187844e-001,
          5.4212533576548438e-001, 1.1847317307539544e+000,
          2.7241652933962285e-001, 4.5232731834163975e-001,
          -2.0283972323048265e+000, 7.4949451609130058e-001,
          -2.1763764871235713e-001, -5.2213185544298835e-001,
          -1.9426716807396485e+000, 9.2042020933659641e-001,
          -7.1960421160354593e-001, -8.6650317809283095e-001,
          -1.3003057826965581e+000, -4.9347204971327757e-001,
          1.4107936068594005e+000, 4.9380036087484785e-001,
          -1.0064816737221645e+000, 2.8328266810508079e-002,
          -8.7944110332425926e-002, 5.9989233817280795e-002,
          -1.9831991139863512e+000, -1.5969885232173384e+000,
          -5.8247437917281941e-001, 6.2204777949200596e-001,
          1.5335205436625983e+000, -3.3333174786078235e-001,
          -9.0377094010301418e-001, -1.0804887241291699e+000,
          1.0203158442937801e+000, -7.4758737278768722e-002,
          1.0275314415406729e+000, -1.1960126886309688e+000,
          8.6531261229687984e-001, 7.8852398832906900e-001,
          2.6216438331058706e-001, -1.2340666762795079e-001,
          -4.1535976540993236e-001, 2.0587100470395517e-001,
          -1.2906109255454365e+000, -1.4246343382809539e+000,
          1.4224320098877536e+000, 3.9340802515841350e-001,
          -9.5346238922565962e-001, 2.9045686346546845e-001,
          -1.7273894382196233e+000, -6.5524275763075299e-003,
          -2.2836830295327206e+000, 5.9247285990489673e-001,
          1.0934593556889118e+000, 5.9822859886699353e-001,
          -1.8467115262833139e-001, 9.7186834327633687e-001,
          -3.7419528229350169e-001, 2.1514001495699167e-001,
          2.1703082891566345e+000, -7.1017618739289101e-001,
          -1.4724217777370401e+000, 3.8429788414389043e-001,
          -1.2118368322709014e+000, -5.6413414790158101e-001,
          -1.0476406688455646e+000, 3.0292993418656319e-002,
          -1.3768084187273395e+000, -8.9280315387062859e-001,
          -7.7548818793594632e-001, 3.2656277259042665e-001,
          -5.9883331988106869e-001, 9.2364042573756322e-001,
          -1.5415744051895899e+000, 8.4474973530323216e-001,
          -6.5972899937291740e-001, 6.9488354819148934e-001,
          -1.3205811136536774e+000, 7.4645246701730483e-001,
          2.0641542342647803e+000, -2.5166539638913565e-001,
          -3.4670086318615949e-002, -8.0097566317043978e-001,
          1.4318273954834428e+000, 4.1114317670754058e-001,
          1.6385944315053123e+000, 1.3014112928218593e+000,
          -5.9271215731881179e+000, -7.7499488944914180e-002,
          2.8819988729247537e-001, -9.2694914698769781e-001,
          -3.4398867378175313e-001, -3.8870772773591433e+000,
          -5.7211163949348542e-001, -1.9816603091919829e-001,
          4.0026172118179435e+000, -1.4622766994432407e-002,
          7.4926686237308016e-001, -1.6816591634742400e-001,
          2.4738524799936604e-001, 1.1830022738923958e+000,
          -1.6806267853306836e-001, -1.7521351771224530e-001,
          4.2409649062199251e-001, 9.3742459524792254e-001,
          8.0647487203277712e-001, -1.4149742840078423e+000,
          -6.6725832829776455e-001, 1.8687560327049844e+000,
          2.5977105169449892e+000, -2.1405529931269229e+000,
          -1.1491435230211086e-001, 2.6724823205175339e+000,
          -4.2805583098055244e+000, -3.6901832250205540e+000,
          2.2608020324918532e+000, 2.1407973910772764e+000,
          -9.8021048475669914e-001, -9.7770691929851139e-001,
          2.2831614646795089e+000, -5.5987307894503746e-001,
          1.6431516167420490e-001, -8.4116633060655244e-001,
          -2.9910765743565206e+000, 7.1202964334771773e-002,
          5.6605714328343977e+000, -1.3695619940952564e+000,
          1.3879929539131464e+000, 4.1691413701546642e-001,
          -3.5094470291958952e+000, 7.1090354160431435e-001,
          8.9332688676692606e-001, 9.5063810000326376e-002,
          -8.2638362350129158e-001, 1.8252674104672653e-001,
          3.5096453009900004e+000, 1.2953847394144209e+000,
          2.4613434928960580e+000, 1.2686815403815008e+000,
          -1.4572968422522246e+000, -1.0082512443168239e+000,
          -1.3726480961513566e-003, 8.0554632202551757e-001,
          1.1751021807223043e+000, 2.2945336050572263e-001,
          -5.1400607008345025e+000, -8.1630083777855700e-001,
          -2.1224429391382552e-001, 4.3320574958746111e-002,
          -2.1343776391834804e-001, 1.0483345670038196e+000,
          3.8229410366047850e-001, 8.3659772876936611e-001,
          7.0830373837857596e-001, -4.9496205428880108e-001,
          -5.7920858041059819e-001, -5.9845270395677697e-001,
          -3.2305182698277818e-001, 2.2272597643817527e+000,
          -1.8949227976696787e+000, 1.3305534866645605e+000,
          -2.4980677511019467e+000, 8.2536305652461683e-001,
          5.9786403316027914e-002, 1.7670446787049874e+000,
          -3.4129411527150666e-001, -7.9424409313816147e-001,
          1.5289406455257533e+000, 1.5737605395957930e+000,
          -3.1599420090884656e+000, 1.2904885116514528e+000,
          -2.3147646277062179e+000, -2.5604181227317797e+000,
          4.3626950033567349e+000, -6.9988913202024799e-002,
          1.2047745149356956e-001, 3.3741184226530746e-001,
          -9.5615259952199505e-001, 5.6345678971650170e-001,
          -2.4310787642148588e+000, -1.3453450344264979e+000,
          6.6628499666181817e-001, 1.1269819141832103e+000,
          1.8710924951824676e-001, -2.7051487935505575e-001,
          2.4248772854055067e-001, 1.0946031212461107e+000,
          9.0026806132219761e-001, -6.0744403511219480e-001,
          6.0723598247106569e-001, 4.1629216596866159e-001,
          3.5178567664058147e-001, -1.5830389937796643e+000,
          -1.0481130621916666e+000, -1.8794410080989730e+000,
          2.4812697125410397e+000, -5.0188390942336192e-001,
          -1.7408013417240076e+000, 5.1203025415280679e-001,
          4.5115402975008762e-001, 1.2654195643894228e+000,
          -4.3586082475102156e-001, 3.4883294165360029e-001,
          8.4041325975056280e-001, 1.1288387595463265e+000,
          -8.8529399973068035e-001, -1.3646260660336169e+000,
          -1.4516590784576922e+000, 2.5475126214703350e+000,
          3.4069430531418674e+000, -1.2127947205791567e+000,
          2.9911693614012619e-001, 1.9059570342529282e+000,
          1.6293337219374373e+000, 6.4061622327476753e-001,
          4.9146250430481375e-001, 2.3023431264874419e+000,
          1.1636550980539109e+000, -2.0360926577906957e+000,
          -8.0539524060189649e-001, -5.6172450078446812e-001,
          2.1477842068002988e+000, 4.3695156309742267e-001,
          1.8180661101287157e+000, -1.6898790474416561e+000,
          4.4138725310359330e+000, -9.4342210078721755e-001,
          -4.2510930237411743e-001, -7.8386163195022152e-001,
          -1.5031001095046512e+000, 1.0116295179689327e+000,
          -6.7005414925981721e-002, 1.6423855002782162e+000,
          2.6120480065726022e+000, 3.3660552218991985e-001,
          1.4729255546755557e-001, 4.7460557258743663e-001,
          -3.2069908897080888e+000, -3.1388569271566247e-001,
          9.6543491394618541e-001, -3.2896910498117327e-001,
          -2.6742212017189282e-001, 5.5710588178679898e-001,
          -4.4634774407802655e-002, -3.2329837160011948e-001,
          1.5542259220348751e+000, 9.6939000141639919e-001,
          1.1038938253815092e-001, -1.6969592753773735e-001,
          -4.1553203872758959e-001, 5.3051173781097538e-001,
          -1.6257885724442550e-001, 3.0779722247466351e-001,
          -1.1934490335719259e+000, 1.6598687076061133e-001,
          -3.8711853828978904e-001, 1.7933735032077476e+000,
          -1.8657549599463865e+000, 9.8257453129387240e-001,
          -5.8421786964660498e+000, -2.5793397190672662e+000,
          6.6056840217400203e-001, -1.4243474628414679e-001,
          3.8344970708511825e+000, 9.0234568913865687e-001,
          6.9429543526893900e-001, 1.0612180645841269e+000,
          -9.7047446370676571e-001, -6.4201626798414102e-001,
          1.5348931163424340e+000, -3.6513862847342093e-002,
          1.7768089049454574e+000, -3.8652428917108794e-001,
          5.2815795478948164e+000, -3.9673303185654862e-001,
          6.3644658507996288e-001, -8.4105880010557299e-001,
          -1.4238326245573263e+000, 7.9783757835818492e-001,
          4.9312635506874959e-002, 5.3861337112853964e-002,
          6.2704463076062589e-002, 1.0702898718114970e+000,
          1.3534028762479768e+000, 6.1651754680146098e-001,
          -1.6698365743767136e+000, 9.5714227975836896e-001,
          -8.0754171585829287e-002, 2.6529254910070221e-001,
          6.1622096291808415e-001, -1.2318983965974672e+000,
          1.6207318348567642e-002, -2.4985067225971642e+000,
          7.7260478929591336e-001, -9.0679831030243507e-001,
          -3.5720098531709743e-001, 3.3576320991545489e-001,
          -1.4933604114955501e+000, 1.2541547991831381e-001,
          7.3791475332213208e-001, 3.4406314413810268e-001,
          -1.6016418498463394e+000, 5.2088766093609429e-001,
          9.1732452933398922e-001, 1.3681338039288777e+000,
          1.8147813186414348e-002, 1.9397346553847223e+000,
          -1.0328337726340933e+000, 4.2068620907092530e-001,
          -2.2914604185563441e+000, -1.5000966033187599e+000,
          1.6376489117202557e+000, -8.4424463277598794e-001,
          4.7734548728782511e-001, 1.2746926147094133e+000,
          6.6308981823114388e-001, 8.5200817938256135e-001,
          1.3107537073633846e+000, -3.2097525861950921e-001,
          4.7896589763580980e-002, 3.6465598236122849e+000,
          1.0725619945326492e+000, -7.3315789585442825e-001,
          2.2441295661087839e+000, 1.1293845056404923e-001,
          2.2834710068878104e+000, 1.6051358376239300e+000,
          -1.7447910871266467e-001, 6.7907558839696902e-001,
          3.9570593251386871e-001, -3.3793226497806494e-001,
          -1.0453857460985367e+000, 5.5795465414745848e-001,
          9.6661226261470634e-001, 5.8892731510886498e-001,
          -1.5232613857289385e+000, -1.0590468778114432e+000,
          -3.4299338739032890e+000, -5.7178527249977495e-001,
          1.3264156051607787e+000, -1.5431577051956127e+000,
          -1.2006345357243346e-002, -1.0084994975964663e+000,
          1.8371612579891555e-001, 1.8173930650750206e-001,
          2.1266625617073602e+000, 9.9755169856578041e-001,
          1.7831991624307557e+000, 7.6960977848412482e-001,
          3.0347695790842177e+000, 1.0475992570633057e+000,
          1.6662283377524936e+000, 7.3661529481164412e-001,
          -1.1947994978515637e+000, 1.1662034831559625e+000,
          9.4047762487326503e-001, 6.3837753673131481e-001,
          -2.4741648432279879e+000, 7.3554192525131290e-001,
          -4.8401471571072605e+000, -2.4882092482897122e+000,
          1.4126979190162781e+000, 9.3195434538355126e-001,
          -6.4491376006856160e-001, -1.3896843298406059e+000,
          4.1617902979468093e+000, 1.3188364669067365e+000,
          -2.0405267596457604e+000, -3.4618653318334260e+000,
          3.4431603342998209e+000, -3.9964132784426748e-001,
          4.3576658210984798e-001, -1.6026819308781670e+000,
          1.3236768941092965e+000, -6.6554505639648953e-001,
          2.5255404516796647e+000, -1.2559256465039108e+000,
          -1.9464859708641822e+000, -8.1775713452147203e-001,
          -2.9264912222342656e+000, 6.1353361024883402e-001,
          -7.4494215516183870e-001, 9.6070314780743971e-001,
          1.6835547588628255e+000, 3.9209602656162684e-001,
          -2.0671435542224672e+000, 4.5863009424757855e-003,
          -3.5845655596800241e-001, -4.8888813974396300e-001,
          -5.3494411163311950e-001, -1.3548952550722300e+000,
          -4.0324939191393033e-001, -1.7272278107409975e+000,
          5.6818879411065371e-001, 7.9085728168772318e-001,
          2.8728434960434539e+000, 1.1906254412274844e+000,
          4.4095244973852763e+000, -2.2276407890744299e+000,
          2.0116920132901779e+000, 7.9075491228726036e-001,
          3.1124205082090883e-001, 1.6868290502591776e-001,
          2.2052525182750577e+000, -2.5653714302372532e-001,
          1.9826404420895914e-002, -1.3051173994761980e+000,
          -9.9404841603781935e-001, 2.8317224337590221e+000,
          -3.5420960137074324e+000, -2.4293694937958263e+000,
          1.2971698820957476e+000, 2.2605976798904530e+000,
          -3.1315490852141479e+000, -1.4199063904347233e+000,
          3.1448205918617558e+000, 5.7400739022582992e-001,
          3.7523311892568967e-001, 3.9152548066286980e-001,
          2.4405649608752817e+000, -2.3756506539870341e+000,
          -3.6530765347367766e-001, 1.3510216195320262e+000,
          1.5222604722176947e+000, -1.4823367496371227e+000,
          4.3186269362135628e+000, 7.5271880100566402e-001,
          5.7470308530797265e-001, -1.2842038805997733e+000,
          -7.0853918218782097e-001, 9.2615528213930121e-001,
          -8.0186247572757596e-001, 3.4795574320571698e-001,
          2.8250820099801144e-001, 8.9647882248513833e-001,
          2.3016250972167160e+000, -2.9049740892500586e-001,
          3.1697136127395376e+000, 6.9146220294547878e-001,
          9.2291415876984351e-001, -1.7266257619189214e+000,
          -6.5901946275821410e-001, -2.8899895736686187e+000,
          -1.0008693594311573e+000, -6.6482973874358764e-001,
          1.0913825179543708e+000, 1.1305174172011654e+000,
          1.0708303610804122e+000, -2.7997753895926764e-001,
          -3.3204708234907510e+000, -2.1859841580050610e-001,
          5.6638223750125238e-001, -1.3295298388591476e-001,
          1.3922542372672908e+000, -1.1615143581022311e-001,
          -2.9501130349192417e-001, 2.0085550323450345e+000,
          -2.8331963637550168e+000, 2.2708772489602000e+000,
          -5.3649571875699902e+000, -1.1581372733439812e+000,
          -1.2705982290340861e-001, 1.1852236105350422e+000,
          2.7103251165356195e+000, 3.1735887700978669e+000,
          -1.4134177478708085e-001, -1.6025905524082156e+000,
          -1.0366027948094305e+000, -3.1479640046004681e-001,
          1.6828805097818069e+000, -1.7731853836639130e-001,
          -4.1505969093862433e-001, -7.3339109053238183e-001,
          5.4109395612968054e+000, 2.5321215534241515e-001,
          3.3588058053870076e+000, -2.7077510809033140e-001,
          -2.9801200064648947e-001, 1.9083776427876220e+000,
          -3.8303710426135590e-001, 2.0934346006612961e+000,
          -4.4996662698182693e-001, -7.3234776756336106e-001,
          -3.2764818328491927e+000, -1.1095244787824241e-001,
          -1.1842132028084258e+000, -2.4054202333898594e-001,
          2.6475323489144920e+000, 2.2302816261072205e+000,
          -1.9175146935661999e-001, -7.1327928673504529e-002,
          -1.0365108379637911e+000, 1.2521030401539643e-001,
          -5.4865512520855098e-001, -3.3080005199855306e-001,
          -3.0275689244887216e+000, -4.9411101076105468e-002,
          5.4740431473152096e-001, -4.5793150065450711e-001,
          -6.0020068214663516e+000, -1.9611188400728490e+000,
          1.2042710593673638e+000, -1.2524881633418522e-001,
          1.2749958743116927e+000, -2.0258524995759447e-001,
          7.0436387923456756e-001, -4.4574176550965983e-001,
          1.5806930757496849e+000, -1.0905194544940455e+000,
          -3.6280801722939175e-002, 1.9143185515812295e+000,
          -3.2613070501955138e-002, 1.4704870980970008e+000,
          -3.7270572338673180e-001, 4.9016458324409342e+000,
          4.8244382927439233e-001, -2.1689440775704654e+000,
          -2.5986600080492788e-002, 1.0152149324763491e+000,
          -1.7986044447262275e+000, 3.0956822479890250e-001,
          -1.4302776062932439e+000, 1.2849217272732167e+000,
          2.3481640381228792e+000, 2.1310127995163213e+000,
          1.1952688248574188e+000, 5.1542561340142024e-001,
          -4.6324016782497912e-001, 1.1994638426885431e+000,
          5.3546411805332272e-001, -1.7193469362680919e-001,
          1.3709638765900809e+000, -1.0706854545018840e+000,
          -3.0168260327653238e+000, -7.9351055453910324e-001,
          -1.8130998311735100e+000, 1.2368101447364699e+000,
          1.1005981276891219e+000, -7.9330931460584786e-001,
          -3.6774474334913689e-002, 1.7353490104164773e-002,
          -3.1518851437115947e-001, 3.1402975143353790e-001,
          1.2075882965369424e+000, -1.7566184128682738e+000,
          9.5083733711629981e-001, 1.1880323286336170e+000,
          -6.5156552863588146e-001, 1.2690405238410374e-001,
          -1.5984128514611384e+000, 1.0880442017753056e+000,
          4.5829456258010104e-001, 1.0839687218439449e+000,
          -2.1811076077737207e-001, 7.8865893210869820e-001,
          -1.7511459204562316e-001, 8.0017965659020629e-001,
          1.2080629955458044e+000, 1.1336184747608056e+000,
          -2.8128637939798731e+000, -1.5424393035701773e+000,
          2.8498417747045205e-002, 7.8938944311884041e-001,
          3.6669461123850473e+000, -2.8957136916282233e-001,
          7.7964667806811661e-001, 2.0695856692347898e+000,
          -6.6334749411091121e-001, -7.9842918737598123e-001,
          6.8239954507751044e-001, 1.7870531536315628e+000,
          1.2922689339516893e+000, -1.0744934150420526e+000,
          3.7615477736135925e+000, -1.1545420517604730e+000,
          1.2069284857794116e+000, -8.9704093381396266e-001,
          9.5580253930428127e-002, -7.6762099496112979e-001,
          -1.8792039008429853e+000, 9.8154136419858887e-002,
          -1.0521907747854773e+000, 1.2152612214739922e+000,
          9.9577787256952155e-002, 6.6671959503859657e-001,
          -2.0322399869644023e+000, -1.4308247816840141e+000,
          -1.2040863168936438e+000, -6.0674655649118714e-001,
          -8.0890808463864128e-001, -7.1358397751743923e-003,
          1.8636391693193598e-002, -2.8967329851393639e+000,
          1.1744508889998837e+000, 8.1201781575382284e-002,
          1.1112370479087843e+000, 1.9182340304116433e-001,
          7.3356124678216639e-001, 1.9728285660126810e-001,
          -1.9447647771973144e+000, 1.4033269403476183e+000,
          -1.0287282307465062e+000, 1.0115722250901928e+000,
          3.2000794887691597e-001, 5.5529877792284255e-001,
          -2.0333743783064703e-001, 1.0213246850385170e-001,
          1.1071193884025668e-001, 1.5435204344433773e+000,
          -3.3162030770882178e+000, -5.5416298508968609e-001,
          1.2178026064105409e-001, -2.8226490583159775e-001,
          1.6503594190398494e+000, -1.7000958302942337e+000,
          1.5497994284251260e+000, 1.8312222239303872e+000,
          -1.0550335723559894e+000, -2.7284173526954603e-001,
          3.0874944002170142e+000, 2.4963576194941623e+000,
          1.7292419637458289e+000, -1.5037087713806943e+000,
          3.3913181643221368e+000, -3.5916670636340081e-001,
          4.4050509419117101e-001, -1.0871522109501743e+000,
          -7.2499785414141582e-001, -6.7517408760114217e-001,
          -1.7484644633739581e+000, 7.2192523692096344e-001,
          3.9312645331565649e-001, 1.2838587008988906e+000,
          1.1894538561047279e+000, 1.0158896177560124e+000,
          -2.0507809538177577e-001, -2.6008000243902067e+000,
          3.6566773325156174e+000, -7.3657094483642827e-001,
          8.1864262919534725e-001, 4.7130751623483674e-001,
          -1.0143308351895746e+000, 1.2429664928486797e+000,
          2.0146014392713618e-001, 2.6234059224725292e-001,
          1.8220226840330769e+000, 6.3146605864313499e-001,
          1.4087777687477909e-001, -6.1939025232630740e-001,
          -2.2454497767952919e-001, 9.9671642133498362e-001,
          -3.5142769822562814e-002, 1.3301515387699021e+000,
          -7.3310311526704020e-001, 1.4685071526456198e-001,
          2.2354346357222568e-001, 2.0717810773114893e+000,
          -7.7921332627964135e-002, 3.6049286073716708e-001,
          -3.4208431992028805e+000, -1.2145069592143667e+000,
          3.8771439025542026e-001, -1.3594604093517287e-001,
          1.2006681353127298e+000, 1.4925713674531755e+000,
          1.5300820967638442e+000, 1.6542511108558873e+000,
          -1.2631996867039248e+000, -1.4857375100927734e+000,
          2.1898810500738941e+000, -1.1428694310395071e+000,
          1.5335432407893648e+000, -1.3542272362602639e+000,
          3.3441287519680980e+000, -1.7365436732451811e+000,
          -1.8083727225805740e-001, -1.3914039739257220e+000,
          -8.3699250395807456e-001, 1.0213436288607820e+000,
          -6.7760696759929795e-001, -7.9924097929238147e-001,
          -9.8067251407356182e-001, 9.2897693315167884e-001,
          3.8378985820827632e-001, 1.0975457581592087e+000,
          9.0356953512326121e-001, -3.6303355864711331e+000,
          1.4612576672699167e+000, -2.9890624402543936e-001,
          1.0283219593412964e+000, 1.3738467628758457e+000,
          5.7408644666458009e-001, 3.6870254116521844e-001,
          2.7689493495987255e-001, -1.0475230706586343e+000,
          3.1867354398360264e+000, 7.8756283378064507e-001,
          -4.0103627455875906e-001, -1.0660199655592413e-001,
          -1.7627861192243348e+000, 9.4173031452591516e-001,
          4.5299016929234082e-001, 1.7325032547302666e+000,
          -1.7249640303073854e-002, 6.9965086119895281e-001,
          4.7268821916848077e-003, -1.3242986811974589e-001,
          1.4343498110941961e+000, 1.2704845435897276e+000,
          -1.7305368892629673e+000, -1.0421454659222229e+000,
          -3.9452615794680268e-001, -2.9897611699488508e-001,
          8.7467709850592923e-001, 9.9417480851485651e-001,
          1.8843600266287495e+000, 3.0161153186273015e+000,
          8.1407138998065912e-002, -1.7248407385063453e+000,
          2.1264127363151153e+000, -2.8957981759438434e-001,
          2.9289178685002075e+000, -1.4417530006417982e+000,
          2.2836398887335636e+000, -1.4291923449773205e+000,
          -3.9337388319468669e-001, -1.8194976502857080e-001,
          -3.9948831819136443e-001, -1.1215461770355992e-001,
          -1.0050660352910112e+000, -8.4455326258073682e-001,
          -3.7608587181000691e-001, 8.1495279247811558e-001,
          1.6942796144930223e+000, 1.3983584113052887e+000,
          -1.7111910979582634e-001, 1.0196775989692692e+000,
          8.2085457396521733e+000, -7.3008728716396409e-001,
          -8.1910014805902553e-001, 7.0963796451569583e-001,
          2.8543987567330542e-001, 1.5001867377356100e+000,
          -1.8493074536797887e+000, -5.8433213936648208e-002,
          -2.7795095530289921e-001, 8.1345298239335140e-001,
          -1.1491742209622573e+000, 1.3705200765085432e-001,
          1.2441575411682995e+000, 2.7192741852316432e-001,
          1.9954002164033197e-001, 5.9987369925606737e-001,
          2.6323774648253266e+000, -3.7359085015884874e-001,
          3.5271071277167165e-002, -9.8521405731694978e-001,
          -1.2747807293094833e+000, -3.8240068792544984e-001,
          1.7574993801567000e+000, -7.9661659499805615e-001,
          -9.4179477369535414e-002, 7.7471796236950718e-001,
          -2.6867023196025075e+000, 8.8511381748131746e-001,
          -1.5607964344744294e+000, -1.9259987351597588e-001,
          2.4169471683734463e+000, -8.4354389993805712e-001,
          -1.0344556824924349e-001, -2.7655084443085221e-001,
          7.3476307104033556e-001, 1.7116583740947982e+000,
          -1.6684410723744929e+000, -2.0969628076543620e+000,
          -2.0022321469738427e+000, -7.8151163591494199e-001,
          6.2428558741281770e-001, 7.6904127198931238e-001,
          -1.2823395999352951e+000, -6.9437285799460291e-001,
          -3.1927640767573157e-001, -1.4679877393189209e+000,
          -3.4349157510072588e+000, 4.5968806553110281e-001,
          5.0770934301595885e+000, -9.4805986286268906e-001,
          1.9936413752770077e-001, -5.1932743685129304e-002,
          1.6374203725989680e+000, 4.9451167256598860e-001,
          2.0252635814301609e-001, -1.1350639669193880e+000,
          -2.4465188763161807e+000, -7.8308110577033474e-001,
          -3.7897996457461982e+000, 4.2866111545532509e-001,
          -2.6745627881614160e+000, 8.5827622566621997e-001,
          -1.3127980457154060e+000, -2.5461347356776961e-002,
          2.0822316890633283e+000, -7.4220562951062441e-001,
          -7.8905284742776208e-002, -1.2879210022682723e+000,
          -3.0153542042246730e+000, -1.8198357320306857e-001,
          9.4400405693229483e-001, 1.0839043795743948e-002,
          -1.7263654836047699e+000, -1.0088460589618502e+000,
          4.3892127147295745e-001, 8.2245107538162709e-001,
          1.4291685985115925e+000, -8.2548110385979118e-002,
          -1.0297327337221773e+000, 4.4424678337511188e-002,
          -1.0300093620232686e+000, -2.0732608016907755e-001,
