%YAML:1.0
mlp: !!opencv-ml-ann-mlp
   layer_sizes: !!opencv-matrix
      rows: 1
      cols: 3
      dt: i
      data: [ 136, 50, 5 ]
   activation_function: SIGMOID_SYM
   f_param1: 5.9999999999999998e-001
   f_param2: 1.
   min_val: -9.4999999999999996e-001
   max_val: 9.4999999999999996e-001
   min_val1: -9.7999999999999998e-001
   max_val1: 9.7999999999999998e-001
   training_params:
      train_method: BACKPROP
      dw_scale: 1.0000000000000001e-001
      moment_scale: 1.0000000000000001e-001
      term_criteria: { epsilon:2.2204460492503131e-016, iterations:1000 }
   input_scale: [ 1.9331743630721467e+000, 1.5588477230748398e-002,
       2.1277786360770268e+000, 2.3469635365711786e-002,
       2.6800780005012017e+000, 1.9397710177479540e-002,
       2.6968819365066374e+000, 8.1665665973353774e-003,
       2.5715016809772564e+000, 4.6538794661196052e-003,
       2.6457601926169296e+000, -2.3464705964615477e-002,
       2.6523044430831297e+000, -2.2925540214740709e-002,
       2.7378204555873658e+000, -2.1050479568053792e-002,
       2.6114322076460978e+000, -1.9283596528978195e-002,
       2.7397343465715465e+000, -2.4088292763385755e-002,
       2.8333850648595056e+000, -2.9603845275043700e-002,
       2.7126460699800452e+000, -2.8162672829242586e-003,
       2.8014377436259768e+000, -1.5949040577485214e-002,
       2.5620309954161331e+000, -1.7074588200207297e-002,
       2.7029112776403457e+000, -1.4484572624359413e-002,
       2.5817864721059940e+000, -2.5666367893669429e-002,
       2.4399121867914348e+000, 2.7381104586691650e-002,
       2.4780950351172248e+000, 3.5858551232105712e-002,
       3.0994765060513494e+000, 1.6696517061813902e-002,
       2.7167369439689715e+000, 2.1710619484601963e-002,
       2.4805954131635768e+000, -1.9942601513301173e-002,
       2.6899580834821579e+000, -3.0056951025988946e-002,
       2.7986720453010165e+000, -1.9451399560076868e-002,
       2.6432376489898139e+000, -3.2595844199070557e-002,
       2.9421030959564769e+000, -2.3815986012097026e-002,
       2.8185821925707071e+000, -1.4078620580678205e-002,
       3.4206187960919623e+000, 3.7550874501761254e-003,
       2.6398323057620181e+000, -2.8339572237097755e-002,
       2.5183892445467322e+000, -2.8629592670946034e-002,
       2.6629263834179788e+000, -2.0215370932016516e-002,
       2.6103388518358361e+000, -3.1531558292541485e-002,
       1.6646548801107222e+000, 1.2915018172941078e-002,
       2.4893476853587000e+000, -4.0629830138591283e-003,
       2.3628171055748215e+000, -6.0349379856226718e-004,
       2.1495570081257069e+000, -3.4724353136480819e-002,
       2.1771774650710194e+000, -3.7203308965623287e-002,
       2.3213318872497264e+000, -3.1180447665553578e-002,
       2.3600611071639772e+000, -2.6528603394964240e-002,
       2.4591300413425672e+000, -3.9609973361825833e-002,
       2.3421146313043470e+000, -3.7800362477444845e-002,
       2.5833166531395135e+000, -1.6579320732305509e-004,
       2.2053319499637167e+000, -2.4566311943771915e-002,
       2.1388351880634691e+000, -2.8991119929015798e-002,
       2.1974765538853296e+000, -2.6368347911159089e-002,
       2.1814426455059559e+000, -3.2119683193744426e-002,
       2.8055545855310973e+000, 6.6371335029858395e-003,
       2.8954051212400276e+000, 2.2322251826919187e-002,
       2.3733975724231535e+000, -4.1390203720483368e-002,
       2.4349551650932000e+000, -3.8812364121422020e-002,
       2.6786454129636144e+000, -2.3949836148481014e-002,
       2.6933458456785302e+000, -3.4168639720977195e-002,
       2.6684201167463888e+000, -2.1720259215210903e-002,
       2.8224297518757924e+000, -1.8780639734517605e-002,
       3.0537284113065981e+000, 1.2192355469260270e-002,
       2.4772127189383748e+000, -3.0718819900801764e-002,
       2.3205648895140643e+000, -4.1242735606153762e-002,
       2.3492721939631189e+000, -2.6059563131172428e-002,
       2.4002150953536541e+000, -4.3873206868154400e-002,
       3.5350268175086415e+000, -7.4304192286176213e-002,
       5.0095737570792691e+000, -6.0232675063663692e-002,
       6.0034082792053569e+000, -5.7976947166919902e-002,
       5.4922058374551490e+000, -5.1993618152099963e-002,
       4.5488697024585045e+000, -2.9937717550198740e-002,
       5.3627297582210911e+000, -4.4025195007167742e-002,
       4.8967713406212505e+000, -6.5264391968943208e-002,
       3.7979307859858364e+000, -5.2514484104793743e-002,
       5.2616289637975884e+000, -4.2285472126482350e-002,
       4.5978258912713761e+000, -4.4765339495817298e-002,
       4.1218256409944338e+000, -3.2465186756545659e-002,
       4.4958767453213540e+000, -4.1103663069225346e-002,
       4.5080021399393431e+000, -2.5225680432562715e-002,
       5.3779181975972312e+000, -4.5832331334984759e-002,
       4.6028092502806013e+000, -2.3910365550166880e-002,
       5.2549393439421861e+000, -3.5215448640804940e-002,
       4.4831272991896371e+000, -4.9513597873013973e-002,
       4.4224321405425950e+000, -3.3674972586426398e-002,
       4.0896827985874689e+000, 3.7846932032961293e-002,
       4.8875900311665301e+000, -3.6094883452088215e-002,
       4.6944282677702214e+000, -1.5688301433650600e-002,
       4.8528933624956183e+000, -3.1705198843018756e-002,
       4.1129602491617261e+000, -1.8653001557308185e-002,
       5.5975722836344346e+000, 2.1669140296451520e-002,
       6.6993073905115246e+000, 3.2460541387218954e-002,
       5.2661216129065451e+000, 5.5353203136036342e-003,
       5.0890596713602010e+000, -7.0059869369580767e-003,
       5.7638908022629325e+000, 7.5020862562744728e-003,
       5.9057447727921737e+000, 1.1874973281077313e-002,
       6.0007686526694979e+000, 2.7768429460072335e-002,
       5.1747020081317796e+000, 3.0364027471034241e-002,
       5.1896428789429168e+000, 2.3155779244701913e-002,
       4.8325196140877251e+000, 3.0557435849877575e-002,
       9.6013287788064634e+000, 9.2698361223056847e-003,
       6.8971805731710907e+000, 1.7904084576794967e-002,
       1.1901325846802150e+001, -4.5291318008271474e-004,
       1.2011716344016868e+001, -2.2474442741945214e-002,
       7.9068147779197782e+000, -9.8321358408639155e-003,
       6.2338154609962633e+000, 2.4844560477941809e-002,
       5.3101198028864127e+000, 3.3912191367169199e-002,
       5.0269770756530008e+000, 1.8411815947471794e-002,
       5.1000043717355847e+000, 3.4421152231944592e-002,
       5.9964117471544416e+000, 6.6298634541089481e-003,
       7.7760026864522294e+000, 2.3671074384899239e-003,
       7.9864026900719978e+000, 1.7962481708466115e-002,
       7.1182793750231488e+000, -4.9146688558094299e-003,
       5.9757577213636219e+000, 1.1385250510235350e-002,
       5.7716459415017702e+000, 3.5297336504851923e-002,
       5.3073616335875489e+000, 5.9846103619559544e-003,
       4.9996871196390194e+000, 2.6408070685280397e-002,
       5.6087751684724108e+000, 2.4516333414999033e-002,
       6.2083680838871489e+000, 4.0563538677118073e-003,
       6.6948309510305721e+000, -3.5348947423482183e-003,
       5.3830978556036486e+000, 2.4142268608341868e-002,
       4.7527673866632814e+000, 2.0271306135426242e-002,
       4.6806359399732331e+000, 1.3586597321176954e-002,
       4.3845786686891630e+000, 1.5526269164017802e-002,
       1.0240756199941332e+001, -2.2077978702716241e-002,
       8.3659603003294301e+000, -1.2250806675483370e-002,
       5.8975229818693151e+000, -4.2915905827749564e-003,
       5.0773248158537312e+000, 3.7728520875174591e-003,
       4.9225079888663741e+000, 1.5079572510180020e-003,
       5.0817442915992528e+000, 4.3543404719117492e-003,
       8.3841349567853616e+000, 1.2295048229312832e-002,
       6.5150571908820210e+000, -1.2303569540753562e-002,
       5.5046714869250915e+000, 1.4620025648851807e-002,
       5.4046707283289841e+000, -8.1694958487874905e-003,
       5.1161614247851670e+000, 6.2491031528652229e-003,
       5.9235231178774255e+000, -5.8151441383436937e-003,
       5.5671763607729323e+000, 8.0803722673851042e-003,
       6.4523942012018018e+000, -8.4553303452346417e-003,
       4.6065922387816469e+000, 2.3506379813002954e-003,
       4.4007645314968062e+000, 1.8949483770926319e-002,
       5.2031561879202934e+000, 1.8342319542757991e-002,
       4.9319824486706283e+000, 2.8104045552996438e-002,
       4.4117006350005905e+000, 2.1055401456150969e-002,
       5.0576262529990430e+000, 5.0570815830760826e-002,
       3.9438623568643330e+000, 2.6210297629845884e-002 ]
   output_scale: [ 5.2631578947368418e-001, 4.9999999999999994e-001,
       5.2631578947368418e-001, 4.9999999999999994e-001,
       5.2631578947368418e-001, 4.9999999999999994e-001,
       5.2631578947368418e-001, 4.9999999999999994e-001,
       5.2631578947368418e-001, 4.9999999999999994e-001 ]
   inv_output_scale: [ 1.8999999999999999e+000, -9.4999999999999996e-001,
       1.8999999999999999e+000, -9.4999999999999996e-001,
       1.8999999999999999e+000, -9.4999999999999996e-001,
       1.8999999999999999e+000, -9.4999999999999996e-001,
       1.8999999999999999e+000, -9.4999999999999996e-001 ]
   weights:
      - [ 7.9562807593782710e+000, 1.1406129367416606e+000,
          -4.4417681224158750e-001, 2.2349624516443270e-001,
          -3.8230468919589222e-001, -2.9865672732029176e+000,
          4.3635328638277732e-001, -1.4530868007558160e+000,
          -1.8793809011445410e+000, -1.7691908892958204e+000,
          1.4595098723412954e+000, -8.0720670515129456e-001,
          2.2155784273559185e+000, 1.9779538500875264e+000,
          1.0690550407756649e+000, -1.5173516533549931e+000,
          -1.6344506696633485e+000, -1.7146822164633180e+000,
          -8.7894144590527901e-001, -1.5628055889075461e+000,
          1.0711975655229093e+000, -9.7838724079436268e-001,
          2.3705193259575963e+000, 1.1863793185518969e+000,
          -1.1665458992767159e+000, 4.7160068568073144e-002,
          -5.9604533336945904e+000, -1.1981347317211557e+000,
          -4.2202059565895773e+000, -3.5576334533188958e-001,
          1.2463170847332634e+000, 5.7880910553964227e-001,
          9.6815766224167787e-001, 3.8625848412963086e+000,
          -5.3237707756204622e-001, -1.6071867561927271e+000,
          3.9692142498897398e-001, 1.6486164471450619e+000,
          7.4521450395853750e-001, -3.9361416850659958e-001,
          -2.1098006381361123e-001, -1.0632364675727597e+000,
          -8.4083477595059153e-001, 1.1121094337178665e-001,
          5.1707829190269539e-001, -2.1255081981558139e+000,
          -8.7398775241518945e-001, 2.9157758435174297e-001,
          -3.7879312563214054e+000, -1.5799253235955117e+000,
          2.8193134107977063e+000, 2.0472242609026403e+000,
          1.4817918502698031e+000, -2.2746928895898839e+000,
          3.7160817765690806e+000, 5.7375011089300001e+000,
          5.4862041644078752e-001, -2.0497129828380580e+000,
          9.8630696920724625e-001, 4.7980097385348630e+000,
          -3.2122293405579133e-001, -1.9265302423989561e-001,
          -2.5793676040821394e+000, -4.7174897041840111e+000,
          -6.9098672675768114e-001, -7.0598572638260670e-001,
          -1.7821813364107748e+000, 1.1787064300376526e+000,
          2.1665628540928772e+000, -1.0791107747142835e-001,
          -1.7482146578990909e+000, 2.0220926368675687e-001,
          -8.5204400563908622e-001, 1.9088375263868385e+000,
          -3.0462505691215114e+000, 1.1886425419347419e+000,
          1.2973186139544670e+000, 4.4548406974783621e+000,
          -3.8636495474343691e+000, 1.6020930022575122e+000,
          1.9373745250424590e+000, -4.5598097224408276e+000,
          -9.8294628548722223e+000, -1.2402129300018486e-001,
          3.0538230141537808e+000, -3.7174355614171567e-001,
          -2.1024907145514060e+000, 2.3871919961965680e+000,
          2.7118946944385378e+000, 7.0149600958856095e-001,
          1.6293945379153540e+000, -1.1135390915043104e+000,
          -2.0917944179553802e+000, -5.7022620877390118e-001,
          2.9616269776110693e-001, -2.5068279399999795e+000,
          4.4809617881808034e-001, 1.4276922040749480e+000,
          6.4290427545651940e-001, -5.4073361349776548e+000,
          5.1284518840231605e+000, 8.5557966465087176e-001,
          9.5738338230916997e-001, -2.7101542587116554e+000,
          3.5567373017344894e-001, -2.5020622372182557e+000,
          -3.7806805339412191e+000, -2.2025851501633253e+000,
          1.0498542706094396e+000, -3.2685110433092124e-001,
          1.9166682065208667e+000, 8.8587732003706587e-001,
          -5.5632903090391495e-001, -5.2082824506921477e-001,
          -1.6578261492971462e+000, -8.1415573665614294e-001,
          2.3433717265098060e+000, 2.1149047478405678e+000,
          -8.6782626356862491e-001, -3.5716171394559617e+000,
          4.3634517005209865e+000, -5.0453674371702242e+000,
          -1.8161225755321022e+000, 3.3544753017167273e-001,
          -2.0126782213742192e-001, 4.7285528008929004e-002,
          5.1534041694585453e-001, 6.7562462197561812e-001,
          -2.1885382431801204e+000, 3.7228738936463235e-001,
          -3.9956216795780275e+000, -1.6842867291326309e+000,
          -7.3377480454672095e-001, -7.4873048852752266e-001,
          4.3850252067313864e+000, -1.2661490059942153e+000,
          -1.0186380784726483e+000, 9.1354681531548132e-001,
          4.6223245507096961e-001, 2.0675707937837132e-001,
          1.2345019319521071e+000, 9.6898046148707473e-001,
          3.1733346384042344e-001, 6.2762565742181101e-002,
          1.5784690307895624e-001, -1.1004444007402510e+000,
          -1.0495134894424711e-001, -1.8022955129382836e+000,
          8.1254832396306498e-001, 1.2763779775564352e+000,
          -8.7490469121732364e+000, -1.1190448294985329e+000,
          1.8219383371126399e-001, -7.7307652989724596e-001,
          3.2212752990961264e+000, -4.2682023925336514e+000,
          -8.3169073631125057e-001, 1.5341667970104380e+000,
          1.0699222898340532e+000, -1.1407263142751711e-001,
          -6.3812686260352924e-001, 1.2160433834587440e-001,
          6.4928981360280713e-001, 5.3353615356652284e-001,
          -7.9190651093208733e-002, -2.0958736038987119e-001,
          2.9484084165388733e+000, -2.3049535994705121e+000,
          1.0101852479248601e+000, 2.8280059194606388e+000,
          -2.1673395851474688e+000, 1.9731745602365587e+000,
          -3.4450327602499853e-001, -4.9905265663963427e-001,
          -9.2096803348609180e-001, 4.0264736390289988e+000,
          3.6593590934388796e+000, 2.0677978193577071e+000,
          3.2252582125185492e+000, -3.9279197866001847e-001,
          -9.2505229925981547e-001, -4.5388422349778690e+000,
          -7.5771475069799958e+000, -1.6548672310367856e+000,
          2.5167219624482700e+000, 1.4390056980284411e+000,
          5.1062569051271622e-001, 1.7229888958384318e+000,
          8.4577673101463946e-001, -1.5406608592623841e-001,
          1.2351171172392659e+000, 3.5486515361120718e-001,
          -1.2666520946094986e+000, 2.4543197351699035e+000,
          -2.3237114593344307e-001, 3.8859746212264212e-001,
          2.8583141337994769e+000, 1.3849513690812767e+000,
          -1.0870209331253748e+000, -1.9660113676185859e-001,
          2.0877437122333098e+000, -8.2653743894445264e-001,
          7.9741818905287132e-001, 2.2183643466726575e+000,
          1.3643847071117381e+000, 5.6446502169196595e+000,
          -8.8935645588584500e-001, -5.6193074285294597e-001,
          2.7704883964915933e-001, -8.1160819773544357e-001,
          5.8964505664054656e-001, -7.1034322674090333e-001,
          2.1231900469626241e+000, 3.2853899725767217e+000,
          -2.3115339529975421e+000, 1.0924189220212750e+000,
          1.3101609339295159e+000, -4.1671272925413216e+000,
          -2.1352534251378477e+000, 5.9471758973914546e-001,
          -8.3359438401455022e-001, -1.0088310379129393e+000,
          -6.5426093527526541e-001, -1.0859629145308735e-002,
          -2.4056555732987599e+000, 8.2428653162603549e-001,
          -8.7397563929528321e-001, 2.4045381956841538e+000,
          -1.9386245466390346e+000, 3.0623626101346496e-001,
          8.4348858427890228e-001, -1.7949501388414606e+000,
          1.1714617370845332e-001, -2.7429095716314433e-001,
          9.8225346356832133e-001, -4.5044993812247924e-001,
          -3.2871126584188799e+000, 1.2765647292923783e+000,
          1.1941426222383929e-001, 1.0937491630727167e+000,
          -2.3049061068703431e+000, 8.4824514994547726e-002,
          3.3756086599943275e-001, -4.2270993928238065e-001,
          -1.2966080412821175e+000, 1.8817998981360564e+000,
          6.0011506116181279e-001, -1.6173182052571820e+000,
          5.1411346155522155e+000, 9.9644921448116278e-002,
          -9.6890099590744949e+000, 9.3367974375998120e-001,
          -5.8393508870950150e-001, -2.8727722705101377e+000,
          3.6222096997730591e-001, 2.9090821412385703e+000,
          -1.0736216729055486e+000, -1.0693666373437138e+000,
          -5.3534242617812899e-001, 8.5168707413987421e-001,
          -7.9141335017661707e-001, 4.7665355231043011e-001,
          -1.6957345844689384e+000, -4.5214643925367398e-001,
          8.0540590488112918e-001, -1.8179832952753365e+000,
          2.5762208161434690e+000, -3.6726888618625275e+000,
          2.3347103948176464e+000, -3.5068310318552953e+000,
          1.0411642530597418e+000, -1.7909525028378177e+000,
          1.3253968034290033e+000, -1.0635832793500832e+000,
          -4.1880613522895238e-001, -1.5841603795507342e+000,
          -1.3378732921747709e+000, -3.4418431068218611e+000,
          -4.3980726302918409e+000, -1.0991350260154849e+000,
          3.9560114089527327e+000, 6.5526757103362621e-001,
          1.8342094574589423e-003, 7.2945287909012269e-001,
          6.4385033499915745e-001, -1.7817300027747331e+000,
          -4.0180519662605123e+000, 1.1351115673233307e+000,
          2.6019383370224736e+000, -1.3625235586029585e+000,
          -1.5310022231044265e-001, -1.4486029571568848e+000,
          -1.7320427473331415e+000, -2.9104555303899784e+000,
          -9.4855642011842978e-001, -6.1461323874288654e-002,
          9.7138004026842451e-001, 2.1301439076247131e+000,
          -6.6746866863628034e+000, -4.0166235803020023e-001,
          -7.7949566528787457e+000, -3.4724852306840792e-001,
          -4.7720249147656779e-001, -1.5968122573987127e+000,
          6.8011854506982342e-002, 1.4186470481104190e+000,
          8.8008102862207693e-001, -1.0773509389526520e-001,
          -7.3581255156467973e-001, -4.6907654437750879e-001,
          -6.2577083151563573e-001, 1.2913989718304622e-001,
          1.1631386612078932e-001, -1.0210071335226185e+000,
          -1.4104523697350690e+000, -7.6699433033413600e-001,
          6.5991266116650474e-002, -1.3591804239708518e+000,
          -7.9265937978282652e-001, -7.3506666100829099e-001,
          1.6722320649746172e-002, 8.2235437343641538e-001,
          1.9469882041163888e+000, -7.4561653127362737e-001,
          -1.7423941447122360e+000, -2.6272984311416453e-001,
          -9.8215672404831267e-001, -2.1862636245675833e+000,
          -2.6623236033733049e+000, 3.8075050241213781e-001,
          1.6566250338033475e+000, -5.7752914848426673e-001,
          1.2059941470781064e+000, 1.1635193200153837e+000,
          1.0732195018649653e+000, -1.7134951772158218e+000,
          -2.2259011561753761e+000, 9.2242515145897885e-001,
          -6.2128979195235423e-001, -3.4514259046180917e-001,
          -4.7988119333314011e-001, -2.3232387589722352e+000,
          -8.5941122645058188e-001, -7.9201174282032472e-001,
          3.3083702431050460e-001, -1.4534274133010567e+000,
          -8.4034581370570494e-001, 2.5849126487293730e+000,
          4.2789520312040774e-001, 1.6835197584789461e+000,
          -3.7426123958087150e+000, 1.1243868846611069e-001,
          1.7791169212193658e-001, 2.7494187754044868e+000,
          -1.7466840145307527e+000, 2.6518383857019101e+000,
          1.0632838868336545e+000, 1.4499947958386346e+000,
          3.4241756886330427e-001, -1.3346089665164902e+000,
          -3.4261335979621044e-001, -7.6644528136164802e-001,
          -6.5409699311381325e-002, 3.7089400389857223e+000,
          4.4255694577989814e-002, 8.7017302830109655e-001,
          -5.7203613927366692e-001, -8.5116035727806616e-001,
          -3.8886038785284858e+000, -2.9973362834324866e+000,
          -1.6015058820060471e-001, -1.1863717933711457e+000,
          -9.9855301357219151e-001, 5.9382792315379285e-001,
          -5.7068350172022726e-002, -2.4614909231478248e+000,
          -5.2851404103379096e-001, -1.2793190244778354e+000,
          -2.4910885915354113e+000, 6.7083595302142807e-001,
          -1.4501937503531126e+000, 1.7463365854531561e+000,
          4.1285418242909042e+000, 4.9074753526519804e-001,
          -4.7670980948621700e-001, -7.2406641922973414e-001,
          -6.0396889081557537e-001, -3.9643374849513791e-001,
          -8.1359765099788439e-001, 8.4190270911111242e-001,
          -1.9370103916934756e+000, -1.6220989819224305e+000,
          7.9966845701809119e-001, 7.7688705428177784e-001,
          -4.7137511663252557e-001, -5.7109895471523475e-001,
          -1.3871893300408031e+000, 3.0475798404655996e+000,
          7.9630418342170861e-001, -1.2888875909624034e+000,
          -1.0655071629027288e+001, -3.2581366420635116e-001,
          -1.7608550584113172e+000, -1.5690055576389936e+000,
          1.3442255981741036e-001, -2.4051168016600699e+000,
          1.1693736954500698e+000, 1.4674855491726593e-001,
          -1.4518256926232453e+000, 1.3337100064650784e+000,
          -1.1634473587859564e+000, 4.7273567410718970e-001,
          4.9846889929026725e-003, 4.2745844220735185e-001,
          2.2010553370466560e-001, -1.8658965004131429e+000,
          -3.9468581624125049e-001, -1.2356949510935177e-001,
          7.3964801917980813e-003, -1.0228061623981295e+000,
          -3.0931854041802787e-001, 2.3539967162120603e+000,
          2.3741011292898287e-001, -1.7791109714775808e+000,
          1.1864287622030019e+000, 4.5765105590369154e-001,
          1.2475131142292681e+000, -1.0902485216073496e+000,
          -8.1886309201374252e-001, -5.6445546491066034e-001,
          -1.5475595197160321e+000, 6.3476119713585488e-001,
          -1.5515717227945374e+000, -1.4718611586181032e-001,
          -1.1561530037626624e-001, -1.8864546553220913e+000,
          -2.4706140926547411e+000, -1.2604471534708517e+000,
          -6.5325321683251791e-001, 8.7464594280546004e-001,
          3.0938847688514143e-001, -6.7702943081421341e-001,
          -6.4880837271573255e-001, 1.5842739800158268e+000,
          -2.9612341287943584e+000, 7.8439494246249486e-001,
          8.5581118764673136e-001, 6.2688867325113373e-001,
          -2.9331358748570087e+000, 2.6538778647142811e+000,
          -1.1720364366048766e+001, 2.5283548891794583e-001,
          -4.7515379972903105e-001, -4.0516015966909530e-001,
          1.3822960645554516e+000, 7.6718839486039725e-001,
          1.0125083018774572e+000, 2.1162322994355955e+000,
          1.2089869982656302e-001, 2.1211853671169627e+000,
          -7.9768118066180238e-001, -4.6663108134799919e-001,
          -6.1402126825177139e-001, 2.8646606416446061e+000,
          -4.7347232483086060e-001, -4.1373195079279951e-001,
          1.7251415217602867e-001, 1.0272471497563149e+000,
          -2.0619278618532872e+000, 3.1317409101318155e-001,
          2.6341544916699317e-001, 2.1138187873893699e+000,
          -2.2627545309439383e+000, -9.9289642179170023e-001,
          -2.8715552403918249e-001, -1.5584193640348905e+000,
          -4.7055296711770689e-001, -2.7591893977402138e+000,
          -1.5500145200756981e+000, -1.2107687765724091e+000,
          -2.7349421377880216e+000, -2.1329863508692815e+000,
          -7.5444435302818957e-001, 1.5479348865806497e-001,
          1.9533628036107193e+000, -1.0072919733106520e+000,
          9.6051863188453990e-001, 1.4975143000812624e-001,
          -1.1132770935951966e+000, 1.0544259576709889e+000,
          1.0999613294361654e+000, -2.6422680882046390e-001,
          -1.9598019029849562e-001, 1.2041070923622326e+000,
          -8.2629908891941761e-001, 9.9286232459905407e-002,
          9.8644001648742641e-001, 7.9208809545655856e-001,
          2.1754528849077132e-001, 2.1067867393256425e+000,
          -4.7597861954451437e+000, 1.9931081816184082e-001,
          1.0861149690558145e+000, 1.8794318545208391e+000,
          -2.1801384778327032e-001, 2.3012478713219378e+000,
          7.3013778948081420e-001, -4.5269339866759681e+000,
          -5.8605607529958914e-001, 4.9773576470008080e-001,
          -1.7758790502314654e+000, -4.9701015751826633e-001,
          1.3607445619884020e+000, 3.1361134460486562e+000,
          -9.0629873158455088e-001, 5.7982063884725576e-001,
          1.3838634951360984e-001, -1.5907517696361675e+000,
          -3.4941900891760298e+000, -1.4764768177749634e+000,
          7.9910301348464474e-001, 3.1567200346903479e+000,
          3.6090594740304754e-001, 1.4964532297606268e+000,
          -2.2338620137114673e+000, -2.0486041873500405e+000,
          -2.4684751102003597e+000, 4.3166722294953876e+000,
          -2.1504570214166316e-001, -1.4375290257017452e+000,
          -2.0752923102130740e+000, 1.6099194413922597e+000,
          3.0119248425357303e-001, 8.1771065526438880e-001,
          3.2611571523563976e+000, -1.3230597346544921e+000,
          3.7446100362529550e-001, 5.4637960429897947e-001,
          -2.3442230445629288e+000, -1.8382584973415304e+000,
          -1.5994310530170217e+000, -6.5443576332495379e-001,
          -1.0637806730930587e-001, -1.4531406880846112e-001,
          -7.0919496875213484e-001, -7.1397210836458991e-001,
          -8.8124072912209084e-001, -2.5784527659025027e+000,
          1.2018187464089454e+000, 2.8947740452548421e+000,
          6.8954220909991619e+000, 7.5086731992875466e-001,
          -2.9997712607559351e-001, 2.1623347384496525e+000,
          -9.3959451710452824e-001, -1.3238177766645183e+000,
          -1.0222988644620965e+000, -3.6136589956672509e+000,
          -1.8687476818403643e+000, -1.4496286446639444e+000,
          2.3042452879942785e-001, 2.0029604872041529e+000,
          5.7337770167705338e-001, 9.2701551202552479e-001,
          -5.1390674138131709e-001, -6.0305776895598340e-001,
          -4.7924444973776320e-001, -4.7773748006666557e+000,
          -2.6675241596476931e+000, -1.6717832670956525e+000,
          1.7715378157540489e+000, -2.2984343785753678e+000,
          1.2614110251324786e+000, 1.7233709445661898e+000,
          -2.8086043652061027e-001, 5.7486305272873284e-001,
          -2.1462049144149926e+000, 1.5577890768076474e-001,
          -9.8392750628432746e-001, -9.8331343489609258e-001,
          -1.0192943377074979e+000, 1.2053011569764953e+000,
          4.0758328619482437e-001, 1.1727800152922292e+000,
          -6.0831114468987879e-001, 1.8297773652666730e-001,
          1.9890233900467609e+000, 1.7269072806856053e-001,
          3.7455486013485734e-001, -9.0300501580334469e-001,
          -2.1022739160291688e+000, -1.5209015708219571e+000,
          -1.1268120213690616e+000, -2.2792295022334961e+000,
          -6.2734875680373536e-001, 9.3627911784781503e-001,
          -4.9104075216154469e-001, -1.3160323248794223e+000,
          2.7230659087962352e+000, 7.4003662511553867e-002,
          -1.0522315581153796e+001, -3.1853565749385709e-001,
          1.6203908080249561e+000, -8.0588283219669141e-002,
          -9.9690789924197121e-001, 2.9517897566553852e+000,
          8.5258014133728965e-001, 1.5093620109699115e+000,
          6.5521340940028439e-001, -1.1043191897191609e+000,
          5.4896340583384336e-002, 8.7092412298014321e-001,
          4.4363931737079104e-001, 1.1274397056602228e+000,
          5.2155006310230179e-001, 1.1811977543288208e+000,
          6.3042248711307791e-001, -5.3828944234255949e-001,
          -1.5540959138967536e+000, -2.0192770081051670e+000,
          -1.3479795573937763e+000, 2.6528187935193506e+000,
          -1.2312073718175127e+000, -3.2158527960903432e-001,
          2.7226255982538655e-001, 1.6134173636856775e+000,
          4.2258539365144254e-001, -1.2142172681975705e+000,
          6.1227975569978776e-001, -3.6158659855731357e-001,
          -6.8061892712055005e-001, -1.7986737204842105e+000,
          3.6842504720745906e-001, 4.2626673194993542e-001,
          -6.0746817516364804e-001, -1.8103363004970057e+000,
          -2.4142950194414543e+000, -2.1707119801266037e-002,
          -5.0123379602393825e-001, -6.9642682576279813e-001,
          -5.8615352953301203e-001, -8.3055032782428651e-001,
          -1.1331092822300395e+000, -1.2809049765943077e+000,
          -2.3921837764479007e-003, -3.5175869895525186e-001,
          -2.6978826184976907e+000, -3.9376076399127186e-001,
          -1.3128270713438823e+000, -6.9340253201710789e-001,
          -1.3249975016840887e+001, 7.0541902356943714e-002,
          2.1717274656827446e+000, -1.8725920078741118e+000,
          -2.1966594115531493e+000, 1.6555951720141715e+000,
          3.5036227919941337e-001, 9.8539987176086763e-001,
          -4.9321299980339633e-001, 2.0525441827201965e-001,
          1.9146656860247266e-001, 3.4829863898010111e-001,
          9.9303245085000758e-001, 1.8033861865894152e-001,
          -1.9746380134767252e-001, 1.4584421388838342e+000,
          6.2987835311407203e-001, 1.4630924799920539e+000,
          -2.2198841490455634e+000, -8.1589278266210807e-001,
          1.4519624341547996e+000, -1.0620752137911798e+000,
          4.5877280858372771e-001, -2.4074778682552975e-001,
          2.0871876795041905e-001, -9.2475988473264792e-001,
          -2.0665389779193672e+000, -1.7273289109143084e+000,
          -5.0519133842134889e-001, -1.2966148025817830e+000,
          -9.6374935917944216e-002, 8.6275990019984616e-001,
          1.0202623420671029e+000, 8.1009813110024376e-001,
          -9.7152014610937087e-001, -9.7024803329309350e-001,
          -2.0304888547919071e+000, -3.2785337694142852e-001,
          1.2531032195826879e+000, -1.6204765355622857e+000,
          -8.0198192980875793e-001, -1.0768680772074175e-001,
          -1.2386942291864489e+000, -2.6378376239902815e-002,
          5.9301141199977292e-001, -4.4032017737462303e-001,
          -1.8341945952242094e+000, -1.1057288421066922e+000,
          -2.1771238056687103e+000, 1.4501555336250869e+000,
          -8.7946719066401755e+000, 7.9799241528106124e-001,
          2.4688433182821430e+000, -1.2500497182305459e+000,
          1.2516382081364175e-001, -5.9850545634454733e-001,
          9.4603459935112233e-001, 5.0145083393776879e-001,
          4.8666574651853589e-001, -2.4110170387443222e+000,
          -8.0442665716592698e-001, -2.5631489815710862e-001,
          1.6001809357702239e+000, -2.0529651351996669e+000,
          -1.1075595469412505e+000, -2.1516046663752868e+000,
          1.5258199302245798e-001, -1.3996893196777209e+000,
          -1.4920227106755546e+000, -3.2111638005991477e-001,
          -1.7410708502726120e+000, 8.6465218403123476e-002,
          3.3201088048226142e+000, -2.0738981727464825e-001,
          8.0823513338362718e-001, -1.6882920900687226e-001,
          -1.5410180631498713e+000, -1.9102900694245299e+000,
          1.0200350019396061e+000, -1.4629382851293067e+000,
          1.7753032657958188e+000, -3.4447909568818874e-001,
          1.7022252188843259e+000, 8.0103317899914972e-001,
          -2.3827555304751344e+000, -2.4517070496331947e+000,
          -4.6115150643143448e+000, -8.5878122932529333e-001,
          6.5787786923545699e-001, -1.8895800434662838e-001,
          -1.0479344940182627e+000, -1.1834306622464821e+000,
          -1.5033509237116440e+000, -8.7937754374677923e-001,
          -1.1224453118058025e-001, 9.5305250239144761e-003,
          3.3536903337091534e-001, 1.0035821876917308e+000,
          -1.7782490335275719e-001, 1.9529261688765212e-001,
          -8.9448107200741127e+000, 7.9351506896096813e-001,
          7.6758995358343618e-001, -1.4924565842048352e+000,
          -2.2790433066892754e-001, 1.3301355442304001e+000,
          1.0227511557640934e+000, 1.3451392877923387e+000,
          -1.4666058312388017e+000, -8.7598573014994990e-002,
          -1.3337018933933192e-001, 3.3831946483077757e-001,
          2.5382056426226329e-001, 5.6413396582876207e-001,
          1.2773494009553894e+000, -6.7549425771085825e-001,
          1.2714991980380013e+000, 4.3400131461406705e-001,
          -1.8877236950032161e+000, -2.5627645298150470e+000,
          -5.3016248890943707e-001, 3.2016425757839184e-001,
          1.4160162085488956e+000, 2.1964660848347489e-001,
          -7.2212680260655165e-002, 1.1726679412475547e+000,
          -3.4035972642506471e+000, -1.7144470542167336e+000,
          -2.7970258247214725e+000, -1.9884293977420489e+000,
          6.6548750852868122e-001, -8.8722991709667398e-001,
          6.6954460750932276e-001, 5.9544449378089859e-001,
          -3.0683154293413312e-001, -8.7643007694098651e-001,
          -2.0578998372357078e+000, 1.1569475724367466e+000,
          -4.3677913514440014e-001, -1.0266208116068158e+000,
          -1.1710994936644932e+000, -9.3154957321135667e-001,
          -8.7893573767943989e-001, -1.2188346267040004e+000,
          2.0801200363842998e-001, 6.2867507381313248e-001,
          -2.3007161501413327e+000, -1.7567931888605651e-001,
          -3.4356599021153693e+000, -8.1403766747043782e-001,
          6.7793549580785681e+000, 5.5685834305903725e-001,
          1.2867410557477557e+000, -3.6116120932206823e+000,
          -2.3423867633445239e-001, -2.2951158987068583e+000,
          1.0862393240673394e+000, 5.3655527627883604e-001,
          3.2879239199763690e+000, 2.2423107198119383e+000,
          -2.3286106548039052e+000, 3.6055942606919639e-001,
          1.0763416052820567e+000, -4.5980760216644517e-001,
          3.2134742510366443e-001, 3.2415970989829996e+000,
          1.5957859240069650e+000, 2.0639831674535700e+000,
          -1.3270242560543228e+000, -3.4291069438267905e+000,
          -1.4268355216149515e+000, -6.8042597699168084e-001,
          1.1782913858864090e-001, 6.0561649073099644e-001,
          2.7256724237538021e+000, -1.1029590200627165e-001,
          -4.6834630015942471e+000, -4.4033598746444158e-001,
          -3.1219045153952143e+000, 2.2955604214187049e+000,
          -1.1815575094192046e-001, 1.3007968725506414e+000,
          1.3987231148217001e+000, -1.2494034903471345e+000,
          2.5912029489117958e+000, -8.8755391483443014e-001,
          7.7300429290539319e-001, -1.4019966107020447e+000,
          6.6723457619173143e-002, 4.5622172453277771e-001,
          1.1137638084803378e-001, 1.7971448276835664e+000,
          -8.8518119947417495e-001, 5.5653455336593813e+000,
          1.9226601070709084e-002, -1.2101638338529161e+000,
          -2.6412882308932089e+000, -2.4185866407080949e+000,
          -1.4463877756917547e+000, -1.6686245475224759e+000,
          6.5903030934300340e+000, -1.1156128932171796e+000,
          -1.6563309876270302e+000, 4.0190038635095382e+000,
          -1.5940130042641643e+000, 3.7921866962618918e+000,
          -1.5285777503347380e+000, -3.7165006493900210e-001,
          -1.1850871952752606e+000, -1.3771148621786686e+000,
          -1.9114422317034565e+000, 1.6380543918021465e-001,
          2.3439001255756220e+000, -3.2242463968962740e+000,
          1.0917663766760686e+000, 1.9453827320940098e+000,
          1.0136160684902343e-001, 1.2824935217026912e+000,
          -1.1786006567783107e+000, -2.5396667246353730e+000,
          3.0317178091660657e+000, -1.5431473285541626e+000,
          8.6911953380736906e-001, 1.4119889278432818e-001,
          4.6766028728694192e-001, 3.9214411359652407e-001,
          1.8727478962111843e+000, 7.8712163258298751e-001,
          5.7664813423678418e-001, -3.9916496693674569e-001,
          -1.5676357527544944e+000, -1.5237749910111931e+000,
          -1.9174429502488211e-002, 1.5847423586947154e+000,
          1.5273230399018090e-001, -1.3730905173380310e+000,
          1.0643851164182461e+000, -3.2131091548920315e-001,
          -4.4517194892336338e+000, -6.5918159039864210e-001,
          4.5316375622922117e-001, 5.1031604589774060e-001,
          -2.4927872740538909e-001, -1.7711344354052114e+000,
          6.4334310495230321e-002, 2.1221290336570600e-001,
          -2.9666579466111758e+000, 1.5597810291002316e+000,
          -1.6371098714200922e+000, -1.9865658540415418e+000,
          2.6752379277279931e-001, 1.0670788124825219e+000,
          2.0054764420033142e-001, -4.1017416042464394e-001,
          1.5702783913103897e+000, -2.7073769154020031e+000,
          2.0957340960612614e+000, 1.3072345886374728e+000,
          4.0171988943246334e-001, -1.6773434986049600e+000,
          9.5736596239096982e-003, 3.6614513890248246e-001,
          3.4276150528753533e+000, 9.2987254817438370e-001,
          5.1177438066994742e-002, -2.7581593222819456e-001,
          2.1517626665397334e+000, 1.6339042683465805e+000,
          -1.2713837283100160e+000, -4.0491875572930647e-001,
          -1.3349259591943687e+000, -1.8540443249671261e+000,
          2.8049812514018790e-001, -8.2966275060764672e-001,
          1.9106429974105645e+000, -3.0186355279146060e-001,
          -2.8547084457661058e+000, -5.1182842912659376e-001,
          3.2526415453113606e+000, 1.9473892022225683e+000,
          1.4657911443757552e+000, -2.3466009481585051e+000,
          -2.2498140913454985e+000, -1.4807764191680621e+000,
          -6.9429621009841958e-001, 2.8483983628082683e+000,
          3.0856576461779976e+000, 1.2854850283579806e+000,
          -1.4077809996269846e+000, -7.1282496180046662e-001,
          1.5475516101702860e+000, 4.8674247040193652e-001,
          3.4119858394703351e-001, 2.8811666266389100e+000,
          -1.4455779207485844e-001, -4.2933260038851501e-001,
          -2.0108630865866157e+000, 1.0013648719459689e+000,
          2.0333036188825075e+000, -4.3898857625209231e-002,
          3.9566853169828411e+000, -1.7517603952833760e+000,
          1.0277230013480027e-001, -9.9535352296025514e-001,
          1.1193441365433823e+000, -5.5206424793411102e-001,
          6.9915625422876071e-001, -1.3260271419436680e+000,
          5.3243156928367996e-001, -6.5282076998209815e-001,
          -2.5480411520804225e+000, 1.2435777953683422e+000,
          -8.2650499621217000e-001, 1.4670849054057844e-001,
          -4.4617931457180693e-001, -2.2656081983862486e-001,
          3.0281720766522242e+000, -3.3572453076239234e-001,
          -3.2700428202795689e-001, -1.5858492019144305e-001,
          -3.1512051869972241e-001, 3.1184691994888620e+000,
          4.1743568539460896e-001, 4.4476979910301445e-001,
          -1.5647029192021344e+000, -9.0366825126140904e-001,
          3.2442882968326221e+000, 8.2463223446492762e-001,
          -1.6527525803007675e-001, 1.6425967904031478e+000,
          2.7956687623968417e+000, -1.0845069112483581e+000,
          -1.1007084283943915e+000, 5.3993349927875911e-001,
          -5.0840200436108218e-001, 1.7070454324685702e+000,
          -1.1585807094464307e+000, 1.8825822461922430e+000,
          -1.5962320991273766e+000, 9.1243500221659990e-001,
          -3.5434971046143640e-002, -1.4649246217241843e+000,
          -1.2099100549430901e+000, -3.9189294660382412e-001,
          -8.8743991949735657e-001, 5.2598138482127132e-001,
          2.3306585863251801e+000, 5.6543143243970295e+000,
          -5.9872569242545148e-001, -1.2878366108905361e+000,
          -5.0781040646967250e+000, 1.8551295769155987e+000,
          1.6795178244450384e+000, 2.9582760607058596e+000,
          7.1118197656764037e-001, 4.7915412811242923e+000,
          -1.5815073309243664e+000, 2.8363143404893021e-001,
          -1.7178901435622072e+000, 9.9627855817482203e-001,
          1.1200956802401438e-001, -1.8091118885309181e+000,
          1.6551422657634713e+000, -2.3247690532112077e+000,
          6.4030280645872351e-001, -3.1353337236382868e+000,
          -6.0980713779234397e-001, -6.4521036241128282e-001,
          1.3885499317851193e+000, -3.7335825503769167e+000,
          6.6728809352399943e-001, 1.0591192821094173e+000,
          1.0444959018509414e+000, -3.0123210692632671e-002,
          -1.2272372025541780e+000, -4.1311832812039362e-001,
          -4.0666407422393194e+000, 7.9590083138794199e-001,
          -3.1489025669835540e+000, -1.6935578656334709e+000,
          1.3617094031582584e+000, -3.2555878783117193e-001,
          -1.6414347990501708e+000, 5.7731526537998179e-001,
          1.1047780957979263e+000, -7.9838809288728718e-001,
          -2.4841767999933970e+000, -2.0797201750570263e-001,
          -1.5645097640094379e+000, -1.2187505376980701e+000,
          -1.0857364943954655e+000, -1.5850614667871157e+000,
          -1.5402163999899312e+000, 5.3391802983724039e+000,
          -1.5162966948588588e+000, -4.6994633497399163e-001,
          -2.8082681436306954e-002, 8.0220107768922255e-001,
          -1.4543067999011396e+000, -8.2628908796082889e-001,
          -2.8481635454102530e+000, 1.3882713969821534e+000,
          -2.5218601410783936e-001, 1.1045573348930575e+000,
          -1.3221867512012881e+000, 1.5960628463260051e+000,
          3.1533680391089791e-001, 7.1835680676815272e-001,
          -8.0551023755393317e-002, -4.0469430233225984e-001,
          1.7627030848818517e-001, -2.2483753576431294e-002,
          1.2889301764862728e+000, 2.8922230553058510e+000,
          -3.3419772698398870e-001, 4.4122595686599159e-001,
          -9.8157232392099403e-001, 8.4301418376582482e-001,
          -2.7306471326080906e+000, 4.6212234135746499e-001,
          4.4932323764900204e+000, 2.1708910216787394e+000,
          5.9872828323789518e-001, 2.3167475650882757e-002,
          1.1196273413106548e+000, -2.0206998149836091e+000,
          -3.6064233052047641e+000, 3.0724456392037858e-001,
          -2.1998660627139408e+000, 8.7617048050640645e-001,
          2.0705322437986193e-001, -1.8951364374433453e+000,
          1.6277106357200368e+000, -6.1632814641732170e-001,
          -2.6162620331018629e+000, -1.1329415516909602e+000,
          8.4321849687661077e-001, 1.9663395672283128e+000,
          -2.9119286953283705e+000, -1.3679362630653942e+000,
          2.2748144027193763e-002, -1.3265477622429167e-001,
          3.0212705592935596e-001, 9.4805459148394677e-001,
          -9.8198452530338232e-001, -3.5073470367036919e-001,
          -1.1085879820541891e+000, 2.5803739101832375e+000,
          -8.4326487477391276e-001, 3.8158425427212495e-001,
          -2.2711557876637807e+000, -7.6930848094079807e-001,
          -1.2697449269266257e+000, 3.3700880464003466e+000,
          -2.2128885369566267e+000, 2.1021692872288775e+000,
          1.2126419698412529e+000, -1.4830034221378421e-001,
          -1.6565098844999826e-001, -1.0730904467386098e+000,
          1.4019481526523717e-001, 2.1389051428476753e+000,
          -3.2113410544171461e-001, 2.0001569447005636e+000,
          -5.6095822494584890e-001, -1.6620832542588617e+000,
          1.5235494130627876e+000, -2.0322691335316154e+000,
          -6.0048282287791777e-001, -2.0351101144392465e+000,
          3.7403297750873374e+000, 3.5418314861149809e+000,
          -5.4526479544453266e-001, 7.5158218387500342e-001,
          -1.0859534675094007e+000, -1.9430014514549059e+000,
          2.7336058088952617e+000, 3.6429399740420623e+000,
          -1.8113822163965287e+000, -9.5504102165789265e-002,
          1.8719395485114689e+000, -1.9213552873243023e+000,
          -1.2970863245796380e+000, 4.2926219978755414e-001,
          -1.7031774566288422e+000, -2.1379462489083565e+000,
          1.1730443426292884e-001, 2.2048060058383538e+000,
          -1.7664359860034349e+000, 8.0559741709229582e-001,
          -1.0817736947004237e+000, -1.0862967958672463e+000,
          -1.5471096727731579e+000, -1.2340975856482823e+000,
          -9.9353817750885531e-001, -1.0971497343403216e-001,
          -2.9676934029618546e-001, 2.0259763522558321e+000,
          -1.8668517989741920e+000, -2.9552760588657107e-001,
          -3.9141958111987560e+000, 1.9038409480683199e-001,
          -1.6149848153270843e-001, 1.1535341040652054e+000,
          -1.2197121063420708e+000, 5.0943104066248679e-001,
          3.4114041182498750e-002, -5.1005392087151602e-001,
          -1.6819519424196050e+000, -1.8604081545499467e+000,
          -7.6839122941046126e-002, -3.4548935686810238e+000,
          1.2525052029450789e+000, 4.3821704464850862e-002,
          -5.0494587560315463e-001, -1.9412333612632100e+000,
          -8.6551745333175722e-001, -1.4931506929542666e+000,
          6.5244631188094337e-001, -2.4664999562871972e+000,
          1.8038709354637970e+000, 1.6370017234905270e+000,
          2.4472015999336749e+000, -1.1543146668746578e+000,
          -1.3689897039996513e-001, -4.4482714722753403e-001,
          -2.6973248977904611e+000, 1.6634622269328077e+000,
          -3.4658584293016230e+000, -1.7826501186677024e-001,
          1.4088742928898830e+000, -8.4574802107441935e-002,
          -4.5447415546840973e-002, -1.8148421591016506e-001,
          8.7219443894655158e-001, -1.2404882713488061e+000,
          3.7009077500846083e-001, 4.0305857233923092e-001,
          -1.7440995031118554e+000, -1.1876345584969976e+000,
          -5.8354251074522445e-001, -1.3057371093774968e+000,
          -4.7466256549651381e-001, 3.1629290849549432e+000,
          -2.0493826347840085e+000, -1.1661152806206407e+000,
          -6.7257341853356245e-001, 1.9582453301195568e-001,
          7.8951477307601148e-001, 1.6357159840418298e+000,
          4.2699157251316860e-001, -9.4845647525720223e-002,
          -5.8101206726691534e-001, 8.6208214896254942e-001,
          -1.6067318774052755e+000, -6.7515733192710181e-001,
          1.2815463485180173e-001, 1.5774659259765238e+000,
          -5.2651055713735451e-001, -1.6314341824134406e+000,
          9.0344686515017647e-001, -1.1300809761391166e+000,
          -2.3471051147653705e+000, 2.6532785937587682e+000,
          -4.2430882782683554e-001, -2.1027059444216563e+000,
          1.8392114753085759e-001, 5.2785952190634688e-001,
          -1.1860364353529227e+000, -6.5552137657249487e-001,
          3.3454247268953391e-001, 1.8811819648615302e-001,
          1.6701432977526333e-002, 6.1050495538091505e-002,
          5.5017872796075007e-001, -1.0442892862848137e+000,
          -2.5721413495907299e+000, -5.5060249450405230e-001,
          -8.2049148987470577e-001, 7.7726466010816730e-001,
          2.4939455525925913e+000, -8.6438858442290364e-002,
          2.5333940000340198e+000, -3.5430832997630085e-001,
          -4.3214862415159825e+000, -5.6947045373098437e-001,
          1.0256816777408497e+000, 3.6135972811680650e-001,
          -1.4682925477827846e+000, 9.2736986780120767e-002,
          -1.9230325958845590e-001, 1.0606724042705162e+000,
          3.3019447160334464e-001, 4.8542951741101801e+000,
          -6.6242377766592267e-002, -1.5538557279269294e+000,
          -1.4890172406221411e-001, 2.5292073833378321e+000,
          -1.7451255613679710e+000, 1.4777126061097501e+000,
          2.0096176933802550e+000, -4.4691256877264562e-001,
          -5.3731761954665946e-001, 1.3637838635398231e-001,
          -2.1258818147655307e+000, 3.0335532579758291e+000,
          1.3952040266555361e+000, 1.6603949767178365e+000,
          9.2914705048724033e-001, 8.7572075638441160e-001,
          -8.1875969178014962e-001, 3.2325062059141869e+000,
          1.9025362941321931e+000, 1.6640305198224901e+000,
          -5.8896725240952819e-001, -1.4584294752174034e+000,
          2.0878166765666197e+000, -6.2559705742086813e-001,
          -1.5038548234391584e+000, -9.6124978705346531e-001,
          2.7365696953104441e+000, 2.6940686077604563e+000,
          -6.7170146751566651e-001, 2.0496097218394200e+000,
          -1.7423551382042477e+000, -2.9553849755858517e+000,
          9.7456800635305252e-001, -4.1308218919596706e-001,
          -9.4099549776208857e-001, 1.1572434539853957e+000,
          3.3805117098154644e+000, -1.4896690186773525e+000,
          -5.1037871315578826e-002, 1.0905427469875212e-001,
          -1.0666467609474846e+000, -2.3225850885545389e+000,
          -2.3322476785153530e+000, 9.7694211828700095e-001,
          -3.3682398630950705e+000, 3.8536573955502579e-001,
          -1.4194812458843784e+000, -1.5167668530727310e+000,
          -5.5087107747862218e-001, -4.1733770274962412e+000,
          3.3611937216799920e-001, -5.8864610788603144e-001,
          5.2916308402375534e-001, 2.1184751125239822e+000,
          1.0393820687262711e+000, -4.5822606736050070e-001,
          -2.6095144079731070e-001, -2.8595443425010314e-001,
          2.8153464689953351e-002, -6.5636846397395354e-001,
          6.3312644746614299e-001, 3.6109362437855483e+000,
          1.3132970864568143e+000, 4.6716076243724336e-001,
          2.9980819306131656e+000, 3.6991601270495600e-001,
          -1.0442495075905185e+000, 8.0585743160458845e-001,
          1.6777135130458456e+000, 9.0961208815578132e-001,
          -5.0927858321659891e-001, 2.5247032444715454e+000,
          1.1122862953282580e+000, 7.4138761549064591e-001,
          -1.4089730499079924e+000, 5.4303947637332528e-001,
          8.9543019599799445e-001, 2.7900686572328830e+000,
          -6.8686640794465015e-001, 1.3411012042712729e+000,
          -1.4951281897286988e+000, -7.2368597666043910e-001,
          4.7781452914656661e+000, -1.3848769027981307e+000,
          -4.4318766104882606e-001, -1.9867718492661762e-001,
          1.5333075705495938e+000, -4.3823883029432736e-001,
          2.9535843800548622e-001, -1.1962686772298267e-001,
          1.1039073667861248e+000, -5.4381701443485163e-002,
          -1.0055788241681642e+000, 1.8668491479127713e+000,
          -1.5703172014254985e+000, 9.8399892231307229e-001,
          -8.0111887088471656e-001, -1.5672987393985547e+000,
          -3.5879360580362823e-001, -4.8258946142304273e+000,
          -1.3768040807994677e-003, 1.1307017461204811e+000,
          7.1393878530651966e-001, 1.7196570015120324e-001,
          1.7786866427162669e+000, -2.4557353167143394e+000,
          -5.9242962747597661e+000, 3.5968882536334296e-001,
          -8.3573740053007473e-001, 1.1103770962959150e-001,
          9.8831575051874176e-001, -4.7398471828620899e-002,
          1.6358379692176985e-002, -1.5192339096517649e+000,
          -8.6004122526152049e-001, -6.1796450243357859e-001,
          3.8602198098794721e-001, -5.2411850178607569e-002,
          3.2584295852889045e+000, 2.6888706179035289e+000,
          -1.4380543643719154e-001, -2.2874259144851092e+000,
          3.9098750247070907e-002, -1.2613167607661835e+000,
          -1.4910133563712800e+000, -1.4787554859307355e+000,
          2.5845577081716384e+000, 1.4233843787079024e+000,
          3.0374469932591702e-001, 5.3126013483791334e-001,
          4.9665238178755633e-001, 2.2045145342863648e-001,
          -4.8376640666392703e+000, 9.8639205797113139e-001,
          -1.2020668868551057e+000, -1.1362152684819882e+000,
          -7.7611259952565514e-001, 3.5896553161342559e-001,
          8.2502143455936330e-002, -1.1147483475939499e+000,
          -2.6271148354899887e-001, -1.1095381550086933e+000,
          -6.5198552190933490e-001, -2.9511418050527977e-001,
          -1.5171770406944718e+000, -9.0027730182438453e-002,
          -8.5348707760879605e-001, -1.5593147340133107e+000,
          -1.6695713931137985e+000, 1.8067359990672530e-001,
          -2.3597803752036103e-001, -6.4951111407512385e-001,
          -1.1429194818387949e+000, 1.2582336568423444e-001,
          6.0921340943371038e-001, 1.7692086169453061e+000,
          -3.7224578141626470e+000, 8.8623985182458231e-001,
          -2.9882837025058190e-001, -2.3242337735135115e+000,
          2.2873575470651747e-001, 7.6761916606236458e-001,
          -5.2717068067929640e-001, -3.4249121281111566e-001,
          -2.4817724236885461e-001, 1.0941312447558531e+000,
          1.8824388903855269e-001, -1.5720790095911676e+000,
          1.3778915958925941e+000, 1.7313749941121976e+000,
          -6.9499645210263139e-001, -3.8582453865095401e-001,
          -2.1532525032708687e+000, -1.3117345793594581e-002,
          -1.9621546550543574e+000, 9.8636904001151327e-001,
          2.3779990453212423e+000, 5.7817571284314517e-001,
          1.1823751846809638e+000, -3.0833707556206924e-001,
          4.8777498749572523e-001, -9.3251083705208704e-001,
          -4.8245350530183009e+000, -4.2376308006130847e-001,
          2.7518060187346960e-001, 1.7505591061019535e-001,
          1.2261338984719947e+000, -3.5441635475894068e-001,
          2.1459311184824095e-001, 1.6591152231459030e+000,
          1.2638221466557184e-001, 4.4739192551198115e-001,
          -5.2388567822275167e-001, 2.6195476883823138e-001,
          -2.5758419376565507e+000, -7.7137074766769398e-001,
          -3.9213665605479342e-001, -1.6422206119032523e+000,
          2.3512448335870925e-001, 1.9748839355124097e+000,
          -4.3215916174314299e-002, -3.7329860925036390e-001,
          -1.5146409540818986e-001, 2.0447988653664604e+000,
          -5.9944887736119146e-001, 1.3461381315568528e+000,
          -2.8163504794452567e+000, -2.7624013429506586e-002,
          1.5393257420147419e+000, -2.4738680766142682e+000,
          4.3438016933071538e-001, -5.6545744615109639e-001,
          6.7626301766125135e-002, 4.3227881976063109e-001,
          -3.0675679773985598e-001, 7.0628638208078498e-001,
          8.3568386555653151e-001, -6.4610454130613015e-001,
          3.0485179149854909e+000, 2.3290630766792879e+000,
          -2.1383764362655500e+000, -1.5810816561089365e+000,
          -3.1802309581473631e-001, -1.0697049831437031e+000,
          -1.2489889604622875e+000, -3.7521936102045328e-001,
          3.5377030728404626e+000, 1.3196195480970152e+000,
          6.4216786674875048e-001, -4.6037864112942289e-001,
          7.2258786437076294e-001, -9.2731885926697655e-001,
          -4.7837239701788885e+000, -8.9701635951270053e-001,
          -1.0558440201570181e+000, -3.3237178734421163e-001,
          1.0415229140567683e+000, 1.6168711315693576e+000,
          -3.8961037494905332e-001, 3.2313777228196817e-002,
          -1.0003714617406569e+000, -1.1775858060853333e+000,
          -2.9035572962493583e-001, 8.4992120822130657e-001,
          -1.5106302735814205e+000, -5.3729194778539435e-001,
          -1.2082952407696217e+000, 4.8404793360960019e-001,
          -5.8754896304341653e-001, 1.4742638837100344e+000,
          -8.9098710442010864e-001, -7.6128818992264080e-001,
          -1.2365891902587778e+000, -3.1713635643850030e-001,
          -1.4999093681444753e+000, -3.1422015548382720e-001,
          -4.1958274806999931e+000, 3.8716617142118026e-001,
          1.5768040903872943e-001, -1.4924723558492077e+000,
          9.7907219861892603e-001, 1.2913955434661182e+000,
          -5.3209312723780833e-001, 8.8214131906776183e-001,
          -1.1711019816658552e+000, -1.3953563103993889e+000,
          3.1542355160647545e-001, -6.7467446103711126e-001,
          2.2764601284433201e+000, 2.8041181274391591e+000,
          -2.1174330472725251e+000, -1.2391171525311404e+000,
          -4.6581990847196342e-001, 2.3670834513150360e-001,
          -3.9672355397012316e-001, -2.5069222408211176e+000,
          8.5512915966030090e-001, 1.1135641911166749e+000,
          1.9183714431699264e-001, -4.0515164443289631e-001,
          5.4567826888857252e-001, -1.2065129503950649e-001,
          -5.7747641590194219e+000, -6.0377502818883744e-001,
          -3.4802361590495012e+000, 7.9744173894148174e-001,
          1.3374586506498494e+000, 3.4522926273028831e-001,
          6.0178350070330788e-001, 7.3861935839107967e-002,
          -1.9988995186433354e+000, 4.0670564598337677e-002,
          -6.4399568693765208e-001, 6.5397967185339667e-001,
          -2.5045725721263041e+000, -1.0404938991938246e+000,
          -6.9091318915404309e-001, -1.5693329058063012e+000,
          2.4789794232950252e-001, 4.9258985922298359e-001,
          -2.4174932500995788e-001, -2.5801661071772442e-001,
          -1.2919308380465866e+000, 2.2433896876904962e+000,
          3.2643218522265238e-001, 8.0814001654718659e-001,
          1.0478969125329622e+001, -2.6364613009754062e-001,
          -7.6934874023050381e-001, 2.8907256109337394e+000,
          5.1465863388237700e-002, 1.4360558691142420e+000,
          1.4990410668396290e+000, 4.5723533917753661e-001,
          -9.5276435926931791e-001, -2.5742641274887895e-001,
          -2.4988948566432603e+000, 8.7577802475891064e-001,
          2.9268848574348580e+000, -2.9509570084872201e+000,
          -9.3140751986650794e-001, 2.2432348572445213e+000,
          -7.6731419865706463e-001, -1.3117616068212732e+000,
          2.3757870029776004e-001, -2.9097921596186600e+000,
          7.0007682779409368e+000, -1.5789394971771871e+000,
          1.8364725885278028e+000, 2.7820383180451129e+000,
          -1.9106406986451292e+000, -1.3318213358876418e+000,
          -1.9636685553395122e-001, -1.0463943497567798e+000,
          -4.9441843952114251e-001, 7.8010075233221221e-001,
          4.3688482522613619e+000, 6.8508848543247969e-001,
          2.2735292926502693e+000, 3.2561291063816383e-001,
          -2.2847971336384951e+000, 1.9871817851123912e+000,
          -3.2542855495130261e+000, -2.0079835949530875e+000,
          -1.8167710566725073e+000, -1.6489701642292176e+000,
          -1.1244918835965687e+000, 8.5685091898930621e-001,
          1.0619436814159782e+000, -3.3174204708175914e+000,
          -9.3062884981397231e-001, -4.3002443326481576e-001,
          -9.8840769196086509e-001, 1.1648352696490964e+000,
          -4.5342984470949194e-001, -3.5127451900338524e+000,
          -2.1536076605865500e+000, 6.9430175092835378e-001,
          -1.7867984714576441e+000, 4.3722461545760867e+000,
          1.6134302196805688e+000, 1.6502261557252487e+000,
          3.6212881883529695e+000, -4.9460627718388972e+000,
          1.1077281351485322e+000, 2.2220804083691630e+000,
          4.6387969271999685e-001, 1.4618125360326117e+000,
          2.7429147054670473e+000, -5.0751642795611973e-001,
          -5.7682624661557080e-001, 8.8220113176008874e-001,
          6.7056718317780994e-001, -1.1593057311375650e+000,
          1.6330793101327250e+000, -1.0989129471282391e+000,
          -6.6825033986847882e-001, -4.9402335469129789e-003,
          2.4020224503378680e+000, 1.1769882767610042e-001,
          -2.0856143942799821e+000, -1.2658821751610527e+000,
          1.3819670806648104e-001, -2.0103208382332229e+000,
          -3.8958409093654516e+000, -1.8064435776644487e+000,
          1.8175615542844916e+000, 1.1243548371802348e+000,
          2.1054790653579301e+000, -1.5456615700164236e+000,
          6.7842025459605226e-001, -3.4135828768869281e-001,
          -1.7527351462596057e+000, -2.1849076143276407e+000,
          -2.0964863524200150e+000, 1.5932948612789724e+000,
          -2.2299492743593596e-001, -2.5572490603446224e-001,
          1.9280647092218881e+000, 6.2320845308233019e-001,
          3.1342418854070037e-001, -1.9419634635347360e-001,
          6.5637401652700114e-002, 1.7425957425667429e+000,
          -5.6117511901806971e-001, 7.6405927370875848e-001,
          -4.5672796381022858e+000, -1.9242419949082195e+000,
          -4.9603231858946017e-001, -8.5455350240035821e-001,
          2.7219067987207373e+000, 5.3335120257493687e+000,
          -8.5362677530732689e-001, -6.2608474256860314e-001,
          -8.8274929053267137e-001, 4.8280762887177051e+000,
          5.6899859483641557e-001, 2.4219999002694897e-001,
          -1.1490625696194172e+000, -7.7106290341242201e-001,
          -9.3567440155375725e-001, 1.2614408826376258e+000,
          -2.0031119989609456e+000, 9.0048691038060280e-001,
          -7.3640997739336078e-002, 2.1622976099069846e+000,
          -1.7634579412011420e+000, 3.1416591840347450e+000,
          -2.9515303186366642e+000, -6.1677549407091559e-001,
          -1.0148298502095068e+000, 6.5617621095389211e-001,
          -4.5748735520356598e-001, -4.4355633962911489e-001,
          3.0644080912260618e-001, -1.8116269307815940e+000,
          9.0501376360040120e-001, -1.7386243622089026e+000,
          5.2695165484332496e-001, 1.4829677174219960e-001,
          1.9145285233028428e+000, 8.9762561227099569e-001,
          -4.2108443063358632e+000, -7.0055450119031637e-001,
          1.1506861152661964e-001, 7.1560884133261737e-001,
          -9.8198206704843916e-001, 2.4864016105523556e-001,
          1.0567228376928122e+000, -1.5852376226968705e+000,
          -1.3828863949100876e+000, 1.7982437255642738e+000,
          1.9907448332068428e-001, -2.0317055252807061e+000,
          4.6752485732603279e+000, -3.4420946934861099e+000,
          -9.5224341767441185e+000, 1.6823511868284819e+000,
          2.1850419590915502e+000, -2.0382476421747628e+000,
          -1.3224510584942379e+000, 3.9112842112937294e+000,
          8.2525745136226991e-001, -7.3763926868762830e-001,
          4.4014376657115351e-001, -1.7480537874227464e+000,
          -5.5289916664489278e-002, -6.4179115861483352e-002,
          -3.4962977032138700e+000, 8.5698112924549263e-001,
          5.8339829499813489e-001, 1.2459284847166012e+000,
          -3.0024327132683681e+000, 5.3923008685734453e-001,
          -6.0019993250560977e-001, -3.0444010067412308e+000,
          1.2849969448896417e+000, -3.0276823391461699e-001,
          -4.4703098188225965e-001, 1.9872124889424942e+000,
          -6.8703070889332851e-001, -8.4964496466181441e-002,
          -2.1803174604818780e+000, -2.7712148710833042e+000,
          -2.2656279600403026e+000, -5.6744153518480533e-001,
          -3.4698593394079227e+000, 9.6480694574214676e-001,
          1.1065050492487043e+000, 1.5615394640196654e+000,
          -2.5552317650366629e+000, 7.4436534165561050e-002,
          -1.5861450381902462e+000, 1.4672082692469299e+000,
          -9.3667980824912489e-001, -1.1775409368441465e+000,
          -5.9417873389233278e-001, 1.8325276881561428e-001,
          3.7292347547231219e-001, 2.5243792723907804e-001,
          1.3887784168718305e+000, 2.0578474758668053e-001,
          -2.1718191948724876e+000, -3.5036618454345150e+000,
          1.1780972017580889e+000, -3.1029737266324242e-001,
          -1.0241063320077883e+001, 5.3385964024554988e-001,
          7.8144696625153565e-001, -7.5755250954931930e-001,
          -1.9848103204830938e+000, 1.2604356234466771e-001,
          -6.2572263656666438e-001, -9.8873438533750790e-001,
          -9.6357428517080135e-001, -3.3518995679854116e+000,
          7.4494218069717344e-001, 1.2614178391722661e-001,
          6.9479708264226481e-001, -3.7126096256655561e-001,
          -1.0495260558620453e-001, -1.0979092776992154e+000,
          -2.1966482987296319e+000, -9.2739317329300341e-001,
          -1.5442611266665949e+000, 1.6694228671959186e+000,
          -7.8695397350755847e-001, 1.1934326161102665e-001,
          1.4015264080760528e+000, 1.4733470606282475e+000,
          -1.3906462270637321e+000, 8.3043877207351213e-001,
          -1.7407847836446981e+000, -2.9250021448465851e+000,
          -3.1550315881742530e-001, -4.0137117292035362e-001,
          -2.1086852156873864e-001, 1.2177492446923925e+000,
          1.4414829913570060e-001, 2.1404293526712195e+000,
          -1.8770894161825007e+000, -4.5657909300851413e-001,
          -5.6502438164667856e-001, 5.8577391592235240e-001,
          4.7690265871158921e-001, -7.0155879648002650e-001,
          2.3573922251276216e-001, -1.3385623706213607e+000,
          2.8930029308663130e-001, -6.5308317126786641e-001,
          3.3674217961639824e-001, -9.7011697126958585e-001,
          1.0753019990616126e+000, 1.0196688415537367e+000,
          1.2175808010028097e+000, 4.0042848917651613e-001,
          -1.2053255480076034e+001, -3.6905786944780478e-001,
          1.1914376459256655e+000, -1.1005492719018248e+000,
          2.1306226815315030e+000, 1.9118996867242946e+000,
          -1.5379245018220016e+000, -1.4717602249713264e+000,
          -1.5512694708143662e+000, 3.3667495741000186e+000,
          1.2733542985211239e+000, 4.3446672396225327e-003,
          -1.8291592109836228e+000, -1.9866608237522339e+000,
          1.4659363660933182e+000, -1.5269063857342273e+000,
          -2.7499904262759434e+000, -2.3313383338573221e-001,
          3.7084851731425184e-001, 8.8017365647198398e-001,
          -1.1714663956939193e+000, 3.3672532786379112e+000,
          -2.5681678444580180e+000, -3.1890508949438514e+000,
          -3.8233690407306337e-001, 5.2007373467843621e-001,
          9.8259531857868787e-001, -1.0140337150143071e+000,
          -7.8771349805252744e-001, -9.8579349219816492e-001,
          2.2118496298523445e+000, 2.9936032750819791e-001,
          -3.9672493143601564e+000, 1.8373176605158099e+000,
          2.4149542811757101e+000, -7.7520439818355991e-001,
          -1.1657165160506442e+000, 2.1418119824975812e-001,
          2.6117607473043225e-001, 7.0734953893511754e-001,
          6.5992181584585052e-001, -1.0297788090940567e+000,
          -2.6424067799059719e-001, -7.4775119428044490e-001,
          1.0598724849574128e+000, -8.2701373656153254e-001,
          1.1752432372532659e-001, 1.8114506140451410e+000,
          -5.5672375659500040e-001, -1.8943093958739814e+000,
          -9.5362040984676391e+000, 9.2251345850534838e-001,
          -4.5982555917988299e-001, 1.0639604067410176e+000,
          -1.7568155348182357e+000, 1.7252112855848480e+000,
          1.6511272150128604e+000, -1.3679980829525114e+000,
          4.6553735128855145e-001, -6.8983967254349943e-001,
          -5.8450341016517882e-001, -1.0791011027752673e+000,
          -1.1752986873613402e+000, 6.8534544717488943e-001,
          -1.2571376652186710e+000, -7.3446284731846578e-001,
          -2.2042744016514302e+000, 5.6265750228402550e-002,
          -5.2898787083854337e-001, -1.4283138805480942e+000,
          1.6647902920001427e+000, -8.2308973129779028e-002,
          2.0743760513226164e+000, 5.5722470564828396e-002,
          -1.7063386574446420e+000, -2.6265976530158563e-001,
          1.3262016338227018e+000, -2.0101569513002304e+000,
          -8.9976317321359922e-001, -5.5552567340900284e-002,
          1.2283039342483666e-001, 7.1853557611028657e-002,
          2.6949298144459681e+000, 1.4443716870152754e+000,
          -1.1257203848089095e+000, 2.7337954479761017e-001,
          1.0291567275040465e+000, 2.3489145553004806e-001,
          -1.8490716675105554e+000, 5.6140858347666356e-001,
          8.7232843289215256e-001, -3.5128847980931710e-001,
          1.0359503043879255e+000, -1.5499195688827481e+000,
          5.3460105927748947e-001, -9.7741199450684380e-001,
          2.1286121470688721e-001, 3.8900593666646692e+000,
          -2.6182243240482306e+000, -6.8818034069933298e-001,
          -6.5500555834933563e+000, 1.3266595001410673e+000,
          -2.5318128883330026e-002, 1.2274208936174835e-001,
          1.8498967704204035e+000, 4.8904473658875602e+000,
          8.9454368961951780e-001, -2.5269594757357376e+000,
          3.9440858812102259e-001, 1.2746379892503865e-001,
          1.1134650040289722e+000, 7.5334572164149916e-001,
          1.7819748222644876e+000, -3.8870111906950566e-001,
          1.1402423518730969e+000, -1.8549053475652284e+000,
          4.5738004260856413e-001, 5.6280570129105989e-001,
          1.0256710377151690e+000, 2.4433479003811400e+000,
          -1.2073038845618669e+000, 3.0506828175074654e+000,
          3.3810896681657865e+000, -2.7723445032129179e-001,
          -1.2199123622174706e+000, -4.4033418313239991e-001,
          4.2538350404687264e-001, 8.6199933487934310e-003,
          -2.2941613030525390e+000, -1.1803886052006174e+000,
          2.8845254749181564e+000, 4.4373456289497565e-001,
          2.6444750144222890e+000, 7.6733638872880983e-002,
          -1.9923753557307347e-001, -1.8642759622852871e+000,
          -3.5878415289336343e+000, -2.1375952497369748e+000,
          7.8665237404568744e-001, 3.7712416059422338e-001,
          -1.7219265294443591e+000, -2.0983652989577073e+000,
          -2.6262911991514559e-001, -1.6541603804554323e+000,
          2.3686196281855876e-001, -7.3974666553948087e-001,
          1.2396226015511211e+000, -8.6212752523749181e-001,
          -3.0210813198253903e+000, 1.1835271550847828e+000,
          -1.0470646709574389e+001, 4.7085888227220052e-001,
          -8.4755223984875183e-001, -4.0725304810697238e-001,
          1.0131901909658982e+000, 1.5066331697386162e+000,
          -2.6556455743531160e-001, 1.1439163841967239e+000,
          3.8037718294326385e-003, -7.1840746772778175e-001,
          1.1695436199421585e+000, -3.1930359362145361e-001,
          1.2443110633717758e+000, -2.9574408628050641e-001,
          8.4834455133260345e-001, -3.3505989137281991e+000,
          -8.6301099626005318e-001, 1.3249849538017129e+000,
          6.8539563045387253e-001, 3.1073792659698601e-001,
          -7.6021809975258492e-001, 4.7804753942893035e+000,
          1.6618626632680419e-001, -8.1378092228241417e-001,
          1.9573779674662267e-001, 2.1838067634440914e-001,
          8.4389711700246006e-001, 2.3717004016700174e+000,
          -6.1532517344623783e-001, -1.5598576844846808e+000,
          -4.0164811360578379e-001, -1.1091791409024959e-001,
          -1.3899325299317000e+000, -2.0703547689340987e-001,
          1.7160668743551484e+000, 1.3832490158756869e+000,
          -6.0395192730875746e-001, 5.7525359953708244e-001,
          7.5037023133888670e-001, -5.7068259899141083e-001,
          -6.9707185386547132e-001, -2.3932304563326663e+000,
          -1.1148313558597112e+000, -1.2722424200920879e+000,
          7.5489001919386023e-001, 1.5624029419113780e-001,
          -7.1220003561080769e-001, 5.1388413597354610e-001,
          7.7273358111986434e-001, -1.8231734092895440e+000,
          -3.2341605683786687e+000, -1.2650175705709470e+000,
          2.0727573198086213e-001, -9.7963884097853293e-001,
          -6.5610677734347544e-001, -7.3361177607119576e-001,
          -2.1349795135453005e+000, -1.3398658183140277e+000,
          -7.3098388037916340e-001, 1.1308879885146830e+000,
          -8.1177222700577090e-001, 1.3272476507570028e+000,
          2.2309075240311795e+000, 4.3323989371312449e-001,
          -1.1426526783769897e+000, 4.0913145526730932e-001,
          -2.5891332492427463e+000, -1.4849218877337331e-001,
          3.5896732456426345e-001, 8.3921572840430825e-001,
          -2.3488630689838428e+000, 3.5448694350245487e+000,
          -1.3437698613176872e+000, 5.1556177881382115e-002,
          2.8104639006838625e+000, 9.6100578212969501e-001,
          5.4364444804506007e-001, 7.8871965257141102e-002,
          2.6208997009840779e-001, -1.3920780452296040e+000,
          2.5873567074645925e+000, 9.6790309465687785e-001,
          -3.6880712493082135e+000, 3.7340632623601822e-001,
          1.7920859529221678e+000, 3.1558938380709234e-001,
          2.6763996683529681e+000, 1.0781021930128218e+000,
          1.2033101164525066e+000, -9.6004931609288124e-001,
          4.0669590170052500e-001, 1.3614948613062445e+000,
          1.8996375551299985e-001, -5.9412690147085847e+000,
          -1.1671039054056336e+000, 1.5347567066870154e+000,
          -1.9723830529623551e-001, -3.8903977837393633e+000,
          4.9081147482945897e-001, -1.6855254814924840e+000,
          -9.8567957853647687e+000, 8.2125870450566640e-001,
          7.8739139593061525e-001, 5.5233986210731467e-001,
          1.6786483725765095e-001, 1.4837393795830824e+000,
          8.3604947268586804e-002, -1.2068067664375897e+000,
          -7.5499083063268779e-001, -2.0089630214141554e+000,
          -4.8261027509476234e-001, -3.9087664612914019e-001,
          2.5771729579868458e-001, 2.0549737372439543e+000,
          -6.9150199085515418e-001, 5.1254772487433986e-001,
          -1.5428424103235641e+000, 6.1569311577078945e-001,
          -1.7476322974781604e+000, -1.1690326969977538e+000,
          7.1647379258570287e-001, 1.2471774783277834e+000,
          -5.0390818387085501e-001, 9.9110779864288856e-001,
          4.4502901613625873e-001, -2.7814723147445725e-001,
          -8.2403112024516534e-001, -2.4910288766454198e+000,
          -1.1019678969553013e+000, -1.1639264768788564e+000,
          -5.9613419588172978e-001, 1.4229326621943248e+000,
          9.5543993277822969e-001, 7.7968093453790710e-001,
          -3.6891532548029513e+000, -3.5682363812504081e-001,
          -1.0640691598478784e+000, 9.6872172745828888e-001,
          4.9590836039119401e-001, -3.5562143672062174e-001,
          4.2042032205400320e-001, -3.1438169415028291e-002,
          9.7340732771815242e-001, -1.9172923919920091e+000,
          -5.3459878868401467e-001, -7.6366083470264703e-002,
          -8.8201489296625168e-001, -2.2852698149595718e+000,
          -4.5978006805525945e-001, -1.8794546275761874e+000,
          -9.8657037132021195e+000, 3.9093168308318976e-001,
          6.1518663777469751e-001, -8.3804920914471204e-001,
          -2.2095265037971106e+000, 1.3691416965669625e+000,
          -1.7269974676447189e-001, -7.9895944297448507e-001,
          -3.4018520888097115e-001, -1.2011539873348780e+000,
          8.0142022024544735e-001, -5.9960383871274181e-001,
          1.2990196432768832e+000, 1.8967577931659545e+000,
          9.5960581423612767e-001, -2.4533714512160643e-001,
          3.8771474411761325e-001, -1.6704315871743063e+000,
          -1.4128053928523325e+000, -1.2065933178630266e+000,
          -1.4179502096397906e-001, 2.1482362695605950e+000,
          3.3238246519336323e-001, 1.4832711098165756e+000,
          2.7851698800254804e-001, 7.4223059883722797e-001,
          -1.2692440169678478e+000, -1.5560465499598022e+000,
          -1.6210812147341265e+000, 1.0539544106435858e-001,
          9.1142348629271264e-001, 2.2339269418136172e+000,
          -5.3592726304359117e-001, -7.7553129327104786e-001,
          -1.3875821581885515e+000, 5.5445912539019337e-001,
          2.3048485676333746e-001, 7.5466794857593777e-001,
          4.6722771171854266e-001, -9.0208885919213899e-001,
          -5.6382686782719238e-001, -7.5453371353346110e-001,
          5.0389756888879411e-001, 1.0715400231648973e+000,
          3.5222703846561010e-001, 7.2288775256720206e-001,
          -1.2472644423579256e+000, 2.8892173863525344e-001,
          -1.4816357197055519e+000, -2.0320072026887108e+000,
          -9.7640404777545236e+000, 4.9171237150857583e-001,
          8.3835364570813853e-001, -7.5916635655930320e-001,
          -1.9242236736735621e+000, -1.3979812057984884e+000,
          1.6922475718897537e-001, -1.7299565194664870e+000,
          8.5986614261404926e-001, -3.1692838608839233e+000,
          1.4197669730018372e+000, 9.1309643450735423e-001,
          3.4651295793226961e-001, 1.3634544631878376e+000,
          -9.5085701975339987e-001, -1.1627154927588952e+000,
          -1.0111356397219271e+000, -1.6229328762529457e-002,
          -1.6023362081131420e+000, 2.1593000030616296e+000,
          8.0449789537381999e-001, 4.7190928148629874e-001,
          6.0708123820386217e-001, 8.4124448954518771e-001,
          -4.7615381335163426e-001, 4.4617146220434262e-001,
          -1.0524504369936723e-001, -2.0441149394022591e+000,
          2.3727620788999042e+000, -3.0610147122262121e-001,
          -1.7786931922320834e+000, 3.1761403941125715e-001,
          6.9622133371814587e-001, 2.9045893528172095e-001,
          -4.3591066243383880e-001, -2.0658227607023977e-001,
          8.9013196493604696e-001, -3.3066900425242030e-001,
          1.6755450961637044e+000, 5.7988222777743637e-001,
          -2.5708700534310741e-001, -1.9604377160864195e-001,
          1.0158699748773234e+000, -4.2304199801074283e-001,
          5.4830721850971653e-001, 4.9205695868322641e-001,
          7.8910994513055374e-002, 5.2792542932235731e-001,
          6.1762429526664497e-002, -1.2615285893851973e+000,
          -9.3629634272640381e+000, -7.7960697216605879e-001,
          8.9543063928590394e-001, 8.4374220226349783e-001,
          -1.1738832142815579e-001, 6.3115461418269347e-001,
          -2.3613933430667167e-001, -1.4591601780846410e+000,
          -6.7795941982224772e-001, -3.8681785984450499e+000,
          8.2975679914947054e-001, 3.4040067857146161e-001,
          8.6479168375305016e-001, 2.0045974886223954e+000,
          -4.8871577724593940e-001, -1.2713691131550833e+000,
          7.5939151296595120e-001, -3.4720396311355683e-001,
          -1.2299647334354240e+000, -9.1479753538129560e-001,
          -8.8439996346909822e-001, 2.5577694523612351e+000,
          1.5455696267214411e-001, 2.4721178438817576e-001,
          -4.9690287597039123e-001, 3.6189360157972444e-001,
          1.7826304089069087e-001, 2.5369890527368372e-001,
          6.1771250592051852e-001, -3.8754735212952085e-001,
          -9.6102706970838236e-001, -1.3335863926138661e-001,
          -2.5570774456254364e-001, -1.4070259894531294e+000,
          -2.4452757921641921e+000, -2.7979559393861153e-001,
          9.6081692014795850e-001, 1.6176835339146028e-001,
          -1.4387225150071478e-001, 8.8389813273273110e-001,
          2.5561809900799613e-002, 6.2611781910239792e-002,
          5.6133061580821975e-001, 8.0817975633381792e-002,
          3.6052081621678250e-001, 4.2863358938020013e-001,
          -2.7398194673933678e+000, -2.7564705951820023e-001,
          9.4819769597355652e-001, -2.9010871709872543e-001,
          -2.9407133770203848e+000, -8.0734203732356469e-001,
          1.0200744595564242e+000, 3.5272979794092135e-001,
          -1.0771122143614831e-001, -1.0666198240030476e+000,
          1.7067221533233246e+000, -2.3665158783910014e+000,
          -8.2257165015173672e-001, 1.6363136978392279e+000,
          -5.3655190641751815e-001, -1.4918077967710455e+000,
          1.7471704268899346e+000, -1.9099722399105119e+000,
          3.8713926146880318e-001, 2.1296007925508223e-001,
          1.8719637702422027e+000, -2.0504284198669445e+000,
          1.0266190263638986e+000, -8.8548282343275031e-001,
          -1.7627616007559093e+000, 2.4968771306569502e+000,
          4.3684273579898802e-001, 9.7262145595875715e-001,
          5.3284623009372645e-001, -1.2517689747510070e+000,
          -4.3510481519441668e-001, -2.0003033931626080e+000,
          -5.6706738269378832e-004, 1.0990704538209701e+000,
          2.0124939872708687e+000, 3.8109323510180060e+000,
          2.3153533626889882e+000, -3.9255360968549097e-001,
          -2.0375295504878374e-001, 1.1840237884016886e+000,
          -6.2977663053939059e-001, 5.1163677769211857e-001,
          4.7388747744022158e-002, -5.2155970016507626e-003,
          -1.1187904815698668e+000, 1.1348305658432032e+000,
          7.4521033680095716e-001, 7.4887458328124801e-001,
          1.3985456269966487e+000, -1.4469449046372944e+000,
          -1.7530119853712007e+000, 1.0872562374325330e+000,
          1.1658168750037465e+000, 7.8545157057142623e-001,
          4.0687668190953534e+000, -5.6439851042710476e-001,
          1.2758851736732302e+000, 1.8313818081702815e+000,
          -1.4096681083576140e-001, 2.3295121541897065e-001,
          -4.1295817886522651e-001, 1.1151949118166711e+000,
          2.8877094739508433e-002, -1.2658285552056692e+000,
          -9.1048375428191430e-001, 3.0568997219665811e-001,
          -5.9507940691196692e-001, 1.1561511053117082e+000,
          6.6049862643420798e-001, 6.7496760462543337e-001,
          2.5649615526940135e+000, -1.7079413200768365e+000,
          -1.3693726771189616e+000, 2.2793210390811111e-001,
          -7.1944319496733111e-001, 2.9918023035140839e-001,
          1.0358872244178772e+000, -3.6078826652674373e-001,
          -2.7396167581023936e+000, 1.0920870126904543e+000,
          -1.0387764801149717e+000, 2.7679539816962501e-001,
          5.3683479001149648e-001, 8.1702723538510758e-001,
          -1.3251107307678374e+000, -9.0311898923728784e-001,
          3.7259660962068814e-001, 1.0141199167304462e-002,
          1.9913879973346660e+000, 1.1820785956653688e+000,
          -1.5644434076075200e-001, 1.6856369331933685e+000,
          -4.6324329618330284e-001, 1.2003823653003496e+000,
          2.3814660568180365e-001, 6.4805246974684783e-001,
          -2.8760555810861127e-001, -1.7145154511189249e+000,
          -2.0302179872175339e+000, 4.0583431364930200e-001,
          9.9583229432434550e-001, 1.3076167417538958e+000,
          7.1207961584466251e-001, 1.0948381675425716e+000,
          -3.4094621998214003e+000, 1.7802158053078965e-001,
          2.5163236346681837e+000, -1.5680454125472019e+000,
          -2.0490371176653759e+000, -1.6658340078255451e+000,
          -1.6206422871050374e+000, -2.4709068206968934e+000,
          -7.2750248247553928e-001, -1.0665978990530478e+000,
          -3.4479274942490873e-001, 1.5089918031081391e+000,
          1.4106324572330440e+000, -4.0633524991567227e-001,
          5.9257837284219628e-001, -4.5308935793823757e-001,
          3.4205560199419838e-001, 3.2555210895649256e-001,
          -9.6938125964895117e-001, -2.5124466591026775e+000,
          2.8820545205011703e+000, -1.6952818259653499e+000,
          1.6658616427265869e+000, -1.8322987578281336e-001,
          -1.8043156834277441e+000, -2.4525683209112916e+000,
          2.7509464851193564e-002, -1.4811687767439130e+000,
          1.1572082168469575e+000, -8.0534255731032756e-001,
          -1.2503432657837663e+000, 1.7091854199287664e+000,
          6.2102838228533896e-001, 7.5893327557232748e-001,
          -9.1266190982707773e-002, -4.0258419431479470e-001,
          7.1427644315550232e-001, 6.7915168920644164e-001,
          1.2848245004562892e-001, 2.6949361822489754e-001,
          -6.6345824918986968e-002, 3.5147813144344031e-001,
          1.2051225427813219e+000, -1.1341675714170329e+000,
          6.3408853835678336e-001, 8.0023182420970329e-001,
          -2.0452403950967926e-001, 2.1843816049602407e+000,
          -1.6986241969017692e+000, -1.7292613646136719e+000,
          -3.5841613747666812e+000, -3.3116957334822134e-001,
          8.7108005081662832e-001, 1.0730689971293261e+000,
          1.3085614927910294e+000, 1.5774069965181405e+000,
          -7.8867006319140498e-001, -1.4333731896523505e+000,
          -8.9894010702008686e-001, 5.5641958182621198e-001,
          -7.2336590329476619e-002, 6.1001279538335973e-001,
          -3.6124292818840616e-002, -1.4422461141179115e+000,
          4.3248206853000826e-001, -1.6970581591010623e+000,
          4.2934119424757755e-001, -4.2550987688445729e-001,
          7.9549556263433485e-001, 4.1377059707495722e-002,
          2.8961925724743733e+000, -6.0602852397481499e-001,
          2.7713922591231519e+000, 9.3372146425210101e-001,
          -1.6092924461782512e+000, 1.2803121948054996e+000,
          1.0603814634626030e+000, -1.5635137967584711e+000,
          1.1289657137612084e+000, -7.4065233204492409e-001,
          2.5729895336781605e-001, 1.6486758819336229e+000,
          1.5035166081514142e+000, 1.6964036183821782e+000,
          -1.7199852235273361e+000, 2.1028248977870101e-001,
          1.6557723978163139e+000, 1.7464655741817350e-001,
          -1.1457204270187025e+000, 4.0683411551243262e-002,
          -2.8294406652064663e-001, -2.3584450430681911e-001,
          7.0201203644045074e-001, -2.4106637287605119e+000,
          1.2383743493364683e+000, 3.6000409836795988e-001,
          -2.4746024869479838e-001, 5.4456944395320594e-001,
          9.1167678002449326e-001, -3.8256064360066699e-001,
          -2.8582940075820978e-001, -4.5931651437983617e-001,
          -1.3289804631638819e-001, 4.2396711887753452e-001,
          -2.7672230490525856e-001, 3.9029290878927503e-001,
          -7.2531657349259460e-001, 1.5541402985930020e-001,
          -5.1525625348633941e-001, -1.9121775239313152e+000,
          1.3505019958618960e+000, 1.3231242902789071e+000,
          -8.3755517376876076e-001, 2.3153570897786384e+000,
          1.1613197360106440e+000, -2.7954196186236929e-001,
          8.4632311718875386e-001, -1.4499337806748895e+000,
          -1.0355775923073725e+000, -2.6855411229766279e-001,
          9.5239148834271259e-001, -7.7002938198636706e-001,
          1.3908873031825000e+000, 1.4305159106966845e+000,
          -1.3137497327030276e+000, 6.8767123053182211e-001,
          1.1355024870201276e+000, -2.4960377836310255e-003,
          -2.1300955104834407e+000, -1.3791559566493417e-001,
          -4.6408726259247957e-001, -2.5697198478152211e-001,
          3.8551763361917768e-001, 5.6404009982648673e-001,
          -1.5470663357345769e+000, -2.2677144669799848e-001,
          -1.3966049819577375e+000, 1.9287348777872606e-002,
          -9.6203711511301226e-001, 6.1781395445564347e-001,
          5.5689768722391308e-001, 5.9186098428932865e-001,
          4.0420053957699043e-001, 5.5758873355869099e-001,
          4.8406916792163196e-001, -2.4767808887590070e-001,
          -3.9035227885166085e-001, -1.9703937551234791e+000,
          -2.5121268511936239e+000, -1.4730550595621157e+000,
          -2.5314944933133310e+000, 3.1466111492945981e-001,
          1.6200029720928293e+000, -5.5353717553631865e-001,
          1.1724914848809143e+000, -1.6932687942269049e+000,
          1.1259778504227640e+000, -4.7067897058473021e+000,
          -1.9224890501967566e+000, 6.3136580475228743e-001,
          -5.9611856071463620e-001, -1.7997331047138108e+000,
          1.5999100416641954e-001, 4.0978445145245435e-001,
          1.5773729235634254e-001, 2.3825333546893779e-001,
          -1.0001669502680602e-001, 5.9153676394421340e-001,
          -7.7715185654803309e-001, -2.0520106540060676e+000,
          2.5771709019057503e+000, -5.0878256544930911e-001,
          1.5429346565776276e+000, 9.9727063691385578e-002,
          -8.0949417235308818e-001, -8.4188900460116889e-001,
          -3.3220388230421088e-001, -4.2215446482390950e+000,
          -1.9685684483191488e+000, -8.7773512148011545e-001,
          -6.4624956006394485e-001, 2.8655920648694964e+000,
          7.7525750810774374e-001, 1.4337226553846050e+000,
          -1.9864185528607914e+000, 2.1478887320350606e-001,
          -1.7690800690460671e+000, -6.0372008431759538e-001,
          -6.1913147819524583e-001, -5.0223651985502571e-001,
          -7.7190869940583584e-001, 2.7288204616402800e-001,
          -1.2261535293327654e-001, -2.4870852758632154e+000,
          1.9147087515173162e+000, -6.5482102099396233e-001,
          -1.0663730254596298e+000, 1.4337084216339959e+000,
          -4.1911724293988524e+000, -5.9234195759904984e-001,
          -3.2950366912009805e+000, -2.7527193682154294e-001,
          -8.6469854013250649e-002, 2.5944954308240020e+000,
          4.8270884172624713e-002, -1.7208777595046714e+000,
          9.2068347652191251e-001, -2.3716928624008204e+000,
          -2.2608477721764957e+000, -1.0978249519656889e+000,
          -5.1465609146370350e-001, -2.6648030027555736e+000,
          -3.0073597548066605e-001, -8.0677951775447143e-001,
          2.5738619559074758e+000, -8.9395676045864236e-001,
          -4.4354444256703046e-001, 1.5844000187064882e+000,
          -4.4245307597438094e-001, -2.0996781146019172e+000,
          2.8689252231819800e+000, -1.2514488293738026e+000,
          1.9475415919542558e+000, 2.6960691240171736e-001,
          7.5623533311515301e-001, 1.5818895252978293e-001,
          -1.3886030679825916e+000, -1.9810336156562340e+000,
          -2.5120154798570864e+000, -1.3043066785598008e+000,
          6.1331280703487001e-001, 3.3183651403834662e+000,
          4.6562061174063979e-001, 2.2674497808943378e-001,
          -6.4847134199507050e-001, -1.4971751616183562e+000,
          4.6033487618379487e+000, -4.9938157978847264e-002,
          -1.1101284529789148e+000, 9.5408053724971820e-001,
          1.7199137826928113e-001, 3.2726269133673108e-001,
          -1.8601965109241028e-001, -6.4925082614800367e-001,
          2.3726193283699024e-001, -1.2056120196610345e+000,
          -1.0063444669026398e+000, 3.4203678184198885e+000,
          -3.0257576798677106e+000, -1.5264421352066296e-001,
          -1.6077745600438020e-001, -1.5957445119203615e+000,
          -4.1947024818469542e-001, 1.2727902575111221e+000,
          6.4909354923301132e-001, 2.4702410252185505e+000,
          -2.5431197456595472e-001, 1.0508297894942815e+000,
          -1.1783256596970182e+000, 2.9421391043230418e+000,
          5.8436912696405829e-001, 9.6578562356428099e-001,
          4.5050702156880309e+000, -9.1079695071393585e-001,
          1.6863109328751236e+000, -6.5945030094144441e-001,
          1.5243236006078982e+000, 2.2806989041288347e-001,
          1.9268762805075152e+000, 3.0051966496036864e-001,
          1.7340104659010034e+000, 3.4916009639696433e-001,
          2.0320224071352904e+000, -1.5847051812454532e-001,
          -2.0806745172643502e+000, -2.6384537277282957e-002,
          2.9718372118314762e+000, -4.3451710390680027e+000,
          2.1618063816541747e-001, 7.6256043110307981e-002,
          -1.1446563251679112e+000, 3.6472762936935141e+000,
          -5.1976607060388418e-003, -7.6182246835525769e-001,
          -1.1182122871683822e+000, -3.1633110316199714e-001,
          -3.1263134060527131e-001, 1.4023696039319442e+000,
          -1.9717957908614614e+000, 3.5075943440033186e-001,
          1.3021319173665642e+000, -1.0319880444815704e-001,
          6.2163998706390278e-001, -4.2427863451441716e+000,
          -4.2378440379014243e-001, -8.9704824405600092e-001,
          -4.1726403890364056e-001, 5.1317793468850317e+000,
          -2.4939761408904948e+000, 5.8695423605387675e-001,
          2.3795065089079714e+000, -1.2264227731074349e+000,
          -7.5510720877803772e-001, -1.7379105089224989e+000,
          -3.0401416362160569e-002, -2.3944313217044622e+000,
          -1.1659049668915679e-001, 1.1288060625019756e+000,
          3.4501021702561047e-001, -1.0569372745754448e+000,
          -2.3630460014505858e-001, 1.1317406434832604e+000,
          6.2822726397876205e-001, -2.1566328749828040e-001,
          -2.3706686588554957e+000, 1.3039344437339714e-001,
          9.4678842844429623e-001, -9.5921860912421761e-002,
          3.4918018386475924e-001, -5.3670843100202281e-001,
          6.1291621504037286e-001, -1.7654489847543986e+000,
          2.2381963578386022e+000, 4.4437966185385724e-001,
          -2.0808344861288468e+000, -2.3247152860993095e-001,
          1.0647380529966006e+000, 1.6566138860723141e+000,
          8.2718218257247178e-001, 4.8189669848941885e-001,
          -1.2384132181337475e+000, -1.4656897545511585e+000,
          -9.5866974069354807e-002, -1.4151725231152582e-001,
          -1.1151487300985390e+000, -7.2445725189052590e-001,
          -2.2345274154863985e+000, -1.1881627567501331e-002,
          -1.3158751043896313e+000, -1.0166838051044842e+000,
          5.7718730802606599e-001, 4.3770307731693575e-001,
          2.4418033570252801e-001, -3.4584196444930635e+000,
          -5.4315286084047221e-001, -8.6568901774074211e-002,
          1.8696194185639250e+000, -1.7271678281345921e+000,
          2.8113022823993710e+000, 2.5024736736013181e-001,
          -3.3853866311870249e+000, 3.4587446742166883e-001,
          9.1003499312363123e-001, 7.1790164347152419e-001,
          -1.4143765562578319e+000, 2.9358372959348387e+000,
          1.2448079996383581e+000, -2.1783949922598791e+000,
          9.5488654373440063e-002, -1.4056212400733883e+000,
          -1.6265315784724031e-002, 7.6007792712364652e-001,
          -1.5109064153423517e+000, -2.4895319937691601e-001,
          -5.5470179218731386e-001, -6.5007444721227603e-001,
          3.2096104807843040e-001, -1.7731546271426304e-001,
          -7.5907243304326033e-001, -3.0208037017290232e+000,
          3.4410447129639623e+000, -7.4621349170125875e-002,
          1.2839471100997206e+000, 1.3954934465899640e+000,
          -7.2464367906949689e-001, -1.6619635752425530e+000,
          1.9942610870742106e+000, 9.5833432119670570e-001,
          7.8443276856363253e-001, -1.2132724434088997e+000,
          2.3841655078917889e-001, -5.2057517580489254e-001,
          5.5716695550775364e-001, 1.7354931628092125e+000,
          -2.4171660950219764e+000, -7.9362028955021438e-002,
          1.3382198552332886e-001, -1.4293150176210325e+000,
          -1.2350281421821503e+000, -1.1251917939612246e+000,
          -5.8437959293333663e-001, 6.2012541237458063e-001,
          1.6829913360945989e-001, -2.2962464212630085e+000,
          7.7484671369740643e-001, 1.7398531646194124e-001,
          -1.7677958899554302e+000, -7.7075051565331076e-001,
          -3.8948060948750816e+000, -1.3270043210676126e+000,
          -2.8152237111244940e+000, 8.2249454712192627e-001,
          1.3280612589913035e+000, -6.8025125445656698e-001,
          -7.7253709892879796e-001, -1.4148579845654263e+000,
          -1.3129521186515650e-001, -4.7722550637038313e-001,
          -1.5867149821573893e-002, -1.9913049336029073e-001,
          2.7507331096364668e-001, -4.0425793889226758e-001,
          5.4217941233916926e-002, -1.3746441235712539e+000,
          1.8406647452306206e+000, -8.5692013077248985e-001,
          2.1834993708025512e+000, -1.1781114627117555e-001,
          1.7014895660338225e+000, -8.6841263466416324e-002,
          3.2610547855275795e+000, 3.9809791400352706e-001,
          2.8429568263735536e+000, 1.3215101284241382e+000,
          -1.3611501976936751e+000, -2.6665565516544203e+000,
          -1.5710047320493561e+000, 2.3561420098889518e-001,
          2.2767413535090228e-001, -3.7878720160837365e-001,
          6.0522199972198487e-001, 3.3129125349836802e-001,
          -3.0730909866387301e-001, 6.7600301075181979e-001,
          -3.3419486020466088e-001, -5.9197454074031397e-001,
          -1.0023245318602914e+000, -6.5873860447247634e-002,
          2.8117771409111697e-001, 5.2442109347909958e-002,
          -1.1732291680861819e+000, 1.1191335193539462e-001,
          1.0322556860314569e+000, -1.7633252119274337e-001,
          1.0885275645366963e+000, 1.6363670156018266e+000,
          -1.1385077113810369e+000, 7.6503233392548431e-001,
          5.7892706708046748e-001, 3.8123122589383379e-001,
          4.2126223209902325e-001, -9.0455525533456371e-001,
          1.3286488469921918e+000, -1.8951102768029549e+000,
          -9.5220371811782167e-001, 2.0857080661743610e-001,
          9.3036445538881363e-001, -8.7853583973189009e-001,
          3.4789754868675071e-001, -1.7178131057116479e+000,
          -9.0687909939457612e-001, 7.3364803195079664e-001,
          8.3250697482827252e-001, 1.8865741188089249e-001,
          -8.0804060169842118e-001, 5.3838796198514693e-001,
          -4.4647484268033155e-001, -1.0690419294752789e+000,
          -1.2641510903117901e+000, -6.7556894727460093e-001,
          3.4533629143726987e+000, -1.8884037191836813e+000,
          4.0764436430738149e+000, -6.8474258263325394e-001,
          -1.9067131317741631e-001, 1.7474551391066708e+000,
          6.0502829566501115e-001, 2.3546376083140869e-001,
          -4.1655617444310289e-001, -7.1835229163708492e-001,
          5.6768201732411550e-001, 1.4284605834467876e-001,
          -6.5264612020691182e-001, 1.0339557811255380e+000,
          -2.1601193714695510e+000, -9.4806067850302911e-001,
          -1.7202916191305706e+000, -1.0529467122840119e+000,
          -1.1975646666781312e+000, -4.4042669105457849e-001,
          -2.1477978246366489e-001, -3.3841506831621335e-002,
          -1.1241221500110293e-001, -2.1357079415289160e-001,
          3.5854946868445603e-001, -2.0450071012416601e-001,
          3.1286702009238376e-001, -2.3612780363896269e+000,
          2.2687329215692773e+000, -3.1782760984777825e-001,
          -1.9818615701075550e+000, 2.5262950946746171e-001,
          -3.2572249933613441e-002, 8.7862626581855441e-001,
          3.0692662481883942e-001, 1.0472280146127608e+000,
          7.6572104178501099e-001, -1.2937851638117144e+000,
          -7.6006160037039328e-001, 7.9388269003751261e-002,
          2.5424181090469990e-002, -2.7041070906978554e-001,
          -1.3521293955847811e+000, -1.1623442362785370e+000,
          -1.7036117266215218e+000, -5.6090130390704473e-001,
          1.9770801314534490e+000, -2.5606256709215247e-001,
          8.4432820658306218e-001, -2.1835497440124230e+000,
          2.0673333268406169e+000, 8.8296880529048183e-001,
          2.6077297669844230e+000, 1.4436701954483064e+000,
          -1.3331189709804685e+000, 2.3436263298567597e+000,
          5.1345959446211364e-001, 1.6038883161409836e+000,
          3.9703282140118840e-001, -4.1433711139469309e-001,
          1.3204060736352798e+000, 2.2447673727943855e+000,
          -4.2091820699946142e-001, -4.8394964306457627e-001,
          -1.3433662793847283e+000, -7.5733119385366821e-001,
          3.0921207063165562e-001, 9.5375526617630935e-001,
          -2.8695261389007170e-002, -1.8486297346866254e-001,
          -1.2734231288240760e+000, 1.2981709102082828e+000,
          -2.0273364649176379e-001, -3.1699505220889590e-001,
          8.6610191032134365e-001, -6.9875944896250153e-001,
          -2.1440255948245719e+000, -1.1356000058019913e+000,
          -1.7808400867297136e+000, -4.6480188384413845e-001,
          1.7824324797001250e+000, 1.3422313481874912e-001,
          -8.1281628273013229e-001, -8.9725704736388812e-001,
          4.9143191164075684e-001, -1.6627683272934894e+000,
          6.6491648899583056e-001, -1.6744712812411078e+000,
          -2.8562262567748586e-002, 1.8912264074958646e-001,
          2.4578489898019948e-001, -4.6681169646041853e-001,
          3.3220147848238879e-001, -1.9115179042645936e+000,
          1.6386396184879215e+000, 5.6975195228485431e-001,
          -3.1239031286512260e+000, 1.4748871125213896e+000,
          -5.9503926617937175e-001, 3.2271401506919304e+000,
          -1.5709158072002880e+000, 8.2653475679640473e-002,
          1.6916862403230684e+000, 7.9093368867934655e-001,
          1.1311104949883395e+000, 2.5706269591983864e+000,
          -1.6631366369980232e+000, -1.3303553864867883e+000,
          7.5900969403902327e-002, -4.0659133193406327e-001,
          3.0537522729334894e+000, 1.5435541583735053e+000,
          1.0637257188211695e+000, -1.4239388325490587e+000,
          -7.7312257694890518e-001, 6.9035658763860375e-001,
          1.2057534093462821e+000, -2.0422813181570679e-001,
          -2.3273665879806127e-001, 1.6773313359244483e-002,
          1.4151104696654064e+000, 5.9196000169459717e-001,
          -1.0523686889737354e+000, 3.8597723176999343e-001,
          1.4917832910707138e+000, -2.4895228561337874e+000,
          -6.9226807499192755e-001, 3.0506309653811678e+000,
          -4.7368638860302881e-001, -8.7552136981555270e-002,
          7.4996907093480454e+000, -9.1267936952667805e-001,
          -2.0582125705241117e+000, -1.7215128143614680e+000,
          7.1123881800839373e-001, -6.8961065317832948e-001,
          -1.3495341786515185e+000, -2.7147733931787643e+000,
          -1.0232022263059402e+000, -1.0103241511658352e+000,
          -2.2746641914412349e-001, 6.9397873666798326e-001,
          -3.8099340994352913e+000, 3.3831683574701161e+000,
          1.5891008791963007e-001, -5.1895003116796214e-002,
          -2.7751065592901121e+000, 1.3828762171495947e+000,
          -3.0738071234889262e+000, 1.4167583168497433e+000,
          -4.6034808571615375e+000, -1.1504294898348288e+000,
          -5.6217385245832385e-001, 4.3461021418491869e-001,
          9.2065156241324686e-001, 2.7761933392380778e-001,
          9.4564926602827704e-001, 6.0339300871724111e-001,
