%YAML:1.0
mlp: !!opencv-ml-ann-mlp
   layer_sizes: !!opencv-matrix
      rows: 1
      cols: 3
      dt: i
      data: [ 544, 50, 5 ]
   activation_function: SIGMOID_SYM
   f_param1: 5.9999999999999998e-001
   f_param2: 1.
   min_val: -9.4999999999999996e-001
   max_val: 9.4999999999999996e-001
   min_val1: -9.7999999999999998e-001
   max_val1: 9.7999999999999998e-001
   training_params:
      train_method: BACKPROP
      dw_scale: 1.0000000000000001e-001
      moment_scale: 1.0000000000000001e-001
      term_criteria: { epsilon:2.2204460492503131e-016, iterations:1000 }
   input_scale: [ 1.6613397412764872e+000, -1.6502309676839599e+000,
       1.4763997941497733e+000, -1.9728790567803691e+000,
       1.9132169927333529e+000, -1.9582877524851743e+000,
       1.5544392975827024e+000, -2.3056649079253231e+000,
       2.0282206581425850e+000, -4.0762168800239724e+000,
       1.4311650751166647e+000, -2.3842804728591123e+000,
       1.4352736764773730e+000, -2.7206002745953652e+000,
       1.9413411067528652e+000, -3.8558871662030443e+000,
       1.4533673203216995e+000, -2.3638915204143345e+000,
       1.4765065559784689e+000, -2.7477753634958515e+000,
       1.7053852125812996e+000, -3.6625902193166970e+000,
       1.7726438677924656e+000, -3.2849646400235950e+000,
       1.3602093448315138e+000, -2.5397867085807397e+000,
       1.3781708991076331e+000, -2.4954443095558587e+000,
       1.4190459435886704e+000, -2.6941885107257324e+000,
       1.4176598519573218e+000, -2.5604203515681170e+000,
       1.7268848050988606e+000, -2.0295131518034304e+000,
       2.0049555144973445e+000, -1.6063740329807519e+000,
       2.2924707838214000e+000, -5.0380650992244860e+000,
       1.9176951331837055e+000, -3.3370523756773167e+000,
       1.7450817536665610e+000, -4.0054609370152345e+000,
       1.8389221778022300e+000, -4.5391816097066755e+000,
       1.8343886633018263e+000, -3.8057312703970809e+000,
       2.2040942338422060e+000, -5.3587514118317916e+000,
       2.4432545254636446e+000, -6.1207224753940750e+000,
       1.7987720372349492e+000, -4.0852389448310440e+000,
       2.2343454866459265e+000, -3.0537829449916418e+000,
       1.8628354726579186e+000, -4.6088388287810815e+000,
       1.7019535700108026e+000, -4.0841297224135369e+000,
       1.8979359034462036e+000, -4.5647350650226901e+000,
       1.6609505968867120e+000, -3.9405336408694769e+000,
       1.4704887799200532e+000, -1.7781886950802588e+000,
       1.8731990345082734e+000, -3.8247284534784964e+000,
       1.7038244643587910e+000, -2.1321005476444221e+000,
       1.4048497275763354e+000, -2.2424676963116599e+000,
       1.3910438219700456e+000, -2.3889591338595548e+000,
       1.4326154891291578e+000, -2.0566614720874288e+000,
       1.6856928236320179e+000, -3.2942941190003143e+000,
       1.6246408763673672e+000, -3.3340082745476720e+000,
       1.4846542294136653e+000, -2.4387192236617379e+000,
       1.8805511293561723e+000, -2.1291005713111288e+000,
       1.3681286050133874e+000, -2.3986887190536903e+000,
       1.3835270286417698e+000, -2.3566624541861700e+000,
       1.3159007160803229e+000, -2.2397408907878682e+000,
       1.3808205762760848e+000, -2.3246266767969939e+000,
       1.9821568367053073e+000, -3.5381259765193160e+000,
       2.1505866342776372e+000, -4.5543861042631280e+000,
       1.8582075777265443e+000, -4.1620024775588078e+000,
       1.9444628731945155e+000, -4.7339324301016008e+000,
       2.4238247834210345e+000, -5.7996170256793036e+000,
       1.8675247282552798e+000, -3.9101991432828211e+000,
       1.8128057696053006e+000, -4.1488079005122422e+000,
       2.4901014996458199e+000, -6.2716890457432797e+000,
       2.4901324916087200e+000, -4.4357977411528831e+000,
       1.9510958446525055e+000, -4.5798533230881553e+000,
       1.7887424567403372e+000, -4.0998702796913946e+000,
       1.9910754813711220e+000, -4.7420072295236917e+000,
       1.9493380784233281e+000, -4.5502292525002241e+000,
       2.3451324016868491e+000, -4.7488607643842196e+000,
       3.8520352176881216e+000, -4.0692013012634156e+000,
       4.3303167193669134e+000, -4.5148216681042443e+000,
       3.6855684183633697e+000, -6.0584899564956158e+000,
       3.0989504246172666e+000, -1.7156506602125212e+000,
       4.0216378097478271e+000, -2.6585735121405527e+000,
       3.5710519835431711e+000, -5.2127233505740005e+000,
       3.1195611920207291e+000, -7.7226923511306742e+000,
       3.5760205562469110e+000, -3.5378479743376965e+000,
       3.7690449861232720e+000, -3.8274006682005464e+000,
       3.3571192729829846e+000, -3.7831304394829761e+000,
       3.4152205401021956e+000, -3.5779671002711080e+000,
       3.3857738652187153e+000, -3.8885071008570558e+000,
       3.7567424363877042e+000, -4.1199767468305888e+000,
       3.3160550424708437e+000, -1.9835397398671519e+000,
       3.4996911189121800e+000, -5.9916835653826945e+000,
       3.0929983994416030e+000, -4.6957173312681872e+000,
       3.3285662320753495e+000, -2.3718845932415564e+000,
       3.2583323096319874e+000, -1.9720271080803309e+000,
       3.4073552300071834e+000, -4.1012946334570941e+000,
       3.1012936584720703e+000, -3.6976780903774529e+000,
       3.5074095407009027e+000, -3.8430569854000196e+000,
       2.8144238581288983e+000, -3.2786249515372781e+000,
       4.3168029891688198e+000, -1.5514748750791825e+000,
       4.4506352162823539e+000, -3.1852671746035783e+000,
       3.5776406407352508e+000, -2.4194075027333120e+000,
       3.7936815741062739e+000, -2.8489506198001902e+000,
       3.8662257360570447e+000, -2.9657008648085292e+000,
       4.6235323827854344e+000, -7.2411638259278819e+000,
       3.4047236873815807e+000, -1.3347503956750599e+000,
       2.5916386448571966e+000, -9.4851288151023749e-001,
       3.0497335411752751e+000, -1.2071688085688206e+000,
       2.5679656493306990e+000, -1.0296475946225720e+000,
       7.6157372003337178e+000, -4.5788376940075821e+000,
       6.0366998451370399e+000, -3.7148163098792315e+000,
       9.3739898277125704e+000, -5.5178670824330380e+000,
       1.0075016169012409e+001, -5.7279680064161322e+000,
       8.8701933394812240e+000, -1.3708045846779381e+001,
       4.4094780401491551e+000, -1.1042685968366819e+000,
       2.7854942036330472e+000, -8.1027319345771820e-001,
       3.2810634744480218e+000, -8.5804844478854636e-001,
       2.9855773732780126e+000, -8.0634201290306806e-001,
       4.0820221846610432e+000, -4.7695611387194790e+000,
       6.0851377422439539e+000, -6.7486605637697297e+000,
       6.2686621840117178e+000, -2.7367491106247743e+000,
       5.3527950834633691e+000, -5.3129924068279717e+000,
       4.8864343775725931e+000, -3.5500436146087777e+000,
       3.1127080844548440e+000, -2.2972060217406307e+000,
       4.5001983498962090e+000, -2.8499415115266697e+000,
       3.4830033119755917e+000, -2.4485223361159218e+000,
       4.3908887339215203e+000, -2.0425534097194769e+000,
       5.8217478116691002e+000, -6.4476540350666651e+000,
       5.4033797832191661e+000, -1.1332404903038269e+001,
       3.9985589715584444e+000, -2.2957436215569378e+000,
       3.2366900562425762e+000, -2.0422638437453164e+000,
       3.3161627548632078e+000, -2.3503899068298111e+000,
       3.3351195358614381e+000, -2.1947640236343662e+000,
       8.4856151464489873e+000, -7.4517708768906772e+000,
       7.8532604613093655e+000, -1.5699057900204668e+001,
       4.4991187219038942e+000, -2.8170599705840571e+000,
       3.4958335427137666e+000, -2.3705667877532912e+000,
       3.8083860930521287e+000, -2.7094847674801383e+000,
       3.3531627343506898e+000, -2.3648420901138634e+000,
       7.9208401958717083e+000, -8.8783479069323175e+000,
       5.0869442438763564e+000, -3.6268123143985829e+000,
       2.9199375158448548e+000, -2.1605774638442159e+000,
       4.0970611036159106e+000, -2.6836495041731334e+000,
       3.1651819395401426e+000, -2.2781958991599862e+000,
       4.2819437168860768e+000, -6.9408568964944308e+000,
       4.5157796865719684e+000, -7.2636540896744739e+000,
       4.1742818146598157e+000, -6.3547358799829272e+000,
       4.0722762902404446e+000, -6.4337450730582058e+000,
       3.2003842070549511e+000, -7.2794856203354974e-001,
       4.2679266685631019e+000, -1.0902539079290243e+000,
       3.2291393201119156e+000, -8.6719028903996442e-001,
       2.9624640103578623e+000, -8.1224791709472577e-001,
       2.5350077901399728e+000, -6.8716746577553967e-001,
       2.3760218210190049e+000, -6.2252031632608462e-001,
       1.6577757077641970e+000, -1.6527459189720370e+000,
       1.4802683940577204e+000, -1.9843807531360320e+000,
       1.9155906527952238e+000, -1.9669917252464670e+000,
       1.5473417445481414e+000, -2.2947228541263271e+000,
       2.0287982652834078e+000, -4.0778023148910538e+000,
       1.4300243784086768e+000, -2.3756140924117513e+000,
       1.4313252429627983e+000, -2.7072419188143861e+000,
       1.9353647853645706e+000, -3.8378104395135550e+000,
       1.4511203242254382e+000, -2.3548901368920268e+000,
       1.4744437291774430e+000, -2.7375712799493206e+000,
       1.7021332981384882e+000, -3.6476918957670619e+000,
       1.7741604476625410e+000, -3.2877372054615703e+000,
       1.3556033676247543e+000, -2.5271096101056694e+000,
       1.3754525687986432e+000, -2.4854446286620715e+000,
       1.4152614903732619e+000, -2.6828599044643311e+000,
       1.4138159092666263e+000, -2.5469977152113232e+000,
       1.7292085675314928e+000, -2.0391482131561904e+000,
       2.0016188705540094e+000, -1.6153461646064549e+000,
       2.2819060617390048e+000, -5.0196164919369997e+000,
       1.9095069548251800e+000, -3.3266791742311570e+000,
       1.7428384939066826e+000, -3.9933676138393297e+000,
       1.8316962737973637e+000, -4.5121900475965333e+000,
       1.8284515680616282e+000, -3.7865476136228517e+000,
       2.1971763135966507e+000, -5.3329159820148124e+000,
       2.4283453796755810e+000, -6.0762249377021940e+000,
       1.7902903165307813e+000, -4.0619987683031882e+000,
       2.2252322064675010e+000, -3.0412670359288638e+000,
       1.8587420897350644e+000, -4.5905680556108601e+000,
       1.6965148021263849e+000, -4.0629076343705499e+000,
       1.8946467339946864e+000, -4.5502997768218876e+000,
       1.6526225979790756e+000, -3.9126534075349313e+000,
       1.4682481688432631e+000, -1.7808016378925018e+000,
       1.8674614324351799e+000, -3.8110272779008674e+000,
       1.6993785910849932e+000, -2.1244709284826948e+000,
       1.4048471513163940e+000, -2.2325865528119677e+000,
       1.3926002177148671e+000, -2.3813859382940357e+000,
       1.4324910977889942e+000, -2.0476066239746515e+000,
       1.6807204469683001e+000, -3.2768655847398294e+000,
       1.6219671837787641e+000, -3.3182467158059779e+000,
       1.4860899462378774e+000, -2.4308452070291322e+000,
       1.8775867217316624e+000, -2.1243759526900150e+000,
       1.3664893096293522e+000, -2.3890471752880593e+000,
       1.3833906225397021e+000, -2.3476276404238399e+000,
       1.3137764032958303e+000, -2.2289767193493049e+000,
       1.3794639232914476e+000, -2.3136537186308352e+000,
       1.9769375748627191e+000, -3.5308314482907170e+000,
       2.1521424602650767e+000, -4.5634566947949660e+000,
       1.8602603129174677e+000, -4.1551798660030812e+000,
       1.9438490342877979e+000, -4.7221712881882203e+000,
       2.4236184271161987e+000, -5.7916985964723926e+000,
       1.8607516227755909e+000, -3.8875156824955259e+000,
       1.8053136943822974e+000, -4.1265055527229277e+000,
       2.4810891509907114e+000, -6.2449668531637608e+000,
       2.4804434854820445e+000, -4.4233779516646647e+000,
       1.9501009872150048e+000, -4.5694675839806571e+000,
       1.7863706331681337e+000, -4.0836379305721042e+000,
       1.9900898528893367e+000, -4.7324387234543215e+000,
       1.9500230125360780e+000, -4.5400471278742227e+000,
       2.3670163622508831e+000, -4.7756218315285697e+000,
       3.8675234393567250e+000, -4.0693195817733994e+000,
       4.3707256449144252e+000, -4.5416399395636660e+000,
       3.7055333819382148e+000, -6.0795460081313806e+000,
       3.0802789801330275e+000, -1.6979246991536847e+000,
       4.0211628644868522e+000, -2.6456108311156821e+000,
       3.6113819750982201e+000, -5.2524185407521973e+000,
       3.1116494665480463e+000, -7.6857695067667109e+000,
       3.5913383677063786e+000, -3.5430046821987484e+000,
       3.7867072937190152e+000, -3.8321326146425170e+000,
       3.3689462262118983e+000, -3.7864350882108839e+000,
       3.4066062508396646e+000, -3.5582213786343115e+000,
       3.4011052836277957e+000, -3.9003473556497048e+000,
       3.7825155058117623e+000, -4.1379038796468830e+000,
       3.3165953814728306e+000, -1.9788203920597500e+000,
       3.5253097361796688e+000, -6.0295348797683097e+000,
       3.1093964668992187e+000, -4.7098242585512464e+000,
       3.3426829466013768e+000, -2.3735975778959868e+000,
       3.2808612827024586e+000, -1.9935520696895916e+000,
       3.4122163424380441e+000, -4.0991281593777522e+000,
       3.0949380933570350e+000, -3.6871107182662763e+000,
       3.5128320540643099e+000, -3.8427364131028336e+000,
       2.8147348053445889e+000, -3.2747103678539844e+000,
       4.3223652159945276e+000, -1.5600923345527846e+000,
       4.4341269085631971e+000, -3.1814182861741878e+000,
       3.5607689314516242e+000, -2.4103522318006316e+000,
       3.7862842296804766e+000, -2.8423078706317590e+000,
       3.8600568590498634e+000, -2.9618917027300657e+000,
       4.6038941857905815e+000, -7.2113305750630472e+000,
       3.3971208255060810e+000, -1.3372311026935828e+000,
       2.5712724697657228e+000, -9.4546491967525093e-001,
       3.0492991873137716e+000, -1.2110425426676465e+000,
       2.5460387390443171e+000, -1.0268111016921067e+000,
       7.5945366228788123e+000, -4.5685890787151751e+000,
       6.0304912858221806e+000, -3.7171978305794107e+000,
       9.3421762641099644e+000, -5.4961039086574743e+000,
       1.0056414880185395e+001, -5.7097430434506666e+000,
       8.9074353754836455e+000, -1.3761232368645288e+001,
       4.3921085402252116e+000, -1.1047185571697655e+000,
       2.7545437504624872e+000, -8.0606705457946504e-001,
       3.2764314900312845e+000, -8.5957555799387153e-001,
       2.9615561877595789e+000, -8.0588355536524992e-001,
       4.0611918987329911e+000, -4.7475377652516242e+000,
       6.0237723810357240e+000, -6.6813331774294902e+000,
       6.2194641045163612e+000, -2.7225023740542569e+000,
       5.3096258807649797e+000, -5.2686747997832679e+000,
       4.8717521453242307e+000, -3.5416561945402116e+000,
       3.0784245156275651e+000, -2.2782718177689625e+000,
       4.4896258538119529e+000, -2.8461082732639347e+000,
       3.4710120677419698e+000, -2.4469022089444459e+000,
       4.3790326459680236e+000, -2.0425097808996737e+000,
       5.7883773910154455e+000, -6.4132154173037819e+000,
       5.3993130636573348e+000, -1.1325241935522017e+001,
       3.9991039986835193e+000, -2.3019907203596581e+000,
       3.2202099572617136e+000, -2.0366086327964377e+000,
       3.3226896813956621e+000, -2.3577845999959059e+000,
       3.3127007940224793e+000, -2.1843550658592674e+000,
       8.4691105067695069e+000, -7.4295122387836745e+000,
       7.8186947257308610e+000, -1.5624996839790048e+001,
       4.4761762770009934e+000, -2.7991847657469289e+000,
       3.4638854487932798e+000, -2.3483960934204271e+000,
       3.8058738545868671e+000, -2.7065925769949426e+000,
       3.3277150428166742e+000, -2.3476891026189244e+000,
       7.9066779043657327e+000, -8.8647045145465064e+000,
       5.0819228490301445e+000, -3.6191877816148676e+000,
       2.8904326679179313e+000, -2.1405121095992015e+000,
       4.0875971705798939e+000, -2.6757230611898786e+000,
       3.1369240306676529e+000, -2.2594466503216912e+000,
       4.2836057429270804e+000, -6.9422140939772348e+000,
       4.5089275199855141e+000, -7.2545712105555706e+000,
       4.1748210714032314e+000, -6.3546783483892346e+000,
       4.0416252879086150e+000, -6.3856875401643363e+000,
       3.1800337517487320e+000, -7.2695838080562791e-001,
       4.2634317155873944e+000, -1.0921760309951785e+000,
       3.2016931771753980e+000, -8.6510548060448378e-001,
       2.9519378700430168e+000, -8.1298712506762350e-001,
       2.5012896002912344e+000, -6.8621899899867145e-001,
       2.3671272565686068e+000, -6.2479031573103028e-001,
       1.6555642396563479e+000, -1.6547793299811995e+000,
       1.4858859655835774e+000, -1.9974627136906220e+000,
       1.9206694992776576e+000, -1.9761921559277611e+000,
       1.5408321115731753e+000, -2.2866294507126930e+000,
       2.0334563302247997e+000, -4.0888786310081340e+000,
       1.4288900378334695e+000, -2.3710159204971868e+000,
       1.4304651815484681e+000, -2.7027657957346607e+000,
       1.9349071222148788e+000, -3.8330735346861045e+000,
       1.4474919564508488e+000, -2.3464718763966057e+000,
       1.4723926280054709e+000, -2.7301804711190871e+000,
       1.7024835520578090e+000, -3.6435581924677818e+000,
       1.7781110318333277e+000, -3.2953273495721951e+000,
       1.3527078721022907e+000, -2.5203862051719366e+000,
       1.3739341206391671e+000, -2.4806591805778839e+000,
       1.4136110222039178e+000, -2.6785294580223309e+000,
       1.4125499515344537e+000, -2.5410625368594491e+000,
       1.7295147684633281e+000, -2.0458278147454823e+000,
       2.0003057838724230e+000, -1.6233165274500367e+000,
       2.2731653461560248e+000, -5.0046592190946697e+000,
       1.9032795480989351e+000, -3.3207379290378358e+000,
       1.7399940866375372e+000, -3.9831402189508607e+000,
       1.8280157607276373e+000, -4.4972271939356467e+000,
       1.8240777075818393e+000, -3.7744300341681609e+000,
       2.1955049433836975e+000, -5.3203012928917506e+000,
       2.4173233209261409e+000, -6.0427592089300584e+000,
       1.7851591989004265e+000, -4.0478701757539923e+000,
       2.2214225047087797e+000, -3.0375523053362437e+000,
       1.8579448585585210e+000, -4.5829425943024305e+000,
       1.6936380240451379e+000, -4.0507701479534006e+000,
       1.8927262207513018e+000, -4.5423644414966002e+000,
       1.6461007153681322e+000, -3.8912173012171660e+000,
       1.4671963751966548e+000, -1.7827530690211060e+000,
       1.8652057721722639e+000, -3.8054247363339453e+000,
       1.6963565678855563e+000, -2.1203419446828038e+000,
       1.4062136007090682e+000, -2.2271607028322662e+000,
       1.3953604630807679e+000, -2.3785822121599951e+000,
       1.4315166747920067e+000, -2.0401100020477561e+000,
       1.6778774912270602e+000, -3.2652204318056648e+000,
       1.6216854114310921e+000, -3.3094822779157527e+000,
       1.4864355828915294e+000, -2.4240882239394415e+000,
       1.8741681628884066e+000, -2.1207931164610176e+000,
       1.3668500715019107e+000, -2.3852040675023543e+000,
       1.3848576719282315e+000, -2.3440843171878916e+000,
       1.3129856076074480e+000, -2.2231181322313982e+000,
       1.3791890619769216e+000, -2.3066854728872470e+000,
       1.9734062706360271e+000, -3.5260093922012827e+000,
       2.1528366375370216e+000, -4.5705761108028939e+000,
       1.8636374109382896e+000, -4.1526090997275418e+000,
       1.9464830734641609e+000, -4.7190328509831305e+000,
       2.4243409768504920e+000, -5.7873870350543983e+000,
       1.8566512634694614e+000, -3.8717584216137357e+000,
       1.8001957451530206e+000, -4.1103085659526055e+000,
       2.4772410244600795e+000, -6.2305909534850299e+000,
       2.4686886048508119e+000, -4.4055056099795022e+000,
       1.9516971668505341e+000, -4.5656005776653412e+000,
       1.7861285847399373e+000, -4.0733846156700215e+000,
       1.9918009657043934e+000, -4.7303873545930850e+000,
       1.9523949961571441e+000, -4.5335733501881208e+000,
       2.3920507569945633e+000, -4.8096726179331935e+000,
       3.8771127356693662e+000, -4.0629682434834793e+000,
       4.4141495407204587e+000, -4.5721401680706810e+000,
       3.7246530367994342e+000, -6.0987065662154363e+000,
       3.0754226804041136e+000, -1.6880018851513885e+000,
       4.0396748443867514e+000, -2.6459692769001797e+000,
       3.6526304763814226e+000, -5.2956381411005626e+000,
       3.1400263952969190e+000, -7.7421675072930407e+000,
       3.6052750950695129e+000, -3.5467772523463195e+000,
       3.8043770460752153e+000, -3.8379749926845466e+000,
       3.3835352428942080e+000, -3.7929889479929058e+000,
       3.4092802526825494e+000, -3.5516926638228412e+000,
       3.4124750195157834e+000, -3.9073084418244615e+000,
       3.8054589152235594e+000, -4.1518801001054930e+000,
       3.3175301696377559e+000, -1.9734103967796863e+000,
       3.5489836566337361e+000, -6.0615372673461732e+000,
       3.1158454659173227e+000, -4.7080400055716991e+000,
       3.3527148340088182e+000, -2.3719241722121271e+000,
       3.2948082205000970e+000, -2.0116222459053184e+000,
       3.4184313203060066e+000, -4.0986180329424906e+000,
       3.0952658451781563e+000, -3.6838111580353909e+000,
       3.5230196531936446e+000, -3.8471855844945444e+000,
       2.8134042885557236e+000, -3.2693080466534887e+000,
       4.3266871002970744e+000, -1.5656771725263861e+000,
       4.4222901458832640e+000, -3.1789697332093554e+000,
       3.5459910708198428e+000, -2.3998689797126840e+000,
       3.7857121099970099e+000, -2.8395889869541517e+000,
       3.8582379957297674e+000, -2.9612321728782396e+000,
       4.5786432195565512e+000, -7.1751891979251186e+000,
       3.3859959168948217e+000, -1.3377396800813564e+000,
       2.5498544203744009e+000, -9.4180340619560343e-001,
       3.0483694711846101e+000, -1.2141357722738355e+000,
       2.5255416777021393e+000, -1.0237626997552458e+000,
       7.5709071511228876e+000, -4.5546374286799827e+000,
       6.0146387743938465e+000, -3.7106205313588423e+000,
       9.3548543660828276e+000, -5.5050853280312859e+000,
       1.0018075836276923e+001, -5.6766479864135517e+000,
       8.9565759371566251e+000, -1.3830424749662987e+001,
       4.3721793103721609e+000, -1.1049870638303492e+000,
       2.7251850953634369e+000, -8.0247613554068520e-001,
       3.2749857525674670e+000, -8.6260370388347507e-001,
       2.9380245151766955e+000, -8.0593618057162852e-001,
       4.0391898728599687e+000, -4.7220219041483737e+000,
       5.9991193399644542e+000, -6.6550620617073770e+000,
       6.2168803268210224e+000, -2.7233447174774836e+000,
       5.3052183964983710e+000, -5.2607189664374685e+000,
       4.8594312275760254e+000, -3.5351507370127813e+000,
       3.0469768833021877e+000, -2.2602909205329338e+000,
       4.4802439643983609e+000, -2.8420966501100828e+000,
       3.4519332297425915e+000, -2.4379806742663472e+000,
       4.3677153243435418e+000, -2.0434880294909683e+000,
       5.7538231207046815e+000, -6.3732841315363595e+000,
       5.3932232900034851e+000, -1.1308716325285221e+001,
       3.9947447383085324e+000, -2.3037598090994393e+000,
       3.2029009865032561e+000, -2.0294685583738814e+000,
       3.3277552667764261e+000, -2.3629061388811672e+000,
       3.2923866979956884e+000, -2.1742580179912978e+000,
       8.4339867760526719e+000, -7.3906179747011072e+000,
       7.8526076268182319e+000, -1.5690011066954280e+001,
       4.4518371750717307e+000, -2.7833213459462822e+000,
       3.4346269931292315e+000, -2.3298563774289405e+000,
       3.8022057128738487e+000, -2.7036830663378972e+000,
       3.3117545485594322e+000, -2.3384479330736712e+000,
       7.9256677894109071e+000, -8.8908067860042443e+000,
       5.0762962741768405e+000, -3.6113615812358204e+000,
       2.8628760561945255e+000, -2.1215590118968479e+000,
       4.0749016182689566e+000, -2.6644781525613443e+000,
       3.1076156947757485e+000, -2.2380249082361141e+000,
       4.2883022157398649e+000, -6.9476991162188861e+000,
       4.5029835204026512e+000, -7.2459952670963794e+000,
       4.1790811294256356e+000, -6.3595883291254252e+000,
       4.0257391693102660e+000, -6.3601721650026697e+000,
       3.1594204146238343e+000, -7.2593844551257958e-001,
       4.2557495406449100e+000, -1.0942935512202585e+000,
       3.1749702756910811e+000, -8.6366723309271609e-001,
       2.9400730496527037e+000, -8.1208042621900667e-001,
       2.4656004581655488e+000, -6.8485160163580272e-001,
       2.3556562590402823e+000, -6.2604389553511153e-001,
       1.6560979542948575e+000, -1.6583784561987769e+000,
       1.4921537823979170e+000, -2.0103893713344907e+000,
       1.9242590962040325e+000, -1.9835172693512195e+000,
       1.5357837390903466e+000, -2.2826441224966616e+000,
       2.0337564574401839e+000, -4.0910231275069862e+000,
       1.4279399094990979e+000, -2.3662433314272344e+000,
       1.4291795755247791e+000, -2.6966954396697025e+000,
       1.9318118579306143e+000, -3.8221069319831118e+000,
       1.4478015886453155e+000, -2.3441478975572867e+000,
       1.4702288708558255e+000, -2.7231660591885349e+000,
       1.6991437057945020e+000, -3.6314325387768154e+000,
       1.7773084387665250e+000, -3.2917635619250318e+000,
       1.3500986199931990e+000, -2.5132216035657517e+000,
       1.3711840287840256e+000, -2.4736550130884409e+000,
       1.4117437904608676e+000, -2.6727593418688969e+000,
       1.4116064805536022e+000, -2.5354541885891408e+000,
       1.7334987800016890e+000, -2.0567398091636697e+000,
       1.9982296968344035e+000, -1.6299000951746323e+000,
       2.2658935408537020e+000, -4.9918635311819086e+000,
       1.8985301928669136e+000, -3.3188747281656039e+000,
       1.7384326631434992e+000, -3.9762233479644395e+000,
       1.8251456786086984e+000, -4.4847820601287793e+000,
       1.8188860531048268e+000, -3.7609269710633972e+000,
       2.1964464871445371e+000, -5.3130715528299453e+000,
       2.4128588162787774e+000, -6.0250448078931118e+000,
       1.7797838568820383e+000, -4.0332244883214408e+000,
       2.2179442463093348e+000, -3.0338014294665361e+000,
       1.8559035948353519e+000, -4.5717648702577183e+000,
       1.6905624140098214e+000, -4.0375760099305280e+000,
       1.8899734142444418e+000, -4.5312368762532191e+000,
       1.6399692645484811e+000, -3.8709463452425967e+000,
       1.4660785308352902e+000, -1.7842299888391657e+000,
       1.8645024594398316e+000, -3.8039285009658075e+000,
       1.6924727844323433e+000, -2.1174632119629595e+000,
       1.4078825486739233e+000, -2.2245655828650568e+000,
       1.3980767957724172e+000, -2.3771473209660821e+000,
       1.4317709741231868e+000, -2.0362173430285275e+000,
       1.6763024502371731e+000, -3.2571001038860228e+000,
       1.6213301665514674e+000, -3.3010989285540697e+000,
       1.4863765894183392e+000, -2.4175591524899596e+000,
       1.8697208525681959e+000, -2.1167188786272395e+000,
       1.3673980985793874e+000, -2.3821758077799449e+000,
       1.3841599105406135e+000, -2.3389787121450452e+000,
       1.3132290115008391e+000, -2.2194355628381151e+000,
       1.3804111711338811e+000, -2.3036121879587879e+000,
       1.9663198809867826e+000, -3.5145089482895435e+000,
       2.1501756018177773e+000, -4.5700925161633092e+000,
       1.8650649423476995e+000, -4.1448362837154953e+000,
       1.9466353841630908e+000, -4.7081928505363173e+000,
       2.4210718073520447e+000, -5.7713829663995808e+000,
       1.8511116459757371e+000, -3.8523498541647516e+000,
       1.7925296564929956e+000, -4.0878130228339922e+000,
       2.4700377648847383e+000, -6.2047197618627221e+000,
       2.4559345687278271e+000, -4.3846848645001293e+000,
       1.9489246645392986e+000, -4.5505891076480767e+000,
       1.7836602437801068e+000, -4.0565211580812575e+000,
       1.9907529056025994e+000, -4.7191563247713395e+000,
       1.9528586617384747e+000, -4.5227511108021030e+000,
       2.4202170582121552e+000, -4.8500346139090480e+000,
       3.8831921953635944e+000, -4.0554252032132725e+000,
       4.4406433661079419e+000, -4.5869642849885439e+000,
       3.7428226152004966e+000, -6.1171742198904493e+000,
       3.0674726250960731e+000, -1.6780357021019088e+000,
       4.0269277170666582e+000, -2.6290115354282406e+000,
       3.6817442891053136e+000, -5.3252322747500509e+000,
       3.1614152972516143e+000, -7.7825918206954325e+000,
       3.6200530315855461e+000, -3.5523175954243467e+000,
       3.8243523200973271e+000, -3.8463296711959782e+000,
       3.4045026898027970e+000, -3.8097114519687696e+000,
       3.4165910624209404e+000, -3.5481666652518302e+000,
       3.4221743015782549e+000, -3.9111627671132569e+000,
       3.8195362975568501e+000, -4.1562907564816056e+000,
       3.3094907404333629e+000, -1.9624212992556100e+000,
       3.5644550796052639e+000, -6.0786765581284330e+000,
       3.1259829231092704e+000, -4.7112689503138290e+000,
       3.3552025515994885e+000, -2.3653167558105905e+000,
       3.3083471363741883e+000, -2.0329136360708091e+000,
       3.4222188737282924e+000, -4.0939122875408156e+000,
       3.0890385740757291e+000, -3.6727430782569130e+000,
       3.5291397579008605e+000, -3.8438099358210729e+000,
       2.8100988402463858e+000, -3.2608422855008308e+000,
       4.3062027914129670e+000, -1.5643351573927267e+000,
       4.4124374026811628e+000, -3.1793092876085622e+000,
       3.5234127402281854e+000, -2.3864389863393609e+000,
       3.7757102702634078e+000, -2.8302567340299998e+000,
       3.8531025067591651e+000, -2.9606493790949067e+000,
       4.5670940368033595e+000, -7.1619559655083860e+000,
       3.3651119122972988e+000, -1.3347934152513745e+000,
       2.5241065116595021e+000, -9.3860772923945857e-001,
       3.0368012404106954e+000, -1.2155998156379282e+000,
       2.5014729282672157e+000, -1.0188043200482990e+000,
       7.4701489915149057e+000, -4.4985173967210290e+000,
       5.9442762779020875e+000, -3.6733719133823013e+000,
       9.1708373928073694e+000, -5.3979352605430968e+000,
       9.7644095816673993e+000, -5.5331086207123796e+000,
       8.9728987051187357e+000, -1.3855609474373075e+001,
       4.3175872617046078e+000, -1.0984638550538914e+000,
       2.6870301461826616e+000, -7.9879122431135008e-001,
       3.2589016077177999e+000, -8.6418883483798548e-001,
       2.9112572518977120e+000, -8.0591847563916152e-001,
       4.0232673277032323e+000, -4.7053584231301100e+000,
       5.9680114862170743e+000, -6.6205796061197528e+000,
       6.1350167059808847e+000, -2.6922011355213162e+000,
       5.2914528520671258e+000, -5.2484529339108166e+000,
       4.8239144388417836e+000, -3.5138129646063443e+000,
       3.0084891561205565e+000, -2.2386903845233759e+000,
       4.4484891743104633e+000, -2.8222106242980050e+000,
       3.4236115811568055e+000, -2.4248537708585931e+000,
       4.3399870744589686e+000, -2.0378453532101948e+000,
       5.7180215178357257e+000, -6.3365119241475147e+000,
       5.3760745794136540e+000, -1.1272299635551217e+001,
       3.9736274077189533e+000, -2.2992503810980853e+000,
       3.1777429098851537e+000, -2.0186233668788605e+000,
       3.3192380830892518e+000, -2.3622044351670266e+000,
       3.2667197923963518e+000, -2.1613195645705066e+000,
       8.3616461182561430e+000, -7.3248787880455293e+000,
       7.8449799303396146e+000, -1.5671016805505358e+001,
       4.4284017639906033e+000, -2.7695590208336252e+000,
       3.3986446279007092e+000, -2.3071872755986003e+000,
       3.7893142448842263e+000, -2.6970768737457878e+000,
       3.2819582398258498e+000, -2.3174367859481149e+000,
       7.9220552601094179e+000, -8.8913272771420040e+000,
       5.0350373494084719e+000, -3.5802959462953230e+000,
       2.8337319441264142e+000, -2.1043167412064334e+000,
       4.0528754440324359e+000, -2.6485809206739659e+000,
       3.0849483861167930e+000, -2.2242144653626017e+000,
       4.2898827891740057e+000, -6.9495144168697500e+000,
       4.4826962256164702e+000, -7.2169455024161335e+000,
       4.1758796803075020e+000, -6.3516962515877697e+000,
       4.0225476395737623e+000, -6.3572319313703645e+000,
       3.1247436666498603e+000, -7.2419861851801015e-001,
       4.2173955623152537e+000, -1.0922128817677634e+000,
       3.1425101464168836e+000, -8.6183294069713134e-001,
       2.9111620584738662e+000, -8.1207584630033947e-001,
       2.4337618121105051e+000, -6.8405759968107893e-001,
       2.3377413399235629e+000, -6.2802705452158336e-001 ]
   output_scale: [ 5.2631578947368418e-001, 4.9999999999999994e-001,
       5.2631578947368418e-001, 4.9999999999999994e-001,
       5.2631578947368418e-001, 4.9999999999999994e-001,
       5.2631578947368418e-001, 4.9999999999999994e-001,
       5.2631578947368418e-001, 4.9999999999999994e-001 ]
   inv_output_scale: [ 1.8999999999999999e+000, -9.4999999999999996e-001,
       1.8999999999999999e+000, -9.4999999999999996e-001,
       1.8999999999999999e+000, -9.4999999999999996e-001,
       1.8999999999999999e+000, -9.4999999999999996e-001,
       1.8999999999999999e+000, -9.4999999999999996e-001 ]
   weights:
      - [ -1.1879232378229740e+000, -2.2268421027118063e-001,
          -2.8633638237586224e-002, 1.9737414259936095e-002,
          1.4218520293362801e-002, -8.5204149008359029e-002,
          -4.6818381108550085e-002, 1.9998792580343233e-001,
          1.4686100377370797e-002, -1.0208205392526999e-001,
          1.4554211121358077e-001, 1.2111650382508603e-002,
          -2.9164843141560499e-002, 6.8439217989972614e-002,
          -1.8204257728919919e-002, 1.5260909866921525e-002,
          1.9935576417831158e-001, 2.6294872789242460e-002,
          2.9670093200037340e-001, 7.3554834662048957e-002,
          -1.3501302528932682e-001, 8.0840882313746629e-002,
          1.0782322129541508e-001, 1.5291881301212115e-001,
          1.2014789852681861e-002, 9.9599057028717353e-002,
          -4.8127703829713320e-002, -1.1175081145087477e-001,
          1.4143169785062862e-001, 9.9488443806972859e-002,
          -2.4308054834827272e-002, -2.3253184347927957e-002,
          5.6324230403009309e-002, -5.1994527471259612e-003,
          4.8345171726388927e-002, 5.8219365796315994e-002,
          1.4472908067605868e-002, 7.2433651545863037e-003,
          4.5295794521018735e-002, -2.2134172124914817e-001,
          1.8915346312863027e-001, 2.4204464062166214e-001,
          -2.4738148089907297e-001, -2.2358766256252918e-001,
          -1.4457803224804727e-001, 6.9086540050853577e-003,
          -3.2031105037986687e-002, 2.1721482764046515e-001,
          5.4494272169472911e-002, 4.4315112962217892e-002,
          -3.0211559566636272e+000, -5.8775982239303116e-002,
          -1.1856359326010665e-001, -2.1640705029152910e-001,
          1.0115129572847285e-001, -6.0025191692755213e-002,
          1.1519255035492471e-001, -1.6489717604474735e-001,
          4.3930868614252677e-001, -1.3063542828958638e-001,
          7.6422081971848535e-002, 2.2955669811630613e-001,
          -4.5725274194233473e-001, 1.0284930588176369e-001,
          4.2602976572480439e-001, -2.6539659628072404e-001,
          -9.8696527871051640e-002, 4.4038854681646444e-001,
          -8.3144687062446043e-002, -8.6232143516833504e-002,
          1.5313434535055021e-001, 2.3487693945475904e-001,
          2.1748733705052622e-001, 6.0849971185632172e-002,
          -2.9702566497123251e-001, 1.3269044551928696e-001,
          -1.5202675382158584e-001, 1.5925674721218011e-001,
          1.3575402478037252e-001, 3.6290141623057015e-001,
          -9.2792316149341039e-002, -3.8940770254882781e-002,
          3.8760052525431909e-002, 1.5178936942137500e-001,
          2.0773264893752255e-001, 7.1369934103001453e-001,
          1.7639064640331971e-002, 8.8932066098862547e-002,
          2.4041112617302804e-001, -3.4567982773797085e-001,
          -3.9932790195192291e-001, 8.4636504169998206e-001,
          -5.1812142737315670e-001, -4.3048257485020774e-001,
          2.2765838233181984e-001, 8.4528239615929632e-002,
          4.7232528459475252e-002, -5.0073427188042663e-001,
          -2.7727416933739646e-001, 1.9551195209788755e-001,
          -7.0284245454863892e-001, 5.3640454633904044e-002,
          -2.5616702892816140e-001, -2.7345776993399233e-002,
          -9.5676251265876547e-002, 4.5873537732678576e-002,
          1.3479672984595393e-002, -3.2929215164894159e-002,
          8.0128103861352273e-002, 8.1015583968798835e-002,
          1.3291775699791247e-001, 2.3323872329570208e-001,
          -1.0865731445340575e-001, -2.7167837220492583e-002,
          4.3633904541500096e-001, 1.8833076001964036e-001,
          2.4658694423695462e-001, -1.2632473758034971e-001,
          1.6425707846170398e-001, -2.2889335716521539e-001,
          -2.3389115012527176e-002, 1.5352572260926534e-002,
          -1.3581940751416766e-002, 1.3112095609533872e-001,
          -1.8068393282126638e-001, -3.4083075522658013e-001,
          -8.0906594468253532e-002, -5.2816760267196609e-002,
          6.6583241622575992e-002, 1.3315713373917049e-001,
          -5.0515153321505371e-002, 8.3655976052873157e-002,
          6.3586433162504660e-002, 8.9373814342610228e-002,
          -8.3172150026964334e-002, -3.8257609087953587e-002,
          -4.5603866852900649e-001, -1.5491221185385334e-001,
          1.6020934574851453e-001, 1.5362507496205463e-001,
          -1.2180545560989840e-001, 6.0379887479055365e-002,
          1.0276106631806461e-001, 7.9247935503458225e-002,
          7.2247898160500160e-002, 1.3061606801580228e-001,
          -9.1259459299271400e-002, -1.7589457863118108e-001,
          2.9988267038350166e-002, -1.6430535186831668e-001,
          1.3221112558929493e+000, 5.0812539592366736e-002,
          7.0691704317607212e-002, 5.4357086555332668e-002,
          -1.2993423396313686e-001, 4.8625025830021949e-002,
          1.6218495162672394e-001, -8.9875843211288262e-002,
          -2.6438156364510501e-001, -1.7075131316268610e-001,
          2.3079498112787775e-001, 4.0026562849632616e-002,
          9.8509221196150049e-002, 6.7308927114971551e-002,
          7.6189954941280839e-003, -7.1965905357098042e-002,
          -1.5828021452419169e-001, -8.9830937740879566e-002,
          6.1314838947490596e-002, 9.8242404540548167e-002,
          7.8755075299719451e-002, 1.0837819647173687e-001,
          -7.8729671683257410e-002, -3.7683462394664552e-002,
          4.2274600573564108e-002, -1.1731700680763396e-001,
          3.8275569439424839e-002, 5.8962056472990992e-002,
          -7.2498802019515043e-002, -3.6354262976044917e-002,
          1.9539014824789941e-001, 4.6347285376721926e-002,
          -1.9261243160500235e-002, 3.4934353551760944e-002,
          -6.1383283555764062e-003, -1.6136064262928915e-001,
          -5.1260135033744839e-002, 9.3468556973174702e-002,
          -2.7624263044843953e-003, 1.8384210815809329e-001,
          1.9526162940773073e-001, -3.5471125733356906e-001,
          1.1262119386919474e-001, 1.5972094136453271e-001,
          6.5126016270801723e-002, -1.7885158544160923e-002,
          7.0874107364373357e-002, -1.1351303170405454e-001,
          1.7105420896065457e-001, -1.5069132969653609e-001,
          -2.4632001598620906e-001, 6.0877416765065050e-002,
          -7.5626853962395768e-002, -1.6555910727304474e-001,
          1.0731368324646164e-002, -9.9719557073264214e-002,
          -1.3296237228896662e-001, -7.9458222624471914e-002,
          -1.2036962756516416e-001, 1.0566470710891687e-001,
          -9.9560792892297943e-003, -8.9255619800834310e-002,
          4.1299002930392334e-002, 1.2249317269905767e-001,
          -2.9167607294427056e-001, -5.6131420632982744e-002,
          -1.3777930175631806e-001, 1.0001530216193415e-001,
          -3.0887784346400149e-001, 9.9071591884239502e-002,
          -1.2800235027999938e-002, -1.6894485907444562e-001,
          1.1657393787864735e-001, -8.0969653033251127e-002,
          -2.1243195223289188e-001, -1.3124790186963600e-001,
          -6.0779570115817881e-002, 1.2471331186444419e-001,
          5.6267055023820116e-002, -1.0354288830884970e-001,
          4.6263995663876248e-002, -2.3074784827682698e-001,
          -1.0031683750833870e-001, -1.3810855300515767e-001,
          1.1016790696303658e-001, 7.5405245008368565e-002,
          3.1357558000916705e-002, -6.7850140896901417e-002,
          2.1003179664197801e-002, -2.9822060346766027e-002,
          -2.7196838198004958e-001, 5.0420505149643169e-001,
          1.5638855721297098e-003, -9.5282292865443985e-002,
          -2.8877583437597715e-001, 4.2397374983959485e-002,
          2.8794522897696278e-002, 9.1421271568089588e-002,
          8.7128964460737229e-002, 4.2234761176155405e-001,
          1.3275516241035284e-001, 2.3183564404405937e-001,
          -1.5178506247099923e-002, -9.4934223388867478e-002,
          -1.4256786706355445e-001, 5.0207802584362034e-002,
          7.2861369029515149e-002, -6.9929992589400164e-002,
          4.1096362975205185e-002, -1.2665237380685895e-001,
          7.9023611004944167e-003, 1.7058590006372618e-001,
          -2.9670952015505073e-002, -1.2863848852690865e-001,
          1.6661722062153092e-001, -7.0363015528053421e-002,
          -2.1481924831943025e-001, 2.1529523871201398e-001,
          -8.2188404653870312e-002, 1.0604629804379982e-001,
          1.5269862031691375e-001, -6.4878335773951162e-002,
          4.7309641770765572e-003, -7.4882167572720600e-003,
          5.2264626126517159e-002, -5.5841327194049446e-002,
          5.4517309329883294e-002, 1.2232093168020591e-001,
          1.4186641642961628e-002, -8.9231907230856486e-002,
          1.3404771115530892e-001, -3.7033796645567038e-002,
          -9.7206337171473325e-002, -4.3722612270136921e-002,
          -7.5041986101074820e-002, -1.2107343280502009e-001,
          1.8187722362318903e-001, -2.0172569386829917e-002,
          1.0351616785880270e-001, -1.1761302393947556e-002,
          1.1470017258549420e-002, -7.5046504796566549e-002,
          -1.4082335187781760e-002, 1.6290334310959033e-002,
          1.5155573646181386e-002, -3.1642139207272768e-002,
          6.6258738638167960e-002, -2.6664014112501944e-001,
          1.6883092722465017e-002, 5.5500300441382175e-003,
          -4.9768873027900826e-002, 1.5923883636592773e-001,
          7.5957723361571292e-002, 1.0942443231504753e-001,
          -3.6013675478645409e-003, 6.6599670494554702e-002,
          2.8685287241842900e-002, -2.2092051733385176e-001,
          2.1582427739806551e-002, -1.2971616808693909e-001,
          -2.7103887014538433e-002, 1.2377683924989145e-001,
          -9.2829687349042775e-002, -1.8542853647146380e-002,
          1.6341891070319969e-001, -7.5964234663648711e-002,
          -2.0806553511226542e-001, 1.6596521694730279e-001,
          -1.3156245023493243e-001, 1.1927125083314383e-002,
          1.1690790130380641e-001, -3.2627262679080712e-002,
          -2.4984233752243387e-002, -5.0077818119896436e-002,
          2.3214103317137413e-002, -1.7648665511768094e-002,
          3.6903151999695800e-002, 1.7345342049994475e-001,
          7.3001098624492777e-003, 7.6998454835658411e-002,
          4.3206076703030748e-002, 1.7205809302647868e-003,
          -5.2115998076674337e-002, 1.4424650370732992e-001,
          1.0934994994450265e-003, 8.1947887184077722e-002,
          1.4327726203202071e-001, 1.6408039495835844e-003,
          1.0754429934608732e-001, -3.7273189472125490e-002,
          -2.2361450072002231e-001, 7.8616853147944213e-002,
          -4.8328376512718069e-002, -4.3232388097369193e-002,
          3.2144372279325185e-002, -8.8265911802229782e-004,
          6.1048770998968029e-002, -3.1441177439286117e-001,
          7.7487641972239490e-003, 5.5775203375662774e-002,
          -9.9525510838032516e-001, 1.9147634520890416e-001,
          -5.1719333920775094e-002, 3.6378060725088410e-002,
          6.5531424548141079e-002, 5.9507245444426933e-002,
          -1.0440044701137975e-001, -2.2755013129707863e-001,
          1.1287728679521737e-001, -3.1711066723049242e-002,
          -1.6607204105846504e-001, 4.5105311007516420e-002,
          -1.2490501244983024e-001, 3.5358856394436769e-002,
          1.4495243861308124e-001, -1.5754293648242079e-001,
          -1.9516114612725713e-001, 2.9487518449507316e-001,
          -2.2849896803695458e-001, -2.1881687932133076e-002,
          1.1292437962492888e-001, -1.0830700418363290e-001,
          -1.8296563815647489e-002, -4.6093040567207415e-002,
          -1.4185295846563498e-001, -3.0558144628543289e-002,
          -4.8538179331247093e-002, 2.1873551505945357e-001,
          -4.9365028725437639e-002, 5.8457365132773817e-002,
          -1.1205726776723362e-002, -1.1713583128851723e-001,
          -8.9581946847344968e-002, -4.6807138261557068e-003,
          6.9365675454570105e-002, 1.4854249963993429e-001,
          1.9766095556074045e-001, -2.2927919421032190e-002,
          1.4672111562544835e-001, -2.0389644383773395e-001,
          -4.2129484718830429e-001, 4.2248997781520126e-001,
          -1.5508090525890245e-001, -2.4125786560390070e-001,
          2.3110517473640402e-002, -2.4897054598882053e-002,
          7.3436780636065888e-002, -2.5162240751351372e-001,
          -1.0072679622832608e-002, 2.5427512715174228e-001,
          5.0862213048770377e-001, 1.1857764722599366e-001,
          4.9258739160876010e-002, 7.9171339011036956e-002,
          -9.6795084635289227e-002, 8.5530895244530364e-002,
          1.3509251240153466e-001, -1.6755359289935987e-001,
          -8.0537332966438793e-002, -1.8342102499018298e-001,
          3.3566183074803663e-002, -1.9670871236801338e-002,
          -6.6717479809265739e-003, 9.9234615171190886e-003,
          1.2100275380758545e-001, -2.5687519283383170e-003,
          -1.2870923817548363e-001, 4.5141233163990553e-002,
          5.8009481593162021e-002, 2.5280015949962702e-002,
          1.5855784559930458e-001, 8.3354470814213946e-002,
          -8.0719065982995164e-002, -6.7103390537266994e-002,
          7.3588506624084268e-002, -7.2708069234908676e-002,
          4.0373237035484365e-002, 1.0073821038637394e-001,
          -6.2695213958125731e-002, 7.5005932617580068e-002,
          5.6555130186768117e-002, -4.8983175737777980e-003,
          2.2419191851067014e-002, 9.8762766157264023e-002,
          -2.6047515473119284e-004, 5.1111853231395566e-003,
          2.8095354703603130e-002, 3.6565659909155918e-002,
          1.0172235559752188e-001, 7.4558794044491714e-002,
          2.1502967937194733e-003, -2.0533385498634435e-001,
          2.9003710376303539e-002, 2.9524831674034680e-002,
          1.1174384152859748e-001, 1.9811826886656388e-002,
          9.2662300117607940e-002, -2.6640343154148843e-001,
          2.0165038784223262e-002, -4.7575061152535660e-002,
          6.9599394770568168e-001, 3.3634241270231457e-002,
          4.7946309899506434e-002, -5.4791453186286199e-002,
          -1.6862476211264846e-001, -3.8219287608378526e-002,
          1.2381369726252373e-001, 7.7562203208646485e-002,
          -2.2471646062374584e-001, -1.9675467367004465e-001,
          9.4653608273193371e-002, -1.6336498410340902e-001,
          1.0083781811552636e-002, 8.5792171431505419e-003,
          2.4939936517922562e-002, -1.4120771537613727e-001,
          -1.6773495935897809e-001, 7.1383938352435367e-002,
          2.6860058210153175e-002, 8.6761110730307345e-002,
          1.4364357381800849e-001, 1.0188558362647183e-001,
          -6.5087812865604514e-002, -4.1715656135079410e-002,
          1.0302315202082432e-001, -1.0067300339523384e-001,
          -2.3055284355497532e-003, 5.8084417902619062e-002,
          -1.8240222101753897e-002, -1.8066881102117946e-001,
          1.3387324643495679e-001, -1.1027849417656262e-001,
          -3.8135461784048537e-002, -1.1108492846297890e-001,
          7.1985846343885412e-002, -1.2650494599588469e-002,
          1.8052658570052248e-002, 3.0672374420237920e-002,
          2.4315733247219234e-002, 6.8584961649179543e-002,
          2.0929101409026402e-001, -2.3204160116108399e-001,
          2.5726126437869708e-002, 1.8975808225421404e-002,
          2.2336706197640267e-002, 1.3582109314287988e-002,
          3.2628451505436543e-002, -1.0798706245203262e-002,
          1.3416117228029287e-001, 3.4380342942157839e-002,
          -2.1827822068647168e-001, 4.2634432950113689e-002,
          1.1687596788409808e-001, -5.8276800998286610e-002,
          -3.3641435610578287e-002, -8.0036953518105497e-002,
          -1.0549562962442029e-001, -1.4619543387635597e-001,
          -9.4009568246141692e-002, -9.2100614896528706e-003,
          -3.0833181527988064e-002, -8.7873185238029075e-002,
          -1.1407076968996477e-001, 6.0853035079162288e-002,
          1.4245082354456377e-002, -1.3538184480055218e-001,
          -2.7639334640720958e-001, 4.0139065146197184e-001,
          -2.3142526753349565e-001, 3.4073285752390339e-002,
          7.9551291479540931e-002, 5.7711184042769934e-003,
          1.8845417836077186e-002, -6.8139143711271874e-002,
          -2.1886122177035165e-002, -1.6932554436906739e-002,
          1.3498186509458903e-003, 9.6098176847483022e-002,
          1.1129798831190771e-001, -7.6990792193812982e-002,
          1.2626979582567251e-002, -1.2051258801547361e-001,
          -5.1538165984302185e-002, -2.6090992161068079e-002,
          1.2264257633543095e-001, 9.8772275818754016e-002,
          7.1936674263879063e-002, -8.3238481964218718e-003,
          3.8776431695103836e-002, -5.0987805841046688e-002,
          -1.8934163954896949e-001, 2.0076930468778900e-001,
          -1.2716403925551903e-001, -7.4245987863112581e-002,
          -3.3142723041390931e-002, 4.9355860795219739e-002,
          -4.7267404802528532e-003, -1.7404550583425477e-001,
          1.1349526768826400e-001, 1.7725484844537659e-001,
          -5.8216419619681881e-001, -4.0869576086767084e-002,
          -1.2160438427071719e-001, -1.5914809070099914e-001,
          -3.8681548430206448e-004, -1.6271927592054922e-001,
          -1.3694280787609314e-001, 3.7708672378220266e-002,
          8.6937693312085604e-002, 1.8523714933305163e-001,
          -3.6386289772829358e-002, -1.9280935946051195e-001,
          1.8830696021992777e-002, -3.4131178457414521e-002,
          -2.6578305449796019e-001, 4.8664769308560445e-002,
          -1.1489866705619623e-002, 2.1267780802760744e-001,
          -1.9312080239659046e-001, 1.0217444687042750e-002,
          -1.0895260959169491e-001, -2.9731482768281908e-001,
          1.1209569175552260e-001, 3.7236972271588509e-002,
          -2.0015549986769790e-001, -3.2227220902347489e-002,
          -3.7679425937633300e-002, -1.5015870199396602e-002,
          1.2338847551663881e-001, -2.1801442760836315e-002,
          1.3120033316834178e-002, -1.8614126182592455e-001,
          -9.6248331900008144e-002, -8.7050284795005442e-002,
          4.1683156788264210e-002, 1.1842996004679877e-001,
          -3.0841715761490428e-002, -5.8165740904673420e-002,
          7.8849935027395165e-002, 1.4581776950394337e-002,
          -2.6201197111643976e-001, 3.3047558252529857e-001,
          4.8434364155144426e-002, -3.6008554497557542e-002,
          -3.0895975002342718e-001, 6.7491429033341377e-002,
          -1.8764754346965107e-002, 1.9581239678982046e-001,
          -4.8176001444281630e-003, 2.7856769578774732e-001,
          6.1627574671002117e-001, 1.3976962335782778e-001,
          -3.7385588782660829e-002, 8.7317356352676137e-003,
          -2.2019248341049669e-002, -5.3353455080055031e-003,
          6.7899680708878266e-002, -2.6940382667256041e-001,
          -2.3495911852607215e-002, -1.7334926317877244e-001,
          7.6390588794000569e-002, -1.0416369232679957e-002,
          -4.3900008747201465e-002, -4.7559483602716543e-002,
          2.4691333933175630e-001, 1.1594239071477828e-003,
          -1.3272936116829334e-001, 4.7130049397718261e-002,
          -5.0377242570238040e-002, 5.1506765859804592e-002,
          1.6905445472974134e-001, -7.5654173113754344e-002,
          -2.8907913793677357e-002, -4.1832158583765724e-002,
          -5.0014121222630901e-002, -1.4234932139831524e-001,
          2.9120173280051939e-002, 1.2975596231490621e-001,
          1.5940263070768991e-002, 9.1376756032777257e-002,
          8.2944103938661973e-002, 1.0120226820602836e-001,
          3.9966451739692391e-002, 2.2583902445778389e-001,
          1.7849922316252435e-002, -6.3905702348639459e-002,
          -5.5763971852946174e-002, -9.0232874884333361e-002,
          1.0775188721422113e-001, 1.1046965426664092e-001,
          -1.7084221784829992e-001, -2.1920575995964486e-001,
          9.8976003415915143e-002, 1.2510249716729124e-001,
          6.5928108393586954e-002, 6.1581100542143753e-002,
          1.1406660571257175e-001, -4.2956990160827696e-001,
          1.1004115136890544e-002, -8.4178073343171123e-002,
          5.2887856760654528e-001, 1.0712430697048762e-001,
          -2.7099693627399751e-002, 2.6356725535524903e-002,
          -9.6875796658405830e-002, 9.3722329099573502e-003,
          9.5064552350288142e-002, -3.1111810340126078e-001,
          3.1004259028505062e-002, -1.9202429432292867e-001,
          1.4526600639652520e-001, 8.7951531721402881e-002,
          -5.0191675017775363e-002, -5.3679124800558239e-002,
          2.5057736382704832e-001, -2.0537350600269823e-002,
          -1.1584079104789688e-001, 5.4952260914673430e-002,
          -7.1755541283689411e-002, 7.4897965668266550e-002,
          1.5800730632525622e-001, -1.2353062119068881e-001,
          -2.6974816711416705e-002, -2.9387254360131168e-003,
          -1.7465816928578442e-002, -1.6649407572719835e-001,
          2.0838798471498571e-002, 1.6341051512830604e-001,
          6.3103383132396315e-002, 7.2714860305715723e-002,
          1.4997408205136090e-001, 6.0111596026329983e-002,
          -1.4173418909812658e-002, 2.5402189985593626e-001,
          1.3488992497394813e-002, -4.7928121865274669e-002,
          -7.4729062320915071e-002, -9.0291990728142313e-002,
          1.9492844660147093e-001, 1.2295325007287147e-001,
          -1.3257151680854548e-001, -1.9623509543235221e-001,
          1.1795283388052516e-001, 1.1748191686712998e-001,
          4.5473776691934531e-002, 1.4651912270161001e-002,
          7.7433866786663114e-002, -3.5946889164138118e-001,
          6.4544926637038785e-002, 2.1558521870220218e-003,
          5.8777149342747526e-002, 1.1026946229298269e-001,
          -3.0169292448830154e-002, -8.3261046697257427e-003,
          -1.4791103679073719e-001, 7.3178690170115163e-002,
          5.4333743901987440e-002, -2.4123306110451681e-001,
          1.0870879938729205e-002, -1.7297148115410571e-001,
          8.8176990484333403e-002, 4.2515470418439824e-002,
          -1.0500935207252060e-001, -8.7039957756144579e-002,
          2.4930901952623005e-001, -4.4326945903291635e-002,
          -1.4979721715142685e-001, 3.2422293716885170e-001,
          -4.9785795111167508e-003, 3.2748311677188315e-002,
          1.4134048944968527e-001, -1.0740047272096848e-001,
          1.0389536841394395e-002, -3.0926836271450630e-003,
          7.5259823143165941e-002, -4.6840773403474367e-002,
          1.5184440970935862e-002, 2.4437047233186870e-001,
          6.9773884984510167e-003, 8.6654366932019545e-003,
          1.1230579710693545e-001, 5.4109838047697027e-002,
          -6.1856778622921348e-002, 4.3764824795036066e-002,
          3.2107995470820140e-002, 1.9244386665597229e-002,
          1.5793986514320540e-001, -5.0868457872284473e-002,
          1.9174101938432031e-001, -4.8920811912416852e-002,
          -5.9214917537766226e-002, 3.4723114958779659e-002,
          7.2008191873056647e-003, -2.6455371478615055e-003,
          7.6108243368179132e-002, -2.5594528178341222e-002,
          1.1384472901560423e-001, -3.3639555194366139e-001,
          5.4892968845605780e-002, 6.2171115193510604e-003,
          1.3205553275450527e-001, 1.1855708025026503e-001,
          -7.1036027791642392e-002, 2.6101657933867060e-002,
          -3.5034089804862119e-002, -2.7645651149177709e-002,
          3.8473467235024275e-002, -2.2885974344002752e-001,
          -1.2121746282423931e-003, -2.1251516004495363e-001,
          9.6220971461952798e-002, 2.0601700318531081e-002,
          -6.0398251484333615e-002, -2.7165440301628038e-002,
          2.7229896660978886e-001, -2.9536211549861826e-002,
          -1.9786154181975338e-001, 1.0157521757674920e-001,
          -3.7096500024547507e-002, 1.7572230807137421e-002,
          1.0142557787146923e-001, -1.4091687966276221e-002,
          -4.6059907252281374e-002, -5.9780915418152607e-002,
          7.0010917942276846e-002, -4.4512904260419574e-002,
          -1.7143767644010089e-002, 2.1695168753272040e-001,
          -8.0341722860086923e-002, 3.1466533331543624e-002,
          8.0492091075743413e-002, 3.8653383776933690e-002,
          -1.9912579337490261e-002, 1.1144993957541688e-001,
          4.5919819186935676e-002, 1.1069097179922315e-001,
          9.6949454228354895e-002, -6.1606179800313951e-002,
          1.6222209226917542e-001, -1.3029932672816083e-002,
          -4.5884029556111393e-002, 1.9370778894323808e-002,
          3.2990269901084432e-003, 2.8073692242048948e-002,
          1.5990249575328658e-001, 4.5857090739622658e-002,
          8.7910237107666780e-002, -3.2081878452810481e-001,
          8.1931777524783908e-002, -2.6139787150244497e-003,
          -4.9922328957040807e-001, 1.6452736314393890e-001,
          -1.4109729406778787e-001, -3.1070683275030642e-001,
          1.3748798829581427e-001, -1.2649248498499646e-001,
          1.4216011376938148e-001, -9.8123521220700546e-002,
          4.2520541535555692e-002, 4.4728123035378967e-003,
          2.5292829879247108e-002, 8.7829548775383931e-002,
          -1.1356488906246047e-001, -1.9848303652436544e-001,
          1.3111696619950786e-001, -8.5733245816488543e-002,
          -2.5851455040429666e-001, 2.8359599464435611e-002,
          -9.0287212346604945e-002, -5.3529123266534043e-002,
          8.8043824039881577e-002, -1.1510282037096836e-001,
          9.3075824641831673e-002, 5.8522172741545454e-002,
          -1.6060886415897191e-001, -4.9010644704835904e-002,
          4.2947298325418191e-003, 6.6694374226303019e-002,
          1.1519081075898299e-002, 1.8629810475113459e-001,
          -6.3662985869995664e-002, -1.2709259806587056e-001,
          7.1073543074594181e-002, 7.2558046254836236e-002,
          1.6598702480879887e-001, 3.3000379197960461e-001,
          -1.4090503269841598e-001, 9.5436933775311622e-002,
          2.6290270181577133e-002, 1.6956262089399021e-001,
          -2.0080595893972550e-001, 2.8319762069586779e-001,
          -1.8437787796418712e-003, 4.1322871752553822e-002,
          3.5767706321767019e-002, 1.1182861981169277e-001,
          -1.2298538135345746e-002, -3.4845538956860089e-001,
          4.4761744060627197e-002, 4.7843934423126046e-002,
          -6.2730408278051486e-001, -9.9697914787455294e-002,
          -4.6361872272512143e-002, 1.6085970640729386e-001,
          7.6144297137002007e-002, 1.1270881466531736e-001,
          3.1373937834668561e-002, -1.0708818795525954e-001,
          2.9317719478706644e-001, -2.4080047961450055e-001,
          -7.9233893507347202e-003, 2.0911669537022187e-001,
          -4.8099447391785462e-002, 9.8117971557033959e-002,
          1.3029147766730842e-001, 1.2775346319044603e-002,
          9.0863290422509999e-002, -2.2745918642109626e-002,
          1.7007082294997281e-001, 1.4119051843461241e-002,
          1.3873175600129578e-001, 2.4631752976960790e-002,
          1.3506925932281507e-002, 7.2303081324331334e-003,
          -1.1923093774494296e-001, 7.6792976372256336e-002,
          9.4293476719797792e-002, -8.3546779335307436e-002,
          -2.2539683437676920e-002, 2.0178893489701089e-001,
          2.5796268943618986e-002, 9.0063843462617879e-002,
          -3.7453266003875725e-002, 1.4148077768729214e-001,
          -5.7756617661606204e-002, 5.5845468321386142e-003,
          6.2698335534462218e-002, 1.5354126388967160e-003,
          4.0237620964267501e-001, -1.3646754168673461e-001,
          -5.8236645410537635e-002, 6.0599333231216343e-002,
          2.4406645349204149e-002, -9.5244446225680374e-002,
          -1.8889302835138552e-002, 1.0650484203682099e-001,
          -2.1646168439948394e-002, -4.0914454532191552e-001,
          2.8768274579340003e-002, -2.6843951195197325e-002,
          3.6879813694737673e-001, 1.6607846185160476e-002,
          1.0290456318787543e-001, 1.6101966522062799e-001,
          -1.5174749051876102e-001, -2.8683583400191798e-002,
          4.3296897094148953e-002, 9.8546330432656370e-002,
          -3.0424463620877645e-001, -1.2396215736632997e-001,
          6.5917752360966406e-002, 1.0152869654114384e-001,
          1.3489287835691080e-001, 3.1652408759341821e-003,
          -1.2751379821362571e-001, -2.2844529219717309e-002,
          1.8598654679976559e-001, 4.0605107588787027e-002,
          3.9356556754095123e-001, 2.1532729486191955e-002,
          7.7890874893597584e-002, 6.9798220796382121e-002,
          -1.2480556001256648e-002, 2.2681262305581248e-002,
          -5.4671026542823319e-002, 1.5134803920219003e-001,
          4.3586158493893155e-002, -6.4042277127935809e-002,
          -8.3066430576320738e-002, 9.4334772541245615e-002,
          1.4750679557045129e-001, -1.1008626417264383e-002,
          -3.9929214703352041e-002, 9.6332617880921789e-003,
          -1.2211250055103179e-001, -1.9745931103121545e-001,
          2.4058686521330505e-001, 1.5796529254557343e-001,
          1.2491120066286375e-002, 7.5132467490801963e-002,
          3.5266812160352590e-001, -2.3341273084950936e-001,
          -3.2427053377234678e-002, 1.0958793145054838e-001,
          -1.1718534773462039e-001, 6.7974267504318980e-002,
          6.9512341847496051e-002, 1.0329433457680975e-001,
          1.9978015143762506e-001, -2.6315732556269961e-001,
          2.7802602073159162e-002, 1.7445573892795815e-002,
          -1.2342497228403446e-001, -5.8570892754890407e-002,
          -1.5769100821462809e-002, -2.8322141021022405e-002,
          2.8595106519992409e-002, -5.9751681552047603e-002,
          -6.8498220302348659e-002, 1.5943442132100107e-002,
          -5.9158829556715024e-002, -1.2913587530829862e-001,
          -1.4074591013804749e-001, -4.0066270348802675e-002,
          5.6763726999633342e-002, -2.1038372814579830e-002,
          -5.2468599689339757e-002, 1.4389131057166987e-001,
          -2.3249270883326476e-001, -5.8987656076573323e-002,
          -1.4366338347072882e-002, 7.5073537744754837e-002,
          3.2909437829299046e-002, 6.1571372594113757e-002,
          -5.3575243060573430e-002, 6.7403491978969457e-002,
          -6.8210011841637441e-002, 4.0583783097382267e-002,
          7.2552932640746040e-002, -5.3458972530480438e-002,
          -1.0767693530923232e-001, -3.6076898169601350e-002,
          -1.1212706409492144e-003, -5.4592495030716622e-002,
          7.7480115667757032e-002, 6.0377860682205971e-002,
          -7.0516355932587774e-002, -5.1174793363229297e-002,
          1.0441108675252971e-002, 4.7394541662817986e-002,
          -1.7503099256081459e-001, 8.6456634139894975e-002,
          1.3483584026858144e-002, -9.5525071868876918e-002,
          2.9136286288710862e-002, 1.3438620350843727e-001,
          -9.6628112727064633e-002, -7.3770638569476035e-002,
          2.4913821773377476e-002, 1.5851414502603353e-001,
          -2.6864265501560203e-001, -1.4349223351904117e-001,
          1.0088204556520687e-001, -6.9866753528249156e-002,
          -2.4835593796959174e-001, -1.0710663119834113e-001,
          -7.7330422840524882e-002, 5.9102737574299034e-002,
          -1.0836489185232007e-001, -3.0016564053412392e-001,
          2.1963169408816247e-001, -3.4418841683469072e-002,
          -1.2467978141884743e-001, -8.6392373383271825e-002,
          4.6098226185463199e-002, -1.3035839523472464e-001,
          -1.7052936375631741e-001, 5.2548003651024611e-001,
          1.4155111635369155e-001, 1.9787979812996734e-001,
          3.1288785566801633e-002, 2.0307401864334484e-001,
          8.4276367104671471e-002, 1.2525027601631458e-001,
          2.8465162926238013e-001, 1.4419890871911131e-001,
          -4.7896055195603644e-002, 7.9155706480900229e-002,
          2.4081692628127824e-001, -6.7737974946398646e-002,
          5.4881637355120458e-002, -1.7656493426229217e-002,
          6.1228851142551216e-003, 4.2458877335752987e-002,
          5.9231143371094641e-002, 1.2013019689523889e-001,
          1.4049834502857916e-001, 3.5022506556848356e-003,
          1.9936756380503778e-001, 8.2935652921586903e-002,
          1.6417527492649198e-001, 8.7788062435770350e-002,
          -1.5848967496318889e-001, -6.3354144421313624e-002,
          -7.3873081860110254e-002, 3.0892309745058535e-002,
          9.6113499554634878e-003, -1.7812056311596511e-001,
          1.8738428532579413e-001, -1.3036662645806074e-002,
          -5.6356738831337605e-001, -1.5572981407676670e-002,
          6.4143075232204291e-002, 7.3816321136926294e-002,
          -1.3419242571563317e-001, -7.1283249526861311e-002,
          -1.4125346986886105e-002, -1.0633104375794040e-001,
          -8.2479835015882338e-002, -2.5700408434155497e-001,
          3.9885601987283442e-002, -6.2623135955311063e-002,
          -1.7606112549569333e-001, -3.6383607153304340e-002,
          4.8420888641411849e-002, -8.7405773018378319e-002,
          -1.3111195775935688e-001, 3.0914058967296909e-001,
          -7.9265410414200391e-002, 2.7761196099049760e-002,
          -1.7936583202039127e-002, 9.6847277751230365e-002,
          -2.8442230717203962e-002, 6.8008775305759245e-002,
          1.2984764285886866e-001, 9.3155016086046483e-002,
          -5.1999405305568729e-002, 7.5821175920751938e-002,
          9.7646635897925799e-002, -1.3029304300875871e-002,
          1.6863459115763785e-002, -3.5380693648603113e-002,
          -6.9414866451646302e-004, 1.4031010056692217e-001,
          8.8675931059257793e-002, 1.8246933992727041e-001,
          2.2465201212402371e-002, 6.9577091310963702e-003,
          1.7909161959234129e-001, 1.5232116722527297e-002,
          -1.5142706055660499e-001, 2.0783726589488122e-001,
          -1.1650870435135620e-001, -1.2104135545352014e-001,
          -4.5077450909489274e-002, 8.5835124633150087e-002,
          -2.8907176491725080e-002, -1.0153624654272635e-001,
          1.0320115341668906e-001, 5.5423661897642633e-002,
          -4.5917227997281657e-001, 9.8450441267035019e-002,
          -1.2160324000862724e-001, 5.2850900095970529e-002,
          4.9012528293952938e-003, -1.3172020753506047e-001,
          -1.0963116276223617e-002, -1.1079386972804388e-001,
          -1.9525245365818671e-002, -6.5109977623853718e-002,
          -5.6913707977359042e-002, -2.1108534293612582e-001,
          -1.0551048448393267e-001, -9.7466139060620960e-002,
          -3.1645727359603873e-002, -6.4320935428335030e-002,
          -1.6758854831405309e-001, -2.6031558798429486e-002,
          -3.1005225470915165e-001, 3.5598034857051417e-002,
          -7.4892897241877490e-002, -3.8846711599132847e-002,
          -1.0461663630950729e-001, 4.3426943109534637e-003,
          -8.8705837028862727e-002, -1.2401044250042066e-001,
          -6.4433291208222582e-002, 1.2625295123835836e-001,
          4.5151436001364322e-002, 1.9292598221163384e-002,
          2.4136277619952885e-002, -8.0523881877458584e-002,
          -4.3044491399541425e-002, 1.0881435211487810e-001,
          9.7428478973321880e-002, 1.3676377089884362e-001,
          -2.3748986217403836e-001, -7.3760868134290655e-002,
          1.0927177404587433e-001, 2.3362050060908685e-001,
          -3.6771798268398309e-001, 1.9789596545856306e-001,
          1.7316002804510438e-002, -9.6985836227133290e-002,
          -8.6175323391537717e-002, 9.5149302662269730e-002,
          -7.1012608689519169e-002, -2.0930358723871677e-002,
          2.5226596158102355e-002, 1.9741866956530976e-001,
          -1.4937532241342144e-001, -1.2756272638158925e-001,
          9.1497814403027775e-002, 2.7248698442418828e-001,
          -1.2379005529840596e-001, -1.0552693050848869e-001,
          -3.7137378823302009e-002, -1.0353143051051292e-001,
          -1.0730850928609399e-001, -2.7974469162076859e-001,
          3.9608703554871845e-002, -1.3271531475737158e-001,
          2.4913271376600113e-002, 7.6814121222922055e-002,
          -1.2393721621383824e-001, -4.2903728281449088e-002,
          -5.3352256964565851e-002, 1.3552987095983152e-001,
          7.4579395277407270e-002, 1.7345487253348543e-001,
          -1.4072526207854189e-002, -1.2772172628952395e-002,
          -5.7868843198263346e-002, -5.8808147962611012e-003,
          -8.9853462275346716e-003, -1.2000066163099896e-001,
          -2.8118561406106139e-002, 1.1748754722982338e-001,
          1.2531379645618507e-001, 2.4543367083550996e-001,
          1.9296777005279100e-001, -6.4040619029254356e-002,
          7.0301728605969213e-002, 2.5948463371224850e-001,
          1.8346155195074359e-002, 1.0412707002666528e-001,
          -3.7827618107161953e-002, -2.1417625997510372e-002,
          2.8214646028002061e-001, 2.3245312168811669e-001,
          -8.3243039638347685e-002, 1.0980535857770085e-001,
          -3.8214434760485437e-002, 3.3047849794304210e-002,
          -2.1858070227114412e-001, 4.6095503098855087e-002,
          6.4863497921010455e-002, -8.0204758968659792e-002,
          8.8542549499495207e-002, -3.5020594257454955e-002,
          -3.9229789532993234e-002, 3.5463593713464414e-002,
          3.7638436817658015e-002, 1.2170772820340783e-001,
          1.2055362006587135e-001, -1.9995749619531816e-001,
          7.4640181593726110e-002, 6.3347555619528317e-002,
          -3.1772461658006530e-003, 1.3125392434707239e-001,
          -1.7910978848343023e-001, 3.6938889709710689e-002,
          -2.1833355590495818e-002, -8.0023251927125894e-002,
          -6.1817384627822866e-002, -2.0967521376946227e-001,
          1.4450936855524554e-001, -2.3935290081642449e-001,
          -1.8919723423178597e-001, 1.7230190514509105e-002,
          -1.0289320696249035e-001, 1.4074697308941590e-002,
          -1.8523796889980357e-001, -8.9396424160733304e-002,
          -2.3815568256429220e-001, -1.5192815785144376e-001,
          -6.8403868206784232e-003, -1.5404019608811459e-001,
          2.7609944690630953e-002, 5.7962233681994040e-002,
          -4.3578612319722515e-002, -8.2186265139312514e-002,
          2.8910937178453219e-002, 1.7015741990674363e-001,
          -9.1051645708714029e-003, -8.4067104219237743e-002,
          -2.3368108060170322e-002, -6.1410144541405212e-002,
          -1.1427292535558035e-001, 1.5480279562020732e-001,
          -3.6666280845700705e-001, -3.0929078573537955e-002,
          -2.6430724147758086e-002, -4.7742616778877797e-002,
          -1.6246198414606394e-001, 1.0026866428626686e-001,
          -6.1319663984651059e-002, 2.8413247738667966e-002,
          -1.4370234198052020e-001, -1.1950852976893792e-001,
          7.0999320153652110e-002, 1.5695073146246055e-001,
          -8.8429373895706445e-002, -4.7990803286171210e-002,
          5.3779840124457426e-002, -1.8385204588325338e-001,
          3.4102048125133524e-002, -1.0743288188039124e-001,
          -3.0048086275983655e-003, 1.5326962923147266e-001,
          -3.3045530716249473e-002, -1.8224149934226871e-001,
          -1.0397145561316333e-001, -1.3398330700168504e-001,
          4.4902465348112139e-002, -2.4386564966005799e-002,
          -1.0627152335761851e-001, -1.3292492288532659e-001,
          -2.6795509784730176e-001, -1.0398539590327503e-001,
          -1.9557323365897206e-002, -2.7048294214508526e-002,
          -1.1084365001417211e-001, -4.8520235348676520e-002,
          -1.2454597700369222e-001, -5.7750971044611271e-002,
          -2.5629939499424544e-002, -3.1988757661203819e-003,
          -3.4355914156650250e-002, 1.7441273039139390e-002,
          -5.0956655911354440e-002, -2.0377181550882553e-002,
          -2.4091042124264592e-002, 3.5412934546079113e-002,
          1.0237987641351924e-001, 4.9371071357191598e-002,
          -2.5090514087737542e-001, -6.7741874063401250e-002,
          -9.3965160548583268e-002, 2.7698138537799971e-001,
          -3.9357308994506024e-001, -7.2442505203307271e-003,
          5.1047855357932430e-002, 4.6035450589942413e-002,
          3.1374684009788698e-002, 1.1592295066915211e-001,
          -9.9969525445551044e-002, -6.7674462708703517e-002,
          -9.3539751625453249e-002, 5.5446467983601144e-002,
          3.3216386591327418e-001, -3.6056188766391092e-002,
          -1.6009978659628668e-001, -1.3342490412798438e-001,
          -3.4137035290621093e-002, -6.7833485470886815e-002,
          3.7082758041201050e-002, -5.1390951909576821e-002,
          4.2920424449240720e-002, 1.3080121924754318e-001,
          5.9796164956181432e-002, -2.1664146194633768e-001,
          -1.0455728275709714e-001, -9.2647089299443985e-002,
          5.3437803409394649e-002, 1.2283135316870458e-002,
          -1.6918302106327801e-001, 1.7808393326537977e-001,
          -1.9804504882185553e-001, -3.0034269203912344e-002,
          -2.4065122009291069e-002, -3.6997268018208976e-002,
          3.3239769447055034e-002, 2.6122775955080380e-002,
          -1.7568145336175085e-002, 3.6726027656854017e-002,
          -8.6035077860427842e-002, 3.7304342291390229e-002,
          5.9801903479078308e-002, -8.2115456984572996e-002,
          -6.6991751232759796e-003, -5.2818063200718815e-002,
          -7.3776784464066776e-003, -5.0299941623614369e-002,
          1.1519092773288082e-001, 1.0576763322297043e-001,
          -1.9842033182431143e-001, -1.0441945155654443e-001,
          1.0819589475207584e-002, 2.0978720222814354e-001,
          -2.4863094919258036e-001, -1.5079425257680764e-002,
          8.5629719826997269e-002, -2.4044851558575959e-002,
          5.6586685158028158e-002, 7.1279824945110357e-002,
          -2.7380420956894573e-002, -3.7771844285042572e-002,
          -3.7816502371218121e-002, 1.5689988128687493e-001,
          -8.1155345860928568e-002, -1.0032673733154707e-001,
          2.4722151613598791e-002, 1.4537276697428297e-003,
          -1.8329861796233521e-001, -6.0745160880338739e-002,
          -3.3878496962295502e-003, -4.4264638901533294e-002,
          -1.8109540694866375e-001, -2.7441628474223390e-001,
          1.3097903748709613e-001, -1.4329958769975684e-001,
          -1.4406515701787376e-001, 5.1208545797525686e-002,
          1.3914259680217048e-002, -6.0040699827923136e-002,
          -5.6073681235303624e-002, 2.9450532621399511e-001,
          1.1856167686417687e-001, 8.1094486571578875e-002,
          -4.7702190593847497e-002, 2.0208953816810168e-001,
          2.6520977353202257e-002, 2.3054332056502577e-002,
          1.9949601476625339e-001, 1.7011562834366190e-001,
          -7.6660510860063785e-002, 4.4956614833264026e-002,
          1.7524142035503068e-001, -2.6019774705790498e-002,
          -1.6810742105340275e-002, -1.3582183987626083e-002,
          1.0862061816930432e-001, 1.2263042549809959e-001,
          7.5886176864426363e-002, 1.3337834091450471e-001,
          7.6335046829532367e-003, -5.8338841989957910e-002,
          1.3331740737466755e-001, 7.1454480908883563e-003,
          5.4496766145339832e-002, -6.7184056615686355e-002,
          -7.8153931361232901e-002, -6.9612689837075553e-002,
          -1.0344918141817913e-001, 1.3247018644058800e-001,
          -7.6217528943898589e-003, -8.9005678413121195e-002,
          1.7211178891988055e-001, 3.6959846733865410e-002,
          -3.6864385982114245e-001, -3.9634741409680381e-002,
          1.0379483392324129e-001, 5.1600777312740938e-002,
          -1.7156752516467991e-001, -8.3756192680271874e-002,
          -1.4778756605713006e-002, -8.8453476031241998e-002,
          -4.3372540520793111e-002, -2.8223147172822943e-001,
          9.1775539100797582e-002, 5.1338918798834725e-002,
          -2.2422338383516305e-001, 2.7257698866341482e-002,
          1.4920474529451419e-001, -1.2080195671759901e-001,
          -9.3991751775689060e-004, 3.2204571291976553e-001,
          8.3188370374947543e-002, 3.5059979524966062e-002,
          3.2709579037112912e-002, 1.2076036354535287e-001,
          9.4875654846455458e-003, 8.6189737278890594e-002,
          1.8705840901427717e-001, 1.6346027659360948e-001,
          -2.2587987265312130e-002, 9.1716115342604279e-002,
          1.6007276428410044e-001, 1.1866227004765015e-002,
          -3.8801714455828783e-003, -1.4721914289407816e-002,
          7.4641355782371688e-002, 1.8909473184818071e-001,
          7.3230777183569157e-002, 1.0103132797409993e-001,
          1.8116882132598273e-002, 6.3663350343745187e-003,
          1.6155613366440633e-001, -5.7413428765205936e-002,
          3.9934904512826707e-003, 2.6192217030225769e-003,
          -1.1019576539804145e-001, -6.3270896094283741e-002,
          -4.0377589865649037e-002, 7.7158862412573970e-002,
          -6.3046388491213856e-002, -1.7180731198963969e-001,
          1.6640332186943957e-001, 2.0122594471403625e-002,
          -6.5278563317250615e-001, -8.6610075786898846e-002,
          5.7694632734997411e-004, 1.0054422811958974e-001,
          -1.8731828655323371e-001, -7.4557001210318691e-002,
          3.6125135018545813e-002, -6.4349873228640914e-002,
          -9.1490221090017920e-002, -1.9940971523803705e-001,
          1.2390504345102522e-001, -6.1688872916950632e-002,
          -1.8693613930381425e-001, -6.8518828797641942e-002,
          9.2115970518700768e-002, -1.1571057354360913e-001,
          -1.0524631933552893e-001, 3.6605666331348907e-001,
          -1.3858117661112429e-001, 1.2040950089178951e-001,
          -3.9547420296477974e-002, 1.0790413832739160e-001,
          -3.5466722517077370e-003, 2.0340016853392862e-002,
          8.1091858603805717e-002, 1.1570192755655961e-001,
          -1.0196574255863397e-001, 1.2933280259753396e-001,
          1.3074294519502103e-001, -4.5537853031578984e-003,
          -9.6550759032784563e-003, -3.8664485240233769e-002,
          7.1937383511248967e-002, 1.4409694831456180e-001,
          5.7787161369469472e-002, 1.2970780053784675e-001,
          -3.5062285355440571e-002, -2.3596934486518645e-002,
          2.0636498521621729e-001, -6.8273573615190222e-002,
          -1.2015211364622530e-001, 1.7388582851772183e-001,
          -1.6908336375008448e-001, -1.3072987888509705e-001,
          -1.0620596837351957e-001, 6.1329684036516993e-002,
          -5.4066004459481842e-002, -2.5793073436359018e-002,
          1.3745776321945713e-001, 7.5072217299309921e-002,
          -6.5567405590838990e-001, -5.3889048096216273e-002,
          -4.4764243782643091e-002, 1.0807096800615808e-001,
          -2.7659683196671933e-002, -1.6126324391559987e-001,
          -4.0935092617453435e-002, -9.6609359306255332e-002,
          -1.0372529685520947e-001, -2.8504822325616108e-001,
          6.3198394974250477e-002, -1.1523923532504925e-001,
          -1.2636760621737594e-001, 1.3009988272623774e-001,
          1.0355944106349967e-001, -1.4300675724347145e-001,
          -1.4442288166129127e-001, 6.8354644522500507e-002,
          -1.0949725319940967e-001, 1.0925683529575698e-002,
          -9.2771272045237732e-002, 1.5974776228084039e-001,
          -1.0621620913196402e-001, -2.5077674133450724e-002,
          -9.6124906140822124e-004, 1.1862538491700832e-001,
          -1.1572399178767002e-001, 6.5779153254754696e-002,
          -1.9171876306751913e-002, 6.0612503205626993e-002,
          -1.0189154500628592e-001, -8.3342644167611557e-002,
          4.3719135123433873e-002, 1.9511811020963946e-001,
          6.0933877109024537e-002, 1.9559302135385354e-001,
          1.7268097884334558e-003, -3.5520673111320546e-002,
          1.5403739433409713e-001, 6.4322702120497163e-002,
          -2.6250177217963938e-001, 2.8897289929676201e-001,
          -1.8821663603777175e-001, -1.6081737753351230e-001,
          2.8102123909406551e-003, 1.4500087652040350e-001,
          -1.3476263191135843e-001, -1.0607925180963060e-001,
          1.4489674070084357e-001, 6.4809836799317566e-002,
          -9.5149748429318315e-001, 1.2974776161356685e-001,
          -4.3749012527169215e-002, -4.6478259550374254e-002,
          2.7480688896770922e-001, -8.5181429041230980e-002,
          -1.0714166496385386e-001, -3.3097438358313425e-001,
          1.7434374928906279e-001, 3.6036169528577801e-003,
          -2.8496483742483838e-003, 2.0898470922962611e-001,
          -2.0564588184774032e-001, 1.0852098149471444e-001,
          2.1069326760780643e-001, -9.7793553206628650e-002,
          -2.2241021958929805e-001, 5.8294028498821981e-001,
          -3.0414256920165927e-001, -6.8348328802135247e-002,
          -2.0893015115445994e-002, -9.6576383536851038e-002,
          5.3659570542147456e-002, -3.6540546588330715e-004,
          -1.6128132721902805e-001, -5.3897128476917626e-002,
          9.4782726337722615e-003, 5.7506728538786342e-002,
          5.7377706370809710e-002, 2.6457360323641649e-001,
          -7.0808102929100114e-002, -9.7144789684326834e-003,
          1.2757636545429554e-001, 4.1152111501522365e-001,
          -1.0097824525238728e-002, 1.3073481996268063e-001,
          6.9249337131348093e-002, -5.1609924355351937e-002,
          1.0262401658033395e-001, 6.5708314563597938e-003,
          -4.9039184591933332e-001, 2.8599410542002640e-001,
          2.9726758514723242e-002, -4.2005825508497435e-002,
          3.0624547513311309e-002, 5.6575948264921246e-002,
          -2.2047175200573661e-002, -5.9245174087616270e-001,
          -5.9844511622200100e-002, 2.7003262523455005e-002,
          -6.1628862368005433e-001, 1.8982941543233756e-002,
          -1.2845631795554677e-001, -1.8375123523331274e-002,
          -8.1434674462862110e-004, -1.4111040698532518e-001,
          -2.2583437343870451e-002, -1.0304659400944249e-001,
          -1.1809273460931143e-001, -2.5790382400759726e-001,
          2.1707230579911851e-001, -5.7338599816802949e-001,
          -8.7981863839679209e-002, 2.4252802671231410e-001,
          -1.4245343816903039e-001, -6.3542684828409426e-002,
          -4.9540976852402684e-002, 3.5502581793965626e-001,
          -6.5596671543211832e-002, 1.3075624648295567e-001,
          -4.1808404572675782e-002, -9.1527125268119111e-002,
          -5.5360191933630731e-002, -1.3470338515001948e-001,
          -7.6548174495935678e-002, -5.6326631734706346e-002,
          -6.7141231170700075e-002, -2.0675296587362108e-001,
          7.6405099772750049e-002, 1.2686783831944026e-001,
          -1.3191585687005795e-002, 1.3287120706243205e-001,
          -7.5605308225444270e-002, 3.5177007089316925e-001,
          9.5677577393644131e-002, 3.3448840739156778e-002,
          -2.4727410216558954e-001, -8.4245269140547377e-002,
          1.2290352121527606e-001, 1.8037720301083155e-002,
          -8.5891801513020949e-002, 7.9170645538387541e-002,
          1.2220301136229618e-001, 5.0603528428113220e-002,
          -6.1633337027804051e-003, 8.9097859113482752e-002,
          -2.1605476065978282e-001, 1.8797883220737854e-001,
          -1.1931630784524125e-001, -3.0541552625441105e-002,
          4.0252725266587425e-001, 1.2773979597100357e-001,
          1.3051065242077069e-002, -3.5572033762561038e-002,
          2.1618619538461687e-002, 5.9788823248431440e-002,
          -7.1470007911979092e-002, -1.1289882050007632e-001,
          -4.7237750678808072e-003, 1.0835478982003260e-001,
          1.0600267310768502e-001, 4.6951064295248834e-001,
          8.0546514865190516e-002, -3.4297559818495076e-002,
          -1.1572234339597778e-001, 8.3283695767732716e-002,
          -7.8818458005122188e-002, -2.0867006475490152e-001,
          -1.3927213225191115e-001, 5.8105975660932632e-002,
          -1.0835235205750532e-001, 2.5021255550426363e-001,
          1.7599230620099809e-002, 8.4529991955394984e-002,
          4.4724821277507883e-002, 5.7591039377542258e-002,
          -5.3031062309919649e-002, 1.7689826328319863e-002,
          3.6118479747809351e-002, 1.6773262800311312e-001,
          7.3572049988081714e-002, 7.7728066587519823e-002,
          -7.6269044050023979e-002, 7.0640676470263328e-002,
          -3.9932919984413069e-002, -3.8118886956148741e-002,
          3.3301043116838146e-002, -2.5912399682011377e-002,
          7.9696451491409637e-002, -5.3076888334241323e-003,
          -1.9561774490516576e-001, 2.1902492279730648e-001,
          4.4492615140502871e-004, 1.5058591663908860e-001,
          5.4774177077254516e-002, -1.5903194561398667e-001,
          1.8121174867583186e-002, -3.1431500834106563e-001,
          -7.6190924159415280e-002, -1.7416018448550067e-002,
          -5.1324062376697532e-001, 5.6451373356474585e-002,
          -4.0302665427367851e-002, 9.8071603477451336e-002,
          -8.8878761347194815e-002, -1.4427315862232043e-001,
          -1.6259134293188933e-002, 3.5176434489410185e-002,
          -1.2278835307252005e-002, -2.4439315537910689e-001,
          4.6058287654873846e-002, 3.6015348088698448e-003,
          -4.3258296885932433e-002, -5.7810752868869157e-002,
          1.6141044273162664e-001, 2.6273424208093074e-002,
          1.4439899074707022e-001, -5.8969874531615007e-002,
          1.4737917972731862e-001, 1.5455120004142903e-001,
          5.7580153099518687e-002, 1.6663892039360167e-002,
          -7.1234011956782602e-004, 7.5937286523702976e-002,
          1.0908516528962400e-001, 1.0944786896183084e-001,
          -9.4768516383588377e-003, -7.5719892300729189e-002,
          1.6126417321121486e-001, 1.6633862218203421e-001,
          6.6009210492167653e-002, 2.3501450190785261e-001,
          -2.9379259290739153e-002, 1.5706148101179507e-001,
          -3.9815732769692955e-002, -1.3821518814379641e-001,
          -2.1091009693610132e-002, -1.1470731584170855e-001,
          -3.8814360255696498e-002, 9.3245666036550622e-004,
          8.3928654595617172e-002, -5.0884430122268634e-002,
          -5.0239805060626141e-002, 6.9309294866196455e-002,
          -2.3232111299677890e-002, 2.9406778697208301e-003,
          -7.6335246889567984e-002, -1.0077069274279975e-001,
          5.0292158975646269e-002, -2.1653181622778492e-001,
          -5.1469282672195349e-001, 5.6407106451726502e-002,
          2.5139666608285646e-002, 2.1591521695413243e-001,
          -3.8811590546524548e-002, -7.2430735274028255e-003,
          -5.9431466597714130e-002, -8.5715471216304545e-003,
          1.3532502450129820e-003, -1.1318420233889678e-001,
          -5.1509057889570713e-002, 4.7826077774141218e-002,
          -5.0586096975343157e-002, 7.2658575279919068e-003,
          5.7025307153043082e-002, 2.8342199001931835e-002,
          1.3771373112251473e-001, -1.4778483424944652e-001,
          9.8727432289048359e-002, 6.7020764970982328e-003,
          -3.7324600610054992e-002, 1.5686071828432219e-001,
          -7.2479116111548753e-002, -3.7613865816606669e-003,
          9.4891573144593108e-002, 1.0826257033016075e-001,
          1.2980437840765914e-002, -6.6527765847396211e-002,
          5.8517063305142725e-002, 1.5888669285790988e-001,
          -2.0099105596964786e-002, 1.7609723060163068e-001,
          -7.3312784878266396e-002, 4.1659463942474946e-002,
          -5.2448418748798305e-002, -5.6472589018738313e-002,
          -2.7528609417587360e-002, -1.3179783143922527e-001,
          1.9794667836973409e-002, -1.2853669899912010e-001,
          -2.7896088070201545e-003, 5.1579542060846938e-002,
          -9.7141473995773137e-002, -3.7831389836150212e-002,
          3.9382681456981178e-002, 7.0707423738372056e-004,
          -1.2227719132570956e-001, -1.4824803315171775e-002,
          -6.6852169637454467e-002, -1.2160524855511941e-001,
          -6.9722693931836749e-002, 1.3482987500263158e-001,
          7.1228528743405017e-002, 1.0410603279899615e-001,
          5.8089694896895444e-002, 1.8490507703279851e-002,
          -8.8117462243991931e-002, -6.0480028125853152e-002,
          1.7262735291176504e-002, 7.0732312543852094e-002,
          -8.2767097449370469e-002, 4.0427478164775571e-001,
          -1.6384497913897424e-002, -8.5194345439359664e-002,
          1.0228530887958105e-001, 3.6436283997288925e-002,
          6.0706992916758275e-002, -2.3304909533318585e-001,
          -6.0767426809844663e-003, -3.1078061344174659e-004,
          -6.0049403333185411e-002, 1.2058879547851530e-001,
          -3.3821088383145535e-002, 6.0288327855623956e-002,
          8.5441268609378798e-002, -2.7560395637962358e-004,
          -1.2445565479559873e-002, -4.5252421562501581e-002,
          6.1427286364888679e-002, 1.4337060597951151e-001,
          -6.6995519855127098e-002, 8.1135026570828606e-002,
          3.0322581679934815e-003, 9.7371781838850677e-003,
          -8.1969239953451206e-002, 5.2536512179047222e-002,
          -2.3542878686555649e-002, -1.3745099951751127e-001,
          4.1258806903616038e-002, 6.2016194736597474e-002,
          -2.0144838660025199e-001, 1.7264277982974569e-001,
          -6.1967989656731726e-002, -2.1836192537348482e-002,
          7.5341963931624720e-002, 1.1722826680449022e-002,
          -8.4816697499920185e-002, -3.7579655945263568e-001,
          -5.7928961137895016e-002, 1.3155346749201649e-002,
          -7.6910124127513824e-001, 1.7023668874032123e-002,
          9.7394156014849395e-003, 2.0173522345384395e-001,
          -7.2003896470092310e-002, -7.0917753387452986e-002,
          -6.5698160006322739e-002, -1.2161505575136299e-002,
          -4.6503874967471555e-002, -2.3846979322916542e-001,
          -6.2647882946928857e-002, -2.8642213062515082e-001,
          -1.1193698116107051e-001, 6.8786426299432310e-002,
          7.4918497604971282e-002, -2.4312714182829123e-002,
          1.6793867635150322e-001, 1.7923801785810645e-001,
          9.5425673349484347e-002, 3.3288264472493091e-002,
          1.7380210676701910e-002, -2.0037459137502128e-002,
          -1.0852604244596151e-001, -3.7741510994086507e-002,
          3.9076106685865204e-002, 2.3310225987035280e-002,
          2.2981948023637400e-002, -6.7671496207828960e-002,
          2.2478848454740175e-002, 8.7101603048721790e-002,
          -5.4405905440474023e-002, 1.6577528986066034e-001,
          -3.2987013424373900e-002, 3.8521750307190232e-002,
          -1.7864813376531539e-002, 6.1858604625254512e-002,
          -6.3688418320004686e-002, -1.2894076852327935e-001,
          1.3947840757220320e-001, -2.8529602636228366e-002,
          -5.4024311469195951e-002, 5.0217384278943358e-003,
          -3.5665641322036805e-002, -8.9743307844698458e-002,
          2.0497495905090004e-002, 9.9535675290622488e-002,
          -1.3400802822409846e-001, 5.4659487040219869e-002,
          1.4700565254818252e-002, 3.0834993358183549e-003,
          -1.9713125114196070e-001, -2.0049713455547002e-001,
          -1.7560063012442667e-001, 5.2603962012364051e-002,
          -2.5289898551120454e-001, -2.1958108588753486e-001,
          3.1501089461807866e-002, 1.2803040272583288e-001,
          -1.9489619963496183e-001, -2.3548230145249771e-001,
          1.6937556923376806e-001, -4.9498004890343317e-001,
          4.2165619092147728e-002, 2.9173417950876357e-001,
          -1.6331287811566420e-001, 5.9205837323683182e-002,
          -9.1491016242273571e-003, 2.4039510805033765e-001,
          2.4084195177865481e-001, 8.8301554182408384e-002,
          4.5521558429366366e-002, 1.0194021514134705e-001,
          -5.4336332974268764e-002, -5.5422957122243488e-002,
          7.8112275864560266e-002, -5.4656901176340568e-002,
          3.6206544927948350e-002, 7.7072963306068221e-002,
          9.6835272779335277e-002, -1.7014636939230077e-001,
          1.8063563498632965e-001, -4.8533874058439709e-002,
          9.2221641672623096e-003, -9.1997129476601741e-002,
          4.5211477267978230e-002, 2.9083123340699870e-002,
          -2.1051856299801747e-001, -1.9221906305732042e-001,
          3.7687753645661531e-001, 2.2934941599457907e-002,
          2.5369585113725535e-001, 6.6666874537212623e-002,
          4.6150402537407341e-002, 2.1273897509480680e-002,
          -6.5517618305519672e-003, 8.4500460820045226e-002,
          -1.6379776311521965e-001, 5.6413156613866622e-001,
          1.1222108180028963e-001, 1.6145362375525696e-001,
          2.8942598402286956e-001, -7.9857809667068985e-002,
          -6.1542886031725877e-002, 6.5330974295006415e-003,
          -1.9859297701131867e-001, -1.1920499428843064e-001,
          -7.4556138851500703e-003, 4.9321912292839977e-002,
          -1.5023481145016335e-001, -3.9969198476207127e-002,
          1.0440850005995844e-001, -4.0050095393391251e-002,
          9.4825009226132684e-002, 5.8047378512351443e-002,
          -1.1930371227306169e-001, 8.6306652516502838e-002,
          -5.8767105543153425e-002, 3.9097616073507369e-002,
          1.1849409661265964e-001, 6.2640803242610038e-002,
          -1.8399811766493638e-002, 2.4157289497744716e-001,
          -5.0309881681738451e-002, 9.9046598738429807e-005,
          1.2970218805324563e-001, 7.4575659451074069e-002,
          -3.8325866128580542e-002, 6.3720440014081364e-002,
          2.7251328938867860e-002, -1.1322749174623803e-001,
          1.1606293630438637e-001, -1.8812567314399894e-002,
          -3.5826801067070868e-002, -2.2860034131053522e-001,
          1.1303027509812764e-003, 5.6401306445996606e-002,
          -8.9253632404281302e-002, -1.3741729987518053e-001,
          2.0580655442736268e-001, -6.4376707370731617e-002,
          1.5562021971738757e-001, 1.8910325136002837e-001,
          -2.5024902738632344e-002, 2.5538336003752592e-003,
          2.5413294177763567e-002, 1.4088533896830012e-002,
          -9.3426562960304424e-002, 2.1020343755944831e-001,
          4.1652399964516702e-002, 1.3477055783399339e-001,
          -1.2827778299554775e-002, 8.2748712383409487e-002,
          1.0665113434041534e-001, -1.4787854580436899e-001,
          2.1381060269121024e-002, 6.4346043426715474e-002,
          3.9473329308312509e-002, -9.5992197006662783e-002,
          1.3256972089144095e-001, 3.4502880574575157e-001,
          5.1812682684905652e-002, 7.6068085174645839e-001,
          -1.5939746576364457e-002, -1.8993286144398319e-001,
          1.9736465385718510e-001, 9.5247786409621713e-002,
          -7.1760018085034419e-002, -8.7159446800960008e-002,
          8.4949458850583234e-002, -5.1194526490976465e-002,
          8.8405074758029917e-002, 1.8493884205781727e-001,
          1.1966038011831255e-001, 9.4427363620748869e-002,
          2.1114862656761352e-001, 1.9113536264599112e-001,
          4.8553264521818636e-002, 3.9169338207724044e-002,
          2.0564063342366847e-002, -1.0623660354652370e-002,
          -1.5930051038021097e-002, -6.2166371594371758e-002,
          5.4752571354551173e-002, -3.0635823334905499e-001,
          -1.4008409134207631e-001, -2.9370966450840103e-002,
          1.7866614698929892e-001, -4.7618269107821973e-003,
          1.6227094265002354e-002, -1.7300496827846362e-001,
          -1.2216564815734372e-002, 5.1595070431440945e-002,
          -1.6749176826148326e-001, 1.8830172180606800e-002,
          5.4421451831143650e-002, -7.3870578503664075e-002,
          1.1093813622472788e-001, -5.4889238479651703e-001,
          -1.2893415137643380e-001, -4.6304337008804118e-002,
          -1.6996800989223948e-001, 4.7130676686629104e-002,
          -6.1207763291751351e-002, 1.4472407034109971e-001,
          -9.8903101708950031e-002, -2.5633260314129767e-003,
          1.4635610688741321e-002, 9.1186016854845023e-002,
          -2.9568110948818085e-002, -1.1620009142651676e-001,
          7.1157745939750119e-002, 8.8526257557212994e-004,
          1.0608679890813304e-002, -1.7700485505951376e-002,
          9.9762769318221936e-002, 2.1168743842302259e-002,
          1.7814567050277108e-001, -1.7306226922470649e-001,
          1.3203230896586526e-001, 8.9712032608743483e-002,
          -4.4639589474823979e-002, 1.1411882103819337e-001,
          -9.9085262864910068e-002, 1.5423550591136467e-003,
          9.4481526250233157e-003, -8.7654125396657880e-003,
          -1.6623908676594187e-002, -8.9322045668741565e-002,
          6.1233719992447817e-002, 1.4946530205962255e-001,
          5.7561718666412381e-002, 1.2072677104362796e-001,
          -7.2800173497076695e-002, 4.0036369072552674e-002,
          -2.7424886476292983e-002, -1.1389696814713894e-001,
          -1.8164571736258314e-001, -1.8226893299016975e-001,
          6.4426745633880733e-002, 2.1156754170781399e-002,
          1.1531270436692694e-002, -1.0164045223568907e-001,
          1.6347031843064803e-002, -5.1786064213076620e-003,
          -1.8824229627092525e-003, 5.7073374620852040e-002,
          -1.0660428416151298e-001, 1.4902539810656071e-002,
          1.0491238588930635e-002, -5.6211579254547235e-002,
          -3.6291643963749537e-001, 6.4360512301362860e-002,
          6.0287174322195972e-003, 1.9825949118457681e-001,
          -2.0380560290525873e-002, 2.7083365555617699e-002,
          1.4551995526650367e-003, -1.9928945102363239e-002,
          4.2758570031911809e-002, -1.4894314220267268e-001,
          -4.8416620457440345e-003, 7.2124207630902673e-002,
          -8.5611328039808782e-002, -3.4767486130846022e-002,
          2.2371156124148178e-001, 1.9619823223497136e-002,
          1.6230579752558971e-001, -1.1079960723053346e-001,
          9.5410703132851118e-002, 6.1373781852990077e-002,
          -4.4501717108429893e-002, 1.4647576060138090e-001,
          -7.2983759285575212e-002, 4.4823016882134331e-002,
          6.2110130123415347e-002, 1.6375315549885874e-001,
          2.9560651812712176e-002, -6.4762546321061210e-002,
          4.9647425560911437e-002, 2.1768685531986684e-001,
          7.5415543389133568e-004, 2.1958422030337799e-001,
          -7.6775124396229128e-003, 1.4283412908053258e-001,
          -7.5780412376942011e-002, -7.4954408312799981e-002,
          -9.8482654195459943e-002, -1.4102252553653971e-001,
          4.6717121987142549e-002, -8.6665520287114994e-002,
          -7.9098184238511976e-002, -1.6671060392174426e-002,
          -4.3732620516477513e-002, 4.2898281132914488e-002,
          4.8789195894589354e-002, -1.1308626436531985e-002,
          -5.1768493003283629e-002, -1.4366413420438240e-001,
          1.9739013737909206e-002, -1.4026753498003749e-001,
          -2.1636488345482222e-001, -1.4823816151668100e-002,
          -7.2177753840295053e-002, 1.8736200288943511e-001,
          -5.0528906038455383e-002, 3.0462763707021518e-002,
          -1.1833938203654269e-003, 2.9315683668160970e-002,
          2.2763525388674464e-002, -1.2039533644632147e-001,
          -1.2436211673059442e-002, 7.2921881101104966e-002,
          -6.7298011328485369e-002, -2.1234431925293978e-002,
          2.0483237740988269e-001, 2.6981149046458441e-002,
          1.4610990461735010e-001, -1.0870625384001047e-001,
          3.4925878613357692e-002, 7.8451542010119682e-002,
          -2.4273725691314099e-002, 8.0430536402900044e-002,
          -7.6966454308990212e-002, -2.6368628170673803e-002,
          3.7069051824263385e-002, 1.7923603185245215e-002,
          -3.2996734009419097e-002, -8.3082484230647527e-002,
          1.1111071915402729e-001, 1.7136469159987444e-001,
          4.1140812168313022e-002, 1.7256269859236120e-001,
          -2.7113089336871350e-002, 8.9626202390992796e-002,
          -2.6965047953906352e-002, -6.8248334869595473e-002,
          -1.2853723775609188e-001, -1.8539439495861837e-001,
          1.2077749114482599e-001, -7.9770726128788470e-004,
          -4.7014879795633048e-002, 3.4877731526764398e-002,
          -5.4571067769730329e-002, -9.3085363423826561e-003,
          6.9284173979480182e-002, 4.2462184922662703e-002,
          -9.6767585830978525e-002, -1.3089548216846927e-001,
          4.0466330364417810e-002, -1.1034530986525240e-001,
          -2.6757131808961399e-001, 3.8748820184902423e-002,
          -4.7605810453898272e-002, 1.6752850598172161e-001,
