%YAML:1.0
mlp: !!opencv-ml-ann-mlp
   layer_sizes: !!opencv-matrix
      rows: 1
      cols: 3
      dt: i
      data: [ 544, 50, 5 ]
   activation_function: SIGMOID_SYM
   f_param1: 5.9999999999999998e-001
   f_param2: 1.
   min_val: -9.4999999999999996e-001
   max_val: 9.4999999999999996e-001
   min_val1: -9.7999999999999998e-001
   max_val1: 9.7999999999999998e-001
   training_params:
      train_method: BACKPROP
      dw_scale: 1.0000000000000001e-001
      moment_scale: 1.0000000000000001e-001
      term_criteria: { epsilon:2.2204460492503131e-016, iterations:1000 }
   input_scale: [ 1.7738069548156263e+000, -1.8410387185794774e+000,
       1.5327299584270215e+000, -2.0547559072994730e+000,
       2.3271524931954892e+000, -2.6117080638152070e+000,
       1.5486254283818437e+000, -2.0825645290602450e+000,
       2.2056005343599936e+000, -4.3533350654561564e+000,
       1.4132175798197426e+000, -2.1856833775693389e+000,
       1.5096299587880739e+000, -2.7045031343901367e+000,
       2.0175915361763375e+000, -3.9257697188225160e+000,
       1.5130087164930623e+000, -2.3495420257420845e+000,
       1.6161078783008094e+000, -2.8373168029516855e+000,
       1.9276790102664858e+000, -3.9710850211308437e+000,
       1.6995799425200613e+000, -3.2741320459356058e+000,
       1.3830665547313912e+000, -2.4419081140886707e+000,
       1.3861138990867918e+000, -2.3448221085219498e+000,
       1.4827451321658562e+000, -2.6924337823971909e+000,
       1.4730615289536251e+000, -2.4890673153663987e+000,
       1.9332337702674836e+000, -2.3108177854622807e+000,
       1.8971255323090670e+000, -1.4524593370020413e+000,
       2.1431607532099717e+000, -4.4423978794252719e+000,
       1.9388751343685768e+000, -3.3489253458355654e+000,
       1.7911032703415024e+000, -3.8886070871943224e+000,
       1.8070203453613658e+000, -4.3700551037674709e+000,
       1.7575807662679399e+000, -3.6984800346107072e+000,
       2.1064471415588644e+000, -4.9982695040067968e+000,
       2.3301791722493945e+000, -5.8012333763114166e+000,
       1.7372272596696430e+000, -3.9956482905218711e+000,
       2.2495104538403341e+000, -3.2118913961067652e+000,
       1.8457118579210237e+000, -4.4133165019411598e+000,
       1.7144622151378519e+000, -3.9655218855817793e+000,
       1.8526996399868039e+000, -4.3293676182891332e+000,
       1.6596443004358039e+000, -3.7769596471822311e+000,
       1.6473780623995113e+000, -2.0274553648201059e+000,
       2.1354671100681304e+000, -4.2963494421167177e+000,
       1.7106752118451174e+000, -1.8402823763816409e+000,
       1.5470708533365163e+000, -2.2326599823011613e+000,
       1.5746027971379266e+000, -2.5332168085596858e+000,
       1.5398040470885226e+000, -2.0253531530886941e+000,
       1.8704911919347600e+000, -3.5745478531746220e+000,
       1.8922306265060644e+000, -3.7696259725658323e+000,
       1.7133181293737636e+000, -2.6352299532221881e+000,
       1.8037585820904325e+000, -1.8797604372352283e+000,
       1.5050376259377582e+000, -2.5013958775776715e+000,
       1.5006259422423405e+000, -2.4117161612389131e+000,
       1.4533897935163300e+000, -2.3215432021980149e+000,
       1.5196787577638757e+000, -2.3901510257039549e+000,
       1.9774001059375605e+000, -3.4376304750371767e+000,
       2.2039589004750715e+000, -4.4540555970724407e+000,
       1.7782866476003052e+000, -3.7576096717097451e+000,
       1.7859465917060893e+000, -4.2399911348088093e+000,
       2.4607161805678190e+000, -5.7091493085697858e+000,
       1.6768291340251380e+000, -3.4803239384822096e+000,
       1.7072192418524930e+000, -3.9016025565543804e+000,
       2.4428066317438830e+000, -6.0404387164419999e+000,
       2.4208925807602055e+000, -4.2622771659373608e+000,
       1.8004533856337237e+000, -4.0948550276386770e+000,
       1.6732836907527968e+000, -3.7062284480216365e+000,
       1.8551413978044986e+000, -4.2863078485957242e+000,
       1.8369926672467314e+000, -4.1235273737611520e+000,
       2.4604720286816493e+000, -5.1753046107655010e+000,
       3.6795622842779077e+000, -4.0623412655873352e+000,
       3.9940357827375790e+000, -4.2978244857407706e+000,
       3.4890405014847796e+000, -5.8444596595107310e+000,
       3.0888822975785724e+000, -1.7182836475284629e+000,
       3.7447670502332948e+000, -2.6775794523520040e+000,
       3.4429743484969846e+000, -5.2326060008616757e+000,
       2.9812278848190954e+000, -7.4088196146785288e+000,
       3.4489308438614823e+000, -3.4671347450120740e+000,
       3.4981687518204616e+000, -3.5862084222040722e+000,
       3.2910427344974820e+000, -3.8051659650417946e+000,
       3.2589606211196047e+000, -3.5040658011862584e+000,
       3.3147436862396806e+000, -3.8350405272139469e+000,
       3.6004227266143252e+000, -4.0657757676557971e+000,
       3.4775386806802433e+000, -2.1045715846526263e+000,
       3.3083767499128394e+000, -5.7658599601792142e+000,
       3.1697128577378786e+000, -5.0445047832617700e+000,
       3.3140185047951056e+000, -2.4935648692283423e+000,
       3.8791978340178122e+000, -2.0790330549480363e+000,
       3.2755292618387744e+000, -4.0834671579087356e+000,
       3.0828579293261273e+000, -3.8179112423603589e+000,
       3.3250446631737742e+000, -3.7553582175084297e+000,
       2.8637870631964040e+000, -3.4733949342932964e+000,
       4.1793817111191638e+000, -1.7555400440767055e+000,
       4.4214485564049024e+000, -3.2713386541740079e+000,
       3.5647432525676588e+000, -2.6694686258372866e+000,
       3.3741734050829826e+000, -2.7300105612256944e+000,
       3.4773710464479146e+000, -2.8096864080203159e+000,
       4.5336167206630824e+000, -7.0022263062721564e+000,
       3.5423835746338170e+000, -1.5926424949519780e+000,
       2.6042870397190194e+000, -1.0288080049317128e+000,
       3.0615880148895123e+000, -1.3953869396291567e+000,
       2.6094284805556067e+000, -1.1339058138202667e+000,
       7.8685094973000673e+000, -4.7134749582515916e+000,
       6.0142680034683975e+000, -3.6900948905515785e+000,
       9.2217710319524127e+000, -5.4946626227035509e+000,
       1.0735033056849650e+001, -6.2459056769038455e+000,
       7.9534484037532520e+000, -1.2233925143951387e+001,
       3.9653318928418568e+000, -1.0778189574543096e+000,
       2.6910585471380717e+000, -8.9268363342258716e-001,
       3.1370709002823416e+000, -8.6531649561219459e-001,
       2.9546127378945219e+000, -9.2113725746870978e-001,
       4.2214675221256890e+000, -4.9710163297375818e+000,
       6.1994129014366557e+000, -6.8113346114929056e+000,
       5.8614607708092379e+000, -2.3770633296468895e+000,
       5.2021783562281030e+000, -5.1696097723401531e+000,
       4.4856218468782965e+000, -3.3553662872818224e+000,
       2.9766081523340402e+000, -2.2908591412490620e+000,
       4.1779879737203611e+000, -2.6811147943918625e+000,
       3.4692506406030099e+000, -2.5086445100785784e+000,
       5.2272797375908198e+000, -2.1964320521204064e+000,
       5.8461769067041089e+000, -6.4903399715012515e+000,
       5.9093716574734589e+000, -1.2485734649844261e+001,
       3.8422218030629987e+000, -2.2211437014166120e+000,
       3.0927538719356842e+000, -1.9707087889766384e+000,
       3.1720313008627472e+000, -2.2542529541605179e+000,
       3.2021563488647984e+000, -2.1097784103440116e+000,
       8.1878451137464356e+000, -7.3404514775745584e+000,
       7.5264508724761745e+000, -1.5034614320899092e+001,
       4.5436923588993041e+000, -2.8940539005012478e+000,
       3.4829092733178486e+000, -2.4280878985731240e+000,
       3.7450954745812632e+000, -2.7131866505048343e+000,
       3.2013843637273820e+000, -2.3540162391901029e+000,
       8.1778804644523309e+000, -9.0043725819850238e+000,
       5.0938384530533538e+000, -3.7940585094270767e+000,
       2.8671478831751696e+000, -2.2533541952604907e+000,
       4.2273773946887561e+000, -2.8564400977152751e+000,
       3.2255351087600803e+000, -2.4751929487302449e+000,
       4.0406983329451140e+000, -6.5959560805752160e+000,
       4.2045375500371351e+000, -6.8434600458921730e+000,
       3.9594581403077038e+000, -6.0125884193783445e+000,
       3.9798528102839743e+000, -6.3033662728774509e+000,
       3.1407870230141040e+000, -7.4838881146968395e-001,
       4.1362914281140357e+000, -1.1139294364370982e+000,
       3.2405020681583103e+000, -9.0674515404279454e-001,
       2.8916221279419476e+000, -8.7773064032744108e-001,
       2.5224580739008799e+000, -7.2171459473174226e-001,
       2.3709669181029591e+000, -6.8489620742679924e-001,
       1.7690937650640444e+000, -1.8419180599606020e+000,
       1.5378210775935577e+000, -2.0636573825613227e+000,
       2.3398591877000396e+000, -2.6328071141017015e+000,
       1.5453213327738764e+000, -2.0778487903224314e+000,
       2.2021143852939211e+000, -4.3424493483567206e+000,
       1.4177182055091280e+000, -2.1834536995005140e+000,
       1.5090338964113545e+000, -2.6955870635201342e+000,
       2.0089175953086427e+000, -3.9004022912757454e+000,
       1.5116151325219005e+000, -2.3419857189289490e+000,
       1.6172941272513768e+000, -2.8326460834143146e+000,
       1.9261754905914155e+000, -3.9564625403240359e+000,
       1.6982454350171026e+000, -3.2687401861429941e+000,
       1.3813077220342620e+000, -2.4332323227462633e+000,
       1.3863357117824640e+000, -2.3391565424089324e+000,
       1.4813755196165277e+000, -2.6840724736807737e+000,
       1.4736160345863007e+000, -2.4812738447848917e+000,
       1.9420417627749975e+000, -2.3244572003454764e+000,
       1.8923666436880406e+000, -1.4572968139696130e+000,
       2.1380711639617571e+000, -4.4360044314061007e+000,
       1.9348426966513428e+000, -3.3428136905936867e+000,
       1.7874117047797791e+000, -3.8717695506981524e+000,
       1.7956975017261712e+000, -4.3331213871546561e+000,
       1.7481687303418787e+000, -3.6696173775418277e+000,
       2.0997648737423038e+000, -4.9737724080627652e+000,
       2.3133114911470853e+000, -5.7525677797306596e+000,
       1.7276853244847110e+000, -3.9679183392986555e+000,
       2.2423793907722707e+000, -3.2001255894567411e+000,
       1.8391308134931716e+000, -4.3890175464791747e+000,
       1.7056836584809349e+000, -3.9363910011194543e+000,
       1.8448936789233561e+000, -4.3044790059249509e+000,
       1.6481833902644203e+000, -3.7422819525004112e+000,
       1.6504602128940276e+000, -2.0349853983971227e+000,
       2.1262552105975163e+000, -4.2727046934995023e+000,
       1.7086157513855762e+000, -1.8395958303021520e+000,
       1.5539003460022505e+000, -2.2330760680605306e+000,
       1.5840943726831695e+000, -2.5395764984751139e+000,
       1.5450148245882853e+000, -2.0265730989939446e+000,
       1.8700129896771991e+000, -3.5662046864085801e+000,
       1.8936946246274982e+000, -3.7626546489115245e+000,
       1.7203259851834742e+000, -2.6379157559535686e+000,
       1.7969822287845107e+000, -1.8731242583980783e+000,
       1.5064138863218175e+000, -2.4983602804397798e+000,
       1.5045829328607587e+000, -2.4108202812516315e+000,
       1.4576193925205030e+000, -2.3227474984534147e+000,
       1.5239736822529195e+000, -2.3904757225882700e+000,
       1.9731498979693618e+000, -3.4303870768457982e+000,
       2.2095059678810958e+000, -4.4720076252433740e+000,
       1.7785043268000316e+000, -3.7476149115637267e+000,
       1.7811847665345963e+000, -4.2212224008882995e+000,
       2.4559066874772033e+000, -5.6925571113978366e+000,
       1.6707238625335132e+000, -3.4594951051179970e+000,
       1.7005938722842433e+000, -3.8812031057839889e+000,
       2.4355136252950329e+000, -6.0168592433182084e+000,
       2.4127231837068095e+000, -4.2517468571663155e+000,
       1.7966864462642909e+000, -4.0800762483230821e+000,
       1.6692915345905497e+000, -3.6886651968778503e+000,
       1.8507834763460822e+000, -4.2712959705162756e+000,
       1.8350392011656069e+000, -4.1100503258048899e+000,
       2.4912745788012813e+000, -5.2316029526359227e+000,
       3.6978616145808565e+000, -4.0697068189274468e+000,
       4.0333091531968277e+000, -4.3280564425291566e+000,
       3.5139267036586572e+000, -5.8778256988608302e+000,
       3.0786273859761941e+000, -1.7004899244112268e+000,
       3.7559825088436982e+000, -2.6752999237783919e+000,
       3.5037822188687433e+000, -5.3115120868823142e+000,
       2.9853594277894149e+000, -7.4097069549314005e+000,
       3.4727703927395841e+000, -3.4822462611424694e+000,
       3.5244646190638411e+000, -3.6014917961483848e+000,
       3.3101207633970087e+000, -3.8171346848163288e+000,
       3.2628094715161446e+000, -3.4985355965435021e+000,
       3.3381958950107862e+000, -3.8583891431863178e+000,
       3.6364186668936225e+000, -4.0984105369569246e+000,
       3.4995898211521790e+000, -2.1077409110646612e+000,
       3.3446994979829374e+000, -5.8258173331473682e+000,
       3.2027173352144072e+000, -5.0889449066379449e+000,
       3.3415191869590388e+000, -2.5079974122564561e+000,
       3.9236121694386910e+000, -2.1045734973669536e+000,
       3.2879842264789563e+000, -4.0929775142608076e+000,
       3.0792146602420449e+000, -3.8113553811690712e+000,
       3.3331719660680390e+000, -3.7603100724368268e+000,
       2.8662912308918842e+000, -3.4738686423834699e+000,
       4.1842151968906443e+000, -1.7674401493905263e+000,
       4.4118028971074237e+000, -3.2754365590214167e+000,
       3.5519363289191324e+000, -2.6652354444103059e+000,
       3.3577775732650363e+000, -2.7179457561552205e+000,
       3.4698460112611196e+000, -2.8069012231666179e+000,
       4.5199487642842024e+000, -6.9812899343607162e+000,
       3.5447635779686264e+000, -1.6017073137076712e+000,
       2.5873771025394174e+000, -1.0291585573336295e+000,
       3.0661997155470262e+000, -1.4045754518049642e+000,
       2.5890269515060180e+000, -1.1344043192596731e+000,
       7.8399186397826526e+000, -4.7011651124398739e+000,
       6.0102069425462226e+000, -3.6948351785106053e+000,
       9.2122361848465335e+000, -5.4871729077899021e+000,
       1.0746415458687380e+001, -6.2447973525838947e+000,
       7.9760921823560711e+000, -1.2264229893893733e+001,
       3.9531442423038321e+000, -1.0789382993378400e+000,
       2.6619951783859430e+000, -8.8799958151271008e-001,
       3.1332152003153384e+000, -8.6692089326095745e-001,
       2.9312147865992744e+000, -9.1984840942960189e-001,
       4.2089630882008642e+000, -4.9643662706957352e+000,
       6.1592915552375764e+000, -6.7708742313398123e+000,
       5.8641550962270355e+000, -2.3793862752770440e+000,
       5.2101320142358203e+000, -5.1703842780856917e+000,
       4.4740995625667956e+000, -3.3502043701683215e+000,
       2.9447182555747511e+000, -2.2737398048125197e+000,
       4.1694877486959925e+000, -2.6812185345845920e+000,
       3.4583933349892071e+000, -2.5093089470818764e+000,
       5.2196567899480248e+000, -2.1980127117491137e+000,
       5.8326467355911644e+000, -6.4789046858839097e+000,
       5.9096301373704598e+000, -1.2490817938571094e+001,
       3.8478702294650460e+000, -2.2313941918505442e+000,
       3.0790867148139642e+000, -1.9684477177732913e+000,
       3.1742003239191385e+000, -2.2585773621401222e+000,
       3.1826471644684826e+000, -2.1020832004667227e+000,
       8.1890200906888975e+000, -7.3341108155525205e+000,
       7.4920752176292416e+000, -1.4960529763995797e+001,
       4.5274419633057699e+000, -2.8823276950493217e+000,
       3.4532064210327351e+000, -2.4087752255672643e+000,
       3.7487135723406131e+000, -2.7152452029215381e+000,
       3.1783808046961890e+000, -2.3377905136877501e+000,
       8.1863583176934416e+000, -9.0151801400300648e+000,
       5.0910576652479520e+000, -3.7911333460413816e+000,
       2.8370687236457366e+000, -2.2319162689383880e+000,
       4.2157257158238517e+000, -2.8487041871839853e+000,
       3.1926787541672978e+000, -2.4525342008421482e+000,
       4.0466486661647831e+000, -6.6048657081706050e+000,
       4.2019381773346351e+000, -6.8400153933524255e+000,
       3.9590047894023281e+000, -6.0124290710482526e+000,
       3.9519822935265307e+000, -6.2603243389131551e+000,
       3.1192454219726975e+000, -7.4543500818497876e-001,
       4.1291979260462846e+000, -1.1127347691560481e+000,
       3.2097169738493347e+000, -9.0165005585615576e-001,
       2.8815598107228420e+000, -8.7765525575157988e-001,
       2.4873793136829860e+000, -7.1967050911741226e-001,
       2.3612897297591808e+000, -6.8598287899377886e-001,
       1.7650575368420676e+000, -1.8415686120389121e+000,
       1.5447541656082513e+000, -2.0749396747368114e+000,
       2.3482118060924480e+000, -2.6443355121753909e+000,
       1.5421225810820545e+000, -2.0749073082111384e+000,
       2.2046157931269730e+000, -4.3456242610123024e+000,
       1.4210113578096657e+000, -2.1830399895782895e+000,
       1.5099567679735870e+000, -2.6926990312065047e+000,
       2.0039496626815230e+000, -3.8849169619771748e+000,
       1.5082428130178500e+000, -2.3337415414794473e+000,
       1.6190806615382269e+000, -2.8314044557368354e+000,
       1.9283624484697193e+000, -3.9528886153698810e+000,
       1.6998391599585414e+000, -3.2696340627538625e+000,
       1.3800311978597142e+000, -2.4283651773758290e+000,
       1.3863420611463699e+000, -2.3362927554779600e+000,
       1.4810624483908983e+000, -2.6805176178274479e+000,
       1.4752922145631893e+000, -2.4784206120078927e+000,
       1.9493655389009772e+000, -2.3362759093976413e+000,
       1.8880980443358544e+000, -1.4593062869075151e+000,
       2.1364878485339251e+000, -4.4371847993456361e+000,
       1.9324299674885059e+000, -3.3410537638123419e+000,
       1.7827658424603059e+000, -3.8560523457029308e+000,
       1.7879599900855987e+000, -4.3079083491488346e+000,
       1.7417589318432141e+000, -3.6498968812236652e+000,
       2.0979475631564939e+000, -4.9607693967849729e+000,
       2.3001635161277103e+000, -5.7145922724706377e+000,
       1.7217874203705215e+000, -3.9499671648499923e+000,
       2.2405926948551631e+000, -3.1976321468453279e+000,
       1.8354175438531528e+000, -4.3741411062681745e+000,
       1.6992681236322824e+000, -3.9159779048382943e+000,
       1.8380759083776848e+000, -4.2849216630779896e+000,
       1.6381929310440628e+000, -3.7133989459965666e+000,
       1.6550743600632400e+000, -2.0426564924107877e+000,
       2.1217519980022232e+000, -4.2615215525619554e+000,
       1.7060206073287101e+000, -1.8394295752107042e+000,
       1.5615348063544172e+000, -2.2365950223212940e+000,
       1.5941590594815702e+000, -2.5490669171158702e+000,
       1.5487151733123643e+000, -2.0276811883164192e+000,
       1.8716612104306019e+000, -3.5629252289176527e+000,
       1.8991559741046695e+000, -3.7648258261234879e+000,
       1.7261318619186501e+000, -2.6412204371352850e+000,
       1.7887598547778267e+000, -1.8659198779329331e+000,
       1.5099264998584545e+000, -2.5009564240241855e+000,
       1.5109475997788200e+000, -2.4163602413000675e+000,
       1.4625900609561155e+000, -2.3273733779362575e+000,
       1.5295999716582960e+000, -2.3946063609842820e+000,
       1.9698637443694926e+000, -3.4254229289575209e+000,
       2.2182264544258006e+000, -4.4963157398967466e+000,
       1.7792372488525559e+000, -3.7400353910990005e+000,
       1.7791370528688031e+000, -4.2100199989673177e+000,
       2.4540622532162248e+000, -5.6836472178838644e+000,
       1.6670265533818076e+000, -3.4451513083398635e+000,
       1.6963367073460218e+000, -3.8671683663504441e+000,
       2.4315249008265294e+000, -6.0020890835714500e+000,
       2.4047848903436848e+000, -4.2398261390080707e+000,
       1.7951070111678753e+000, -4.0713249221139529e+000,
       1.6672412849071692e+000, -3.6766849886499382e+000,
       1.8492944527567732e+000, -4.2638792919463278e+000,
       1.8350543805391970e+000, -4.1007081339950124e+000,
       2.5275876140625066e+000, -5.2988558032999729e+000,
       3.7081704618868376e+000, -4.0681446898495608e+000,
       4.0771276146281483e+000, -4.3638674209665025e+000,
       3.5389192604858026e+000, -5.9104823448716424e+000,
       3.0823644033363626e+000, -1.6919305553436592e+000,
       3.7834998001510014e+000, -2.6857084479770896e+000,
       3.5677480609443513e+000, -5.3964568294760431e+000,
       3.0210984488562276e+000, -7.4913750709105544e+000,
       3.4951507707495710e+000, -3.4965915273355894e+000,
       3.5512602031614411e+000, -3.6180199437350136e+000,
       3.3323570228493886e+000, -3.8325712699255701e+000,
       3.2778893002720713e+000, -3.5062381827482261e+000,
       3.3557014378279635e+000, -3.8730944657014308e+000,
       3.6698736515160513e+000, -4.1266272095760792e+000,
       3.5217096891230746e+000, -2.1108922145225284e+000,
       3.3786260092235607e+000, -5.8788162569602944e+000,
       3.2222998138947125e+000, -5.1103441274325361e+000,
       3.3658964448951592e+000, -2.5194547483314036e+000,
       3.9449756766348032e+000, -2.1215809034475974e+000,
       3.3007427125385682e+000, -4.1019712737547538e+000,
       3.0830364541902435e+000, -3.8129719850332311e+000,
       3.3464834077545382e+000, -3.7696841254074562e+000,
       2.8680999076484346e+000, -3.4736462977063476e+000,
       4.1860523002196590e+000, -1.7758874359882602e+000,
       4.4009089696810193e+000, -3.2760696908154272e+000,
       3.5378493282260028e+000, -2.6581291805546599e+000,
       3.3450023405000211e+000, -2.7078348626836899e+000,
       3.4658974191641798e+000, -2.8069024822327826e+000,
       4.4992237097085050e+000, -6.9515345043489587e+000,
       3.5433014240635452e+000, -1.6091243717270747e+000,
       2.5689866670232751e+000, -1.0287259809972280e+000,
       3.0706607722110242e+000, -1.4134236790196966e+000,
       2.5707873631746554e+000, -1.1356034230242882e+000,
       7.8013782145795698e+000, -4.6793351920642756e+000,
       5.9961217772281028e+000, -3.6908634306939474e+000,
       9.2467359679291636e+000, -5.5105215765660169e+000,
       1.0740521339181601e+001, -6.2294930962464301e+000,
       8.0149638565915406e+000, -1.2317049057526173e+001,
       3.9379250146475604e+000, -1.0796040494691301e+000,
       2.6351903845381379e+000, -8.8430062217079441e-001,
       3.1327411561062442e+000, -8.6984157261859463e-001,
       2.9074125815676890e+000, -9.1834072465741512e-001,
       4.1923535448013620e+000, -4.9494829540020913e+000,
       6.1424318729632157e+000, -6.7551510049791608e+000,
       5.9075323823992925e+000, -2.3947421074069823e+000,
       5.2416374504251655e+000, -5.1936734437513703e+000,
       4.4611689965911916e+000, -3.3430030247520532e+000,
       2.9150164424860789e+000, -2.2568860536579050e+000,
       4.1616420208604712e+000, -2.6806523770921413e+000,
       3.4384530699809961e+000, -2.5009995336889417e+000,
       5.1976402582996499e+000, -2.1947081208829218e+000,
       5.8122527592464541e+000, -6.4557121444733232e+000,
       5.9060888375355844e+000, -1.2481569171767671e+001,
       3.8490403056145186e+000, -2.2380845938575513e+000,
       3.0643784293595728e+000, -1.9642167880572599e+000,
       3.1757635652425495e+000, -2.2614146257556844e+000,
       3.1670461036906312e+000, -2.0960729560629132e+000,
       8.1739351428647620e+000, -7.3128912801417858e+000,
       7.5248249930834730e+000, -1.5022586163005696e+001,
       4.5080898839483821e+000, -2.8719195721478199e+000,
       3.4251111324990418e+000, -2.3918584555440905e+000,
       3.7525961553422214e+000, -2.7185050313573638e+000,
       3.1638758615245695e+000, -2.3284822292057643e+000,
       8.2179604137802080e+000, -9.0540851488014269e+000,
       5.0826165786678716e+000, -3.7833791543134598e+000,
       2.8089683461047028e+000, -2.2117566847861854e+000,
       4.2009976256893129e+000, -2.8370644523655684e+000,
       3.1588959873504860e+000, -2.4270855788748493e+000,
       4.0541444450914144e+000, -6.6148490508570630e+000,
       4.2004384481726511e+000, -6.8376682391005419e+000,
       3.9629437289897922e+000, -6.0176691590189275e+000,
       3.9380519444006947e+000, -6.2388588626646611e+000,
       3.0967102692729780e+000, -7.4227624483114274e-001,
       4.1190380791024035e+000, -1.1120136218188603e+000,
       3.1795218848133140e+000, -8.9702493356475632e-001,
       2.8700914841742251e+000, -8.7640430381579049e-001,
       2.4500651178834820e+000, -7.1713687631742140e-001,
       2.3489037981125187e+000, -6.8616543006277608e-001,
       1.7658228125102149e+000, -1.8431683036430933e+000,
       1.5513311884492245e+000, -2.0846287386042657e+000,
       2.3550828545682894e+000, -2.6526097133104156e+000,
       1.5411479410677533e+000, -2.0758218675948479e+000,
       2.2018853732668884e+000, -4.3402200713711254e+000,
       1.4230676955709340e+000, -2.1818687135560251e+000,
       1.5107128610375946e+000, -2.6892005930268605e+000,
       1.9968406720626246e+000, -3.8658982958152146e+000,
       1.5095193873825037e+000, -2.3326697158725729e+000,
       1.6223688678603347e+000, -2.8325377357482004e+000,
       1.9242758519956560e+000, -3.9379670207606301e+000,
       1.6981478918303681e+000, -3.2637373447128013e+000,
       1.3788042550061217e+000, -2.4232752647295515e+000,
       1.3845300872173374e+000, -2.3309191231515203e+000,
       1.4808614669089852e+000, -2.6769056594072720e+000,
       1.4760671546312247e+000, -2.4752085373410653e+000,
       1.9645977553830165e+000, -2.3567225386196915e+000,
       1.8821881832755161e+000, -1.4590796457670230e+000,
       2.1370108298837178e+000, -4.4408700753782187e+000,
       1.9302005788709844e+000, -3.3413799550597276e+000,
       1.7796696966463443e+000, -3.8441916495116533e+000,
       1.7811906926606655e+000, -4.2853760857617287e+000,
       1.7340372899179426e+000, -3.6282032114697325e+000,
       2.0984993739286044e+000, -4.9520939692691774e+000,
       2.2940548013967534e+000, -5.6921730035041804e+000,
       1.7149677481717820e+000, -3.9306786821019974e+000,
       2.2385136920464692e+000, -3.1951497943968250e+000,
       1.8310994270110679e+000, -4.3573494763166218e+000,
       1.6930730759870911e+000, -3.8955313979768245e+000,
       1.8308340921510731e+000, -4.2631423522962484e+000,
       1.6288640751687211e+000, -3.6860993528457935e+000,
       1.6618963500588990e+000, -2.0508166948834226e+000,
       2.1247344341897332e+000, -4.2662554429349093e+000,
       1.7015962359354462e+000, -1.8395945957841473e+000,
       1.5681443040603020e+000, -2.2422736847332243e+000,
       1.6041139569712057e+000, -2.5610538838722818e+000,
       1.5535814757334434e+000, -2.0333668337194681e+000,
       1.8748975449736323e+000, -3.5645763828404640e+000,
       1.9048528552598312e+000, -3.7695067953214170e+000,
       1.7303812556159544e+000, -2.6444408239989206e+000,
       1.7816277587603926e+000, -1.8599432003086742e+000,
       1.5137749916571943e+000, -2.5054427994880246e+000,
       1.5143151965548283e+000, -2.4207193154307491e+000,
       1.4682971835894434e+000, -2.3346725317834944e+000,
       1.5364878849863417e+000, -2.4032194830249782e+000,
       1.9627764071241729e+000, -3.4129514856704168e+000,
       2.2238197190692297e+000, -4.5128268417105426e+000,
       1.7788360624645685e+000, -3.7291325735486929e+000,
       1.7758728897672065e+000, -4.1940744460751951e+000,
       2.4505095368188821e+000, -5.6684733505501912e+000,
       1.6618063493647004e+000, -3.4274748730078710e+000,
       1.6892563055526058e+000, -3.8465841557029128e+000,
       2.4231938425642374e+000, -5.9740501678444220e+000,
       2.3953690024437559e+000, -4.2242726257714009e+000,
       1.7908984192975463e+000, -4.0554458692052391e+000,
       1.6641333616442515e+000, -3.6609626717992518e+000,
       1.8467192291471199e+000, -4.2512431170409730e+000,
       1.8336703812368969e+000, -4.0887009813243598e+000,
       2.5667378786527810e+000, -5.3723458614594257e+000,
       3.7118713143619604e+000, -4.0623435800972292e+000,
       4.1022359875352361e+000, -4.3821538806284597e+000,
       3.5572511696199545e+000, -5.9328671422076722e+000,
       3.0839034949926383e+000, -1.6856378896581501e+000,
       3.7820602311803126e+000, -2.6794785078681587e+000,
       3.6171751522169369e+000, -5.4631548861802752e+000,
       3.0498763613013691e+000, -7.5563872285865203e+000,
       3.5173007841094139e+000, -3.5118925928704354e+000,
       3.5772890953923313e+000, -3.6339624022876413e+000,
       3.3611444092483631e+000, -3.8594975597262438e+000,
       3.2934949014306412e+000, -3.5130239031096542e+000,
       3.3718535463135781e+000, -3.8855955251137053e+000,
       3.6928534709680911e+000, -4.1435474352170552e+000,
       3.5359615394723360e+000, -2.1101785755683951e+000,
       3.4010982295921961e+000, -5.9105624705065942e+000,
       3.2428788559292423e+000, -5.1329354997468339e+000,
       3.3810363223438831e+000, -2.5247475852975412e+000,
       3.9635258021588018e+000, -2.1404414932754796e+000,
       3.3095195717388473e+000, -4.1057423266392012e+000,
       3.0804021872047773e+000, -3.8075359509033904e+000,
       3.3547540577543153e+000, -3.7704698090426847e+000,
       2.8669857094029250e+000, -3.4691323040038946e+000,
       4.1684762290075570e+000, -1.7779188046497829e+000,
       4.3941506810685986e+000, -3.2804929782099972e+000,
       3.5152650989391030e+000, -2.6455634129879568e+000,
       3.3254585398549401e+000, -2.6922927152687053e+000,
       3.4609125632335722e+000, -2.8076319087057842e+000,
       4.4900261184731756e+000, -6.9403461196961933e+000,
       3.5315436199652535e+000, -1.6121707012226161e+000,
       2.5458589182501377e+000, -1.0284207482076013e+000,
       3.0642164422644953e+000, -1.4194201988124207e+000,
       2.5485394771408783e+000, -1.1340423471998917e+000,
       7.6669105871209293e+000, -4.6034838772090652e+000,
       5.9205469096221792e+000, -3.6508562581423600e+000,
       9.0732694313438973e+000, -5.4105391259145099e+000,
       1.0435793305631025e+001, -6.0517450741819365e+000,
       8.0260072290227438e+000, -1.2332197191154942e+001,
       3.8962059231247812e+000, -1.0750529819496826e+000,
       2.6003061387756383e+000, -8.8015100447287609e-001,
       3.1184641436892147e+000, -8.7136010827734245e-001,
       2.8804212405750764e+000, -9.1633861669894845e-001,
       4.1838310419347708e+000, -4.9443859362367109e+000,
       6.1135617098006456e+000, -6.7246024586265811e+000,
       5.8720408952016196e+000, -2.3807829375300447e+000,
       5.2584229433833451e+000, -5.2078197199018588e+000,
       4.4284398391983348e+000, -3.3225834375527881e+000,
       2.8790953402829400e+000, -2.2365919373730332e+000,
       4.1327264418059100e+000, -2.6639973847265761e+000,
       3.4091427473797657e+000, -2.4878459448147385e+000,
       5.1426740741346659e+000, -2.1794269697570074e+000,
       5.7802114860151832e+000, -6.4221910945573839e+000,
       5.8915455533587595e+000, -1.2450706720986609e+001,
       3.8347608116387324e+000, -2.2375932029676613e+000,
       3.0412268790289971e+000, -1.9543349018337572e+000,
       3.1657076677169753e+000, -2.2592592681571033e+000,
       3.1458155593694137e+000, -2.0861409516689156e+000,
       8.1092814719658950e+000, -7.2511062731119917e+000,
       7.5170455594950267e+000, -1.5002352247729462e+001,
       4.4863012370709567e+000, -2.8607539454261022e+000,
       3.3875100726929137e+000, -2.3676989434360851e+000,
       3.7439711903917967e+000, -2.7153934481215023e+000,
       3.1372644877940545e+000, -2.3086559611344519e+000,
       8.2232647206786371e+000, -9.0657487689121456e+000,
       5.0351471961151812e+000, -3.7485042588202249e+000,
       2.7801488675550123e+000, -2.1935255538181506e+000,
       4.1744481850956214e+000, -2.8181870740745141e+000,
       3.1323924956102260e+000, -2.4090221412185273e+000,
       4.0560152760478099e+000, -6.6180391953084587e+000,
       4.1806767520857111e+000, -6.8093405767006772e+000,
       3.9589387982677748e+000, -6.0092368192192582e+000,
       3.9360482266591852e+000, -6.2382170173007472e+000,
       3.0601025523719358e+000, -7.3823559773877290e-001,
       4.0792561453464433e+000, -1.1073723830764748e+000,
       3.1434156467217389e+000, -8.9170110603007724e-001,
       2.8417715871154794e+000, -8.7562790552896397e-001,
       2.4168767865331051e+000, -7.1569461905583787e-001,
       2.3300403987396932e+000, -6.8702214927735283e-001 ]
   output_scale: [ 5.2631578947368418e-001, 4.9999999999999994e-001,
       5.2631578947368418e-001, 4.9999999999999994e-001,
       5.2631578947368418e-001, 4.9999999999999994e-001,
       5.2631578947368418e-001, 4.9999999999999994e-001,
       5.2631578947368418e-001, 4.9999999999999994e-001 ]
   inv_output_scale: [ 1.8999999999999999e+000, -9.4999999999999996e-001,
       1.8999999999999999e+000, -9.4999999999999996e-001,
       1.8999999999999999e+000, -9.4999999999999996e-001,
       1.8999999999999999e+000, -9.4999999999999996e-001,
       1.8999999999999999e+000, -9.4999999999999996e-001 ]
   weights:
      - [ -6.7584523505907323e-001, -3.3421548231388092e-002,
          2.2634442697863158e-001, 2.1156709622501421e-001,
          9.0694383608543282e-003, -1.6912386046140485e-002,
          1.9448398836408039e-002, -6.2890664141176320e-002,
          1.8225142141392164e-001, -7.9427229754475290e-002,
          -6.8536748404039505e-002, 2.1745117129859390e-001,
          -1.0243629516015545e-001, -5.5070317234232724e-002,
          1.8749936760386615e-001, -9.6591651670438223e-003,
          1.2158049490113782e-002, 1.7638563312483718e-001,
          2.9100648204733403e-003, -3.9310095414603966e-002,
          8.2188558578218940e-002, -9.7168381899017942e-003,
          2.6537991611967345e-002, -7.3812043792753287e-002,
          1.6019348238687256e-001, 1.8100441153496064e-001,
          -4.3535807251660084e-002, 5.0117080336596016e-002,
          5.4126825208168826e-002, -6.9782223475927538e-002,
          -1.6734409633549552e-001, 1.3379553001972591e-001,
          1.4572668210955553e-001, 9.4573649198856372e-002,
          -1.2081521536687789e-001, 7.0134550619281338e-002,
          4.4743138079262189e-002, 8.8249717365226250e-003,
          -9.4454544668071891e-002, -7.2943688921877650e-002,
          -7.5411664405015830e-002, -5.5472283080495656e-002,
          -1.2138220112407224e-002, 1.2074777451326756e-001,
          2.7523014508152677e-001, 2.1692583526851949e-002,
          9.5229475138534150e-002, -5.9530172047520561e-003,
          -1.2625733837922632e-002, -4.1235129601117852e-002,
          -1.5010195902588643e+000, 9.0665489357439049e-003,
          1.2125185373671044e-001, -1.7199524888909690e-001,
          2.3928790554349877e-002, -1.9187547333295748e-002,
          2.4502729567261190e-002, 1.3341374254028213e-001,
          6.4349222461423980e-002, -2.8807671610050301e-001,
          9.6975860232519834e-002, 1.1867769405581872e-001,
          7.0601513712027789e-002, -4.2165734942537288e-002,
          5.5635294366187982e-001, 3.6148771512836089e-002,
          1.5897437440587425e-002, -6.7303661996291342e-002,
          1.4696566226979799e-001, 1.2864587677582478e-002,
          -1.8338519397245473e-001, 6.7613288472711464e-001,
          7.8191092396224363e-002, -1.0111203478436707e-001,
          2.3234403522616864e-001, 2.9000933766297798e-001,
          -1.1886377769863482e-001, -1.5474068999710955e-001,
          1.8046360816861526e-001, -5.1020992308064332e-002,
          2.1027053236660115e-001, -1.1723147797312822e-001,
          -1.0447829282742936e-001, 6.0562170005258693e-003,
          -5.8200457562666556e-002, 5.1192535526197858e-001,
          3.2041523519169635e-001, -8.5383478913178004e-002,
          4.8551016846209473e-003, -2.0905604700215025e-001,
          1.5256114928288052e-002, 4.5994444794114714e-001,
          -2.0549160613863199e-001, -2.5819065441660988e-001,
          -2.2827820016753361e-002, 2.6217771392168859e-001,
          -7.8656210564162447e-003, 1.0708293260735693e-001,
          4.0021033817022642e-002, 3.3370721757489147e-001,
          -4.9651335324331836e-001, -1.2626008959553855e-001,
          -1.3164332129049485e-002, -7.0352512744062040e-002,
          6.9048496724520306e-002, 1.7637076109762357e-002,
          1.0267028832585663e-001, 1.7446994220739603e-001,
          -1.4468444403432826e-002, -1.9544596972651310e-001,
          3.5663711198839057e-002, -1.9121632540387870e-001,
          1.0166677040811932e-001, 8.4093214825713927e-002,
          -4.0675560926295662e-001, -9.2178409522488097e-002,
          -1.5297469093574964e-001, -2.6680053488684435e-001,
          -6.4297093236333147e-002, 9.5068974821467343e-003,
          -1.0074479135584062e-001, 6.8766624557938333e-002,
          1.8361208782550562e-004, -1.2298260234935310e-001,
          -1.6069263013614644e-002, 4.2908485658099293e-002,
          -1.2052876433650847e-001, -3.9727772302183988e-002,
          1.2281995759077230e-001, -9.4939357317184572e-002,
          1.4728233970185673e-002, -1.2375748513701558e-001,
          1.3412409972970895e-002, -2.8119325432670084e-002,
          -2.6951793011014181e-002, 1.2013468648908034e-001,
          -1.0870669610172567e-001, -1.0369827874133225e-001,
          -1.4763804200996919e-001, 2.2069867346816430e-001,
          -2.8883110098010328e-001, 1.4279957124548537e-001,
          1.5573605933595080e-001, -1.6335701419221420e-003,
          -7.2566095320393247e-003, -9.4417767337643441e-002,
          -5.6515315251120052e-002, 5.1134910063994995e-002,
          2.0491881354821044e-002, 6.9484416379912553e-002,
          5.8471115523495876e-001, 7.4023209969016970e-002,
          -8.2252879958685632e-002, 1.6949640119747842e-002,
          -7.5178548765245753e-002, 1.0897043148410006e-001,
          -2.3309415211481255e-003, 1.9514129711683068e-001,
          -1.9924543779819665e-001, -1.7083493235690320e-002,
          1.5334480445617130e-001, -2.7664415875472270e-001,
          8.9225036863377419e-002, 6.1812989492952608e-002,
          -3.3585972019221821e-001, 1.0489451386595519e-001,
          -7.3486357912505476e-002, -2.0803715025485694e-002,
          -5.2145385653787575e-002, 8.2065782816831620e-002,
          -1.4503083369268407e-001, -1.8676510504128646e-001,
          -1.5252804490769604e-002, 2.5329594602805837e-002,
          -1.6094015549300050e-001, -2.1122552507860107e-001,
          -3.5988000674623280e-002, 1.4638318883768367e-002,
          -8.4074227323359355e-002, 8.9598141122158040e-002,
          9.4577471099361307e-002, 1.6516366946731770e-002,
          -1.8327498301172487e-001, -1.5586413985915715e-001,
          1.2950272062867413e-001, -1.4185279798562409e-001,
          -1.6340334096292736e-001, 5.1122345193564442e-002,
          1.7791301640553289e-001, -2.9887525107574392e-002,
          1.4131225416936299e-001, -7.7392292734661416e-002,
          5.5376977395186017e-002, -6.4986996347661072e-002,
          -1.9624670320330817e-001, -1.1857612554704658e-001,
          6.1025831369078729e-002, 5.2539631766986526e-002,
          1.8281240750269670e-001, -4.0599056413446938e-002,
          -5.8613529356215377e-001, -5.3651730858731171e-002,
          5.7186428873867663e-002, 2.4485607795286347e-002,
          -2.8369558837508278e-002, 5.9864429920169694e-002,
          -3.2373368834834992e-002, -8.6615068563802119e-002,
          1.8312066102538874e-001, -7.5985811278169280e-002,
          7.0844055467169903e-002, -1.3349474937028186e-001,
          3.1144523251519896e-002, -5.9727687033994392e-002,
          -5.3816636629099787e-002, 1.5177181383293589e-002,
          1.1384876092394514e-002, 5.0712385847251754e-002,
          9.4067705565511986e-002, 3.5535164015749972e-002,
          -2.8639113203039253e-002, 2.0139541548531548e-001,
          6.4397389435932886e-002, 1.4863938481868680e-001,
          -1.4925459394188575e-001, -6.5896961816545654e-002,
          1.1858511476624636e-001, -6.0485852081278756e-003,
          -4.8217270116661486e-002, -8.5985610607676038e-002,
          6.9408082975921964e-002, -1.2889011126093775e-002,
          -5.8380738787560858e-002, 2.5630523897095442e-001,
          -7.8759850764251405e-002, 1.5024979375776840e-001,
          -2.3163103595426237e-002, 6.8603632276446530e-002,
          1.9017338294355493e-001, 1.4677709862514068e-001,
          -1.0187705947831521e-001, 1.2428671315728168e-001,
          1.1592895696848203e-001, -4.1113252239150910e-002,
          -3.5529380604124239e-001, 1.2267022420389442e-001,
          1.9235354530762291e-002, 1.7071497835411037e-001,
          -1.9342399608777627e-001, 1.3867582681822807e-001,
          -1.6423528163679793e-001, 8.5311828946336057e-002,
          1.9796748561124688e-002, -2.2316890788289731e-002,
          -1.7028699086995042e-001, 4.8953952128826202e-002,
          6.6703974275171954e-002, 1.6554665903557201e-002,
          -1.0309331701986842e-001, -3.0668689101898561e-001,
          1.5552495111737236e-001, -2.4769745407064166e-002,
          -3.7747267874287303e-002, 3.9273259355800380e-002,
          2.6661159946277285e-001, 1.2366785726396946e-001,
          -4.8725199205383297e-002, 3.4304309180131864e-001,
          1.3194656986662780e-002, 9.5040889341247867e-002,
          1.5831136483440769e-002, 5.4313324069449539e-002,
          1.1241015361022272e-001, 9.6260374851412922e-002,
          -1.6839732477528565e-002, 1.5270686868299613e-001,
          -1.3253821054823929e-002, -3.4000510350378162e-002,
          4.0207116771065352e-002, 2.6623093218236887e-002,
          6.6528412793981098e-002, 3.2212051403796085e-002,
          2.9453819230669975e-002, -1.2379572493381334e-001,
          -4.0931778294248516e-002, -7.3230655694488979e-003,
          5.5299885379623104e-002, -7.0628363863102894e-002,
          2.1487444839140418e-001, -1.3420181272105508e-001,
          5.8180515543539927e-003, -2.3969768378746394e-002,
          -2.5087459855852187e-002, -8.1525585163392478e-002,
          -1.8278085751928000e-001, -1.4500400389935764e-002,
          3.3704601572632852e-004, -4.5706951795221280e-002,
          1.9399854213128542e-001, -1.7370694069722612e-002,
          -3.2066303891665554e-001, 8.2092624358486285e-002,
          -1.5064062815445436e-001, -3.4003472991690084e-002,
          -9.3299299816679879e-002, 1.9394062276975016e-002,
          4.5663865197896364e-002, -3.9263617690678931e-002,
          -1.0412269880172466e-001, -1.2841637407109580e-001,
          1.0425469037315951e-001, -1.2410391011893959e-001,
          5.1393781844831996e-003, 5.8768751089566952e-002,
          1.6225713741978354e-001, 1.6877374218791635e-001,
          -3.1455563184182814e-002, 1.6231490298431067e-001,
          1.6026049136430826e-002, 8.9253436857838458e-002,
          -2.3957960216118127e-002, 2.1484894263768289e-002,
          5.0099306421352768e-002, 6.4491172058794635e-002,
          -6.3862177474850554e-002, -4.2356366642707192e-002,
          1.9438226382909801e-002, -7.4034971358977839e-002,
          2.2070094947786743e-002, 9.3863676014454250e-002,
          1.2168085524967362e-001, 1.8776957981388630e-002,
          9.8922084453526640e-003, 1.0067970488521580e-002,
          6.1991083916452206e-003, 1.1934487213727824e-002,
          -1.3198941931883154e-002, -7.0257052608587126e-002,
          1.6806448033862090e-001, -4.3793009144981361e-002,
          2.2210292755252836e-002, 4.3339755312273930e-002,
          -3.1377756164040226e-002, -8.5680876431539571e-002,
          -1.8585795902082708e-001, 1.4105129709006422e-002,
          -8.7165009842488806e-003, -2.3709750958001541e-002,
          7.1677797447857586e-002, 2.4506791821954272e-002,
          -9.9509185740628037e-001, -1.7613750708773034e-002,
          -2.3088067361181294e-001, -2.5211977391192603e-002,
          -5.8267994420809786e-002, -6.1746607565302918e-002,
          4.4924663529876861e-002, -1.1335972509265935e-001,
          3.1394938234761013e-002, -1.6807852424292674e-001,
          6.5092653688652344e-002, -4.6784448387333880e-002,
          -7.6195008152554165e-003, -3.1007893317756361e-002,
          3.1399709490451505e-001, 1.1558752172293522e-001,
          -6.9670352723033749e-002, 2.2129634162229925e-001,
          3.6494213809443996e-002, 5.7859762288764660e-002,
          -1.3722147326284710e-003, 2.0573409596525374e-001,
          4.7625636366742663e-002, 1.0947361422927583e-001,
          -5.5565187387015248e-002, -4.7400273515677188e-002,
          3.4692262686522805e-002, -7.8712110749494038e-002,
          -7.9184512608007615e-002, 2.5710371064137684e-002,
          1.1032246559778987e-001, 5.6259215808009314e-002,
          -5.6403994216963106e-003, 1.4386689519041188e-001,
          -5.0662243106020174e-002, 1.7161346583411202e-001,
          1.2453445095445531e-001, -5.0934634730999087e-002,
          1.8238062269501917e-001, -4.4177520275364188e-002,
          -6.5207389575677566e-002, 1.6594039570420832e-001,
          -4.7916149200917024e-002, -1.1268640615888262e-001,
          -2.6604352958254601e-001, 1.2090960655118037e-001,
          -7.2419765279794213e-002, -3.0168692001893465e-002,
          -8.1917812968922255e-002, 1.2325807806653316e-001,
          1.7814916318201338e-001, 7.7054746574154009e-002,
          -1.0330294434801879e-001, 7.3664939570345270e-002,
          -8.2272235804188618e-002, 3.5344268306349853e-002,
          1.6240274831837272e-002, -2.2582304160858133e-002,
          -1.4663164508244775e-001, -5.2102731783434303e-002,
          5.6557136179114710e-002, -1.2576700387840170e-001,
          -3.2238656147010873e-002, 4.7711273719372282e-002,
          1.5834257832277887e-001, 1.4575927731006008e-001,
          -9.8209774199307015e-002, 1.3915132131381405e-001,
          -4.4146971114906834e-003, 1.1546950685876886e-001,
          3.8583130825076573e-003, -6.1202378110599705e-002,
          7.0110324317806385e-003, 5.9649056023932057e-002,
          -1.4635830819086251e-002, -4.8767307920853369e-002,
          -2.9848357292988324e-002, -6.3045805648392378e-002,
          -5.4324689110976494e-002, 1.5395565344223452e-001,
          5.3956090523485323e-002, 1.2479534822757095e-001,
          3.5315576429031860e-002, -4.8158593517470039e-002,
          6.5483985862072810e-002, -2.2362416509278268e-002,
          4.5700486318257787e-002, -6.4377512552090010e-002,
          1.5804394390030385e-001, -8.7078788805805329e-002,
          1.5983525210653646e-002, -2.1004582871060246e-002,
          -1.2683409013739647e-001, -7.1487068400623244e-002,
          -4.6316221707844080e-002, -1.3053549965349079e-001,
          1.4513437974515233e-002, -1.4655148838789012e-001,
          8.7056460497873148e-002, -5.5494095171596008e-002,
          -1.0661596717580810e-002, 7.0669371023110966e-002,
          -9.6053925535102502e-002, 7.0553405527548872e-003,
          -6.7546573163059301e-002, 1.9050453405351050e-002,
          8.8444522917775839e-003, 4.7634645418510868e-002,
          -9.0292757128954196e-002, -2.1967247765728046e-002,
          1.0655474043470334e-001, -1.5271500961410775e-001,
          2.4695851967840427e-002, 1.1114579028863351e-001,
          -4.5349490915624860e-002, 1.5434449754840429e-001,
          -8.7446051879674747e-002, -1.2846974356426165e-002,
          -5.7282854685199155e-002, 7.1561899797251985e-002,
          -5.2499089169912382e-002, -9.0643694143719589e-002,
          -2.1384183858221287e-002, 4.6474904429691160e-003,
          -1.3475625741411443e-001, -6.9970473404421876e-002,
          -3.9203124206566905e-003, -9.1098443977965737e-002,
          -1.5824529291604973e-002, 1.0845888782502679e-001,
          1.2545791220374042e-001, 5.3859193686638940e-002,
          -2.8180197309079030e-002, -5.7455937083167610e-002,
          8.3055810234254582e-002, -3.5861539692362956e-002,
          -5.0656871961006732e-002, -5.5766580592149145e-002,
          1.0892593173724451e-001, -7.3026113472072607e-002,
          2.6877003425966623e-002, 1.0515653362240494e-002,
          -7.9811344475608240e-002, -9.5372041315986048e-002,
          -1.3080594562552386e-001, -8.2291320995666425e-002,
          -9.4004646111863505e-003, -4.8645157397317416e-002,
          7.9473414302137071e-002, 1.3833292472509625e-003,
          -3.6148567821044369e-001, -3.9497354868650789e-002,
          -1.3232757041527266e-002, 1.2663092714627677e-002,
          -6.7997064244438563e-002, -6.4971862134205652e-002,
          -1.5417049067789091e-002, -1.2272793433038119e-001,
          1.2445380676877174e-001, -1.3442047161349663e-001,
          1.3419345189412119e-001, -1.3739002234491382e-001,
          -3.2218900949645329e-002, 6.9961854685328437e-002,
          1.1434790133938749e-001, 1.5577665119288817e-001,
          -6.2736973982342084e-002, 1.8936254238210079e-001,
          -4.5881389841784595e-002, 1.0991534803027783e-001,
          1.0268133439636837e-001, 1.0723251191551061e-001,
          4.5892367998315635e-002, 1.0795292879222401e-001,
          -1.0831197994880956e-001, -7.3746319877573394e-002,
          1.0058287449692868e-001, -1.1192521194481800e-001,
          8.3876941842500011e-002, -7.1561531960892905e-002,
          1.6798826140344864e-001, 1.1811540289545081e-001,
          1.2845375454573596e-001, 1.4166543913570342e-001,
          -2.1553257600575842e-002, 1.8378832746342313e-001,
          -4.1988590211858363e-002, -1.4741811829401680e-001,
          2.0049912881947163e-001, 6.3953972489048397e-002,
          -5.0096834228972688e-002, 9.5910115453167050e-002,
          -1.3774772251386602e-002, -4.4458635137670920e-002,
          -3.1353885890479261e-001, 6.3522005631753725e-002,
          -5.7897350826649110e-002, -5.5049673014162026e-002,
          4.9926978643760056e-003, 1.1978672070697594e-001,
          -6.6414391688144447e-001, -7.8144340554351974e-002,
          6.1315069327666984e-002, 3.5576451585362635e-002,
          1.0425958467965882e-001, -4.2008287067610367e-002,
          -5.0496140833096387e-003, -1.7140024920864469e-001,
          2.5474056317130311e-001, 9.6614853829987260e-002,
          -1.0240223000270764e-001, 1.1278418061196392e-001,
          -8.7365220300730032e-002, -1.3248763316986142e-001,
          1.9967226912970867e-001, -5.7292866113989906e-002,
          6.1955376015397287e-002, 7.1819418010451941e-002,
          2.6327641159225416e-002, -5.1398862814918733e-002,
          1.2009913844312944e-001, 2.3952041820581782e-001,
          2.2591176462197656e-002, 2.0219547233828017e-002,
          1.0968851906601611e-001, 5.7671509747164444e-002,
          6.7937718165298686e-002, -2.0274137675936357e-002,
          1.5138853220361350e-002, -8.9040844592748566e-002,
          -6.2973339028101954e-002, 5.8271300925553320e-002,
          1.6269657071759322e-001, 3.0567301583660872e-001,
          -1.5176098047176606e-001, 2.0736316894134349e-001,
          -9.5613524733666611e-004, -2.9820074370254222e-002,
          -2.4283308441136672e-002, 1.3405569523487834e-001,
          -1.9909068280256478e-001, 1.0856743817715439e-001,
          6.9393143988783134e-003, 1.6791082818331735e-002,
          -1.2352236498791264e-001, 1.4736700204722630e-001,
          -2.5232209573837323e-002, 3.9585613045904279e-002,
          -2.8187741543060196e-001, 1.2718002563599307e-001,
          -1.0437039337985841e-001, 7.5144632554712557e-002,
          -4.2154386465706233e-002, 1.4595117856811368e-001,
          -1.3458402009427983e-001, -1.0023612968251534e-002,
          2.3780191133342902e-002, -1.0103507379560557e-001,
          -1.0371873514808146e-001, -2.0007649432554611e-001,
          1.5151863364916285e-001, -1.3208279876341195e-001,
          -9.3890499501303862e-002, 6.9154059008320390e-002,
          2.0010149681950901e-001, 1.3736872053869204e-001,
          -1.4869678746409964e-001, 3.0918928770810389e-001,
          -2.0063174061605189e-003, 2.1312234056053775e-001,
          6.8589452896744077e-002, -5.2804903974332032e-003,
          6.9195549944017207e-002, 9.3264477517892574e-002,
          2.5815506988102713e-002, 1.4279714991679911e-002,
          2.7958438555192793e-002, -2.6136069768222282e-002,
          5.1912383864817273e-002, 1.7945563469679046e-001,
          1.0018324981579591e-001, 1.3107916863718108e-001,
          5.8616055143259765e-002, 2.3847480386215179e-002,
          -1.6004123681951019e-002, 1.7063567576042153e-002,
          6.2926239769344902e-002, -1.1749990063844065e-001,
          2.9638205373886339e-001, -5.7210014528211679e-002,
          -1.1260881966172425e-002, 1.1203434427250060e-002,
          -4.0123111188448697e-002, -9.1380059568304250e-002,
          -1.4014035450649606e-001, -1.2482360461770195e-001,
          1.8269533164182821e-002, -1.6506170247186838e-001,
          8.5269956677636927e-002, -1.1445571545203891e-003,
          2.2846906444321241e-001, 7.8197023539195706e-002,
          -4.0332214493560392e-002, 9.4215369473912611e-002,
          -1.4499237645315871e-001, 3.0505895061697036e-003,
          1.5155201528370655e-002, -1.1984144357038129e-001,
          -6.3647493581864251e-002, -1.8767462295436441e-001,
          1.8123297569688698e-001, -1.7024816264066744e-001,
          -6.3965368310312812e-002, 1.1069449380264279e-001,
          6.7017039781329626e-002, 1.4041839591956429e-001,
          -1.3233457614626032e-001, 2.4713057021858559e-001,
          -1.2883608359017184e-002, 1.8897835269632970e-001,
          8.1664073579506904e-002, -2.6661937645931527e-002,
          7.0598091266550908e-002, 7.7632549691796823e-002,
          -6.3117595907124333e-002, -9.0531573564479051e-002,
          5.5831377130694769e-002, -1.9418780025833842e-002,
          1.4260302983929155e-001, 1.3264431847502381e-001,
          7.3359173605067260e-002, 7.4172901095622065e-002,
          4.8695837623374663e-002, 7.3302999106491684e-002,
          -7.3333501190818440e-004, -3.7395174645135858e-002,
          -5.3547106262455048e-002, -1.0615506875790393e-001,
          2.6126875225543633e-001, -4.5941633649882315e-003,
          -1.8177468421260688e-002, -1.3299929961181088e-002,
          -2.2348013327935269e-002, -3.4301034277246359e-002,
          -1.9723130356600235e-001, -1.2856805491199699e-001,
          2.1239457336012416e-002, -1.4070442650800088e-001,
          1.1199956675215096e-001, -3.8211976161295035e-002,
          -1.6222229385440337e-001, 4.8669653651123884e-002,
          -9.7308863523441133e-002, 7.4024817852962388e-002,
          -1.4180239044799733e-001, 1.9285084041161551e-002,
          3.7501422301209314e-002, -1.2562353104537491e-001,
          -2.8548986346800191e-002, -2.1200016308368097e-001,
          1.3231351735626129e-001, -3.9067585274223021e-002,
          -8.5312051528916327e-002, 3.5979946041789494e-002,
          2.3150690527889009e-001, 1.6679119169380760e-001,
          -1.1758268183281297e-001, 3.1418138929264255e-001,
          1.5824074464875236e-002, 1.1779936234992673e-001,
          6.0521267968020855e-002, 1.9961897351400231e-002,
          6.4838585973777216e-002, 1.0241124983431595e-001,
          7.0830525149543138e-003, 2.5048268291050453e-002,
          5.3500551619388541e-002, -2.2129777786855310e-002,
          2.8127212307154110e-002, 9.4023522008264915e-002,
          2.7143081517915578e-002, 1.3607042849841142e-001,
          5.9376023347138783e-002, -4.2611087374766023e-002,
          -3.5624136759069287e-002, -4.1693172810480759e-002,
          7.6724793026258564e-002, -6.1829880086250309e-002,
          2.2176395685674608e-001, -1.9261832135824120e-001,
          1.2739390506994254e-002, 1.0307045056887069e-002,
          -1.1476706370748192e-001, -9.3414023623075340e-002,
          -1.4672511576561340e-001, -9.4640384861085919e-002,
          3.5636372275429894e-002, -1.2034495635096064e-001,
          7.7376381684448173e-002, -2.1014609534516959e-002,
          -2.5754192151717475e-001, 4.2635864036903635e-002,
          -7.1405561480242269e-002, 5.0867350992164037e-002,
          -1.2948162770427216e-001, 7.1304448423451072e-002,
          -7.4862488406214137e-003, -1.3253728690618369e-001,
          -5.1721415441176284e-003, -1.4910274514238012e-001,
          1.5149740436070530e-001, -4.8891988071493482e-002,
          -7.5230873778005150e-002, 5.1281947446198205e-002,
          2.1040930234505412e-001, 1.4577920385922419e-001,
          -9.9105026520080977e-002, 2.4000963773182199e-001,
          2.5880847383879302e-002, 1.5152754733630319e-001,
          5.4454001411075384e-002, 3.2156703862010749e-002,
          4.3084901896980068e-002, 3.5183049085842619e-002,
          1.3528667012654398e-002, -4.3627263424602582e-002,
          5.4136260883808289e-002, -1.5282094625268146e-002,
          -3.5903043540434819e-003, 1.3528334804192882e-001,
          1.9005105176365437e-002, 1.2556298381946529e-001,
          2.3691525992088711e-002, -9.0486630283212161e-002,
          -2.1006349161466771e-002, 2.3866343748423106e-002,
          9.9738132584638345e-002, -2.6831086472975319e-002,
          2.1452757541170311e-001, -1.2964301464722214e-001,
          3.7150414826527388e-002, 2.5926071327321814e-002,
          -1.8804752587144011e-002, -7.0958029251391011e-002,
          -1.7012919418692701e-001, -8.9170968144508769e-002,
          -2.2133184321209741e-003, -1.6632323019070461e-001,
          7.5887984452832513e-002, 1.3566109545525140e-002,
          -8.7585339233368509e-001, -8.8849076139503269e-002,
          -8.2537781701160676e-002, -1.2106409436745921e-001,
          -4.0558660346138954e-002, -6.9308526974078660e-002,
          -2.2095891666390224e-002, 4.5747757983411713e-002,
          1.9506271919827376e-003, -2.3045623014156544e-001,
          2.5249896284744383e-001, 1.7523368906026114e-003,
          2.2935078587902512e-002, 1.3742220234656799e-001,
          3.6114637285404338e-001, 1.7203912933174964e-001,
          -7.5081228185833931e-002, 3.2769884734982532e-002,
          1.6058051829391989e-001, 1.7567075135748950e-001,
          -3.8240534781916316e-002, 1.9221518945649246e-001,
          -1.0398954107084532e-001, -2.9459315131798930e-001,
          2.7733397193326148e-001, 8.0250010707990649e-002,
          2.4777022714069702e-002, -2.0895462645313317e-001,
          2.4707454060451478e-001, -6.3659529104846860e-002,
          1.7715350150524342e-001, -2.9910130873063656e-001,
          2.6327920361412963e-002, -8.6050174703027157e-002,
          1.1913055167271837e-001, 2.5017378396435086e-001,
          2.6017585338595151e-001, -2.0990119213211816e-001,
          8.7259880441770604e-002, -1.3517808904487266e-001,
          6.3325774921159428e-002, 1.1234241850150944e-001,
          -4.4739026666167830e-002, -9.8506669720533638e-002,
          -5.5490659559025636e-002, 1.1141257990001362e-001,
          -5.2708789502367903e-002, 9.9926446805541677e-002,
          1.2878606347843785e-001, 2.2474565638928667e-001,
          3.9345146288948218e-001, 4.5510261143075867e-002,
          -1.4032561389845382e-002, 1.1812732642413934e-001,
          -4.8240392626778913e-002, -1.3423398908782878e-002,
          2.7148502955121764e-002, 2.6036801074719579e-001,
          -1.3886015794394929e-001, -2.2113468294818381e-001,
          9.3684588618117556e-002, -2.6759277429368172e-001,
          1.7518922046141250e-001, 8.5351132978287170e-002,
          -1.5333077180244598e-001, 8.5954728122766329e-003,
          -1.6217260433655051e-001, -2.0152543272998807e-001,
          -1.0569400727692004e-002, 1.0956941736712637e-001,
          -2.5689904272814823e-001, -2.1182137130138079e-001,
          -5.1594081576169099e-002, -1.2734947379346601e-001,
          -1.6611540146561868e-001, 1.9016070122828593e-001,
          -5.3961060039511115e-002, -2.9916921902714236e-002,
          1.7073725673394269e-002, -2.9281017768522582e-002,
          1.1947074448312316e-001, -1.3702277299264562e-001,
          -1.0906985890439150e-001, -1.5700724391626142e-001,
          5.0557711231712266e-002, -1.3941326842036536e-001,
          -1.9371658220976365e-001, 1.2264546843820274e-002,
          1.8851710720751175e-001, 6.5307950840427065e-002,
          9.8573413150487496e-002, -8.6596341697660950e-002,
          2.0169424548841114e-001, 2.0576831350391921e-002,
          -1.4085266502099261e-001, -6.7890648509300114e-002,
          -3.5022568192627911e-002, 1.3654304528511718e-001,
          2.8080223930459525e-001, -1.0073730561942201e-001,
          -1.8607265275013754e-001, 5.8777264838247779e-002,
          4.2128113894431647e-003, -2.1979437234894835e-003,
          -2.1625004918825970e-002, 5.1193985991510392e-002,
          2.0811603651623291e-002, 2.6877147708091104e-001,
          -2.0941583464826591e-001, -8.3885898604995537e-003,
          -7.1580456147637847e-002, 2.2623668867234398e-002,
          1.0179249558209487e-001, 7.2005473364758132e-003,
          -6.2005915106853847e-002, -8.4214683332705986e-002,
          1.2936311128289293e-001, 7.1689999278704522e-002,
          1.1551527252104846e-001, -1.0664545181372481e-001,
          -1.8483707450572856e-001, -1.1342302655156285e-001,
          2.7894966881627299e-002, -4.1296393382689700e-002,
          8.9971968967106283e-002, 1.9781359070394008e-001,
          -1.4895227100252223e-001, -1.0490713564841429e-001,
          -9.7571278613799314e-002, -2.1819244815517932e-002,
          3.7416355596784122e-003, 1.5937167211806925e-002,
          -1.8589254825596097e-001, -2.2142027668444478e-001,
          4.6952421058067920e-002, -1.5498078327826359e-001,
          6.3118886592033296e-002, 9.5382867028888610e-002,
          -1.4098038951759604e-002, 8.3436140287769661e-002,
          1.7169511907015292e-001, -6.9124828417093151e-002,
          -6.7099479709088375e-002, 5.7262526601095071e-002,
          3.8011195505117328e-002, 3.9722240014731583e-002,
          3.4827146698955390e-002, 2.5838327365360209e-001,
          1.7251772646171074e-001, -1.0934434409301255e-001,
          -8.3768779764668477e-001, -3.6634245862128136e-002,
          -3.7437026763838914e-002, 3.6969519535969490e-002,
          -2.4428289002183183e-002, -1.8761998380293528e-002,
          4.6958458647584746e-003, -1.1749387582936856e-001,
          6.3787510346011086e-002, -3.4191942384895389e-002,
          1.4799374918700867e-001, -1.7684058609576472e-001,
          -8.3189760308480673e-002, -1.8476638393491313e-002,
          -1.0681149964783986e-001, 8.6256540463337583e-002,
          -2.8582452297132399e-003, -5.1217438769084876e-002,
          -5.8367643639153061e-002, 8.0271105204526794e-002,
          1.1363733367827880e-001, 6.8909075063565126e-002,
          -2.6568553591109798e-002, 8.9322242749960756e-002,
          -6.5340513913937387e-002, -2.2915720336920489e-001,
          9.9092352843431722e-002, -8.4733096283215511e-003,
          1.2202575355302615e-001, 7.3652131263568094e-002,
          3.4706046815387886e-002, -5.7337183597077589e-002,
          6.6166580533034884e-003, 2.6347408461674338e-001,
          2.3571588548968958e-002, 1.3796729884376643e-001,
          -1.2602568632248644e-002, -2.7408586034779449e-002,
          5.0590339246577666e-002, -1.4098553563986610e-001,
          -1.5949437962476784e-001, 6.4501407498002039e-002,
          3.4834885492860942e-002, -8.4505709241212354e-002,
          -2.2338195326636862e-001, -6.9514861629804151e-002,
          3.7243317266452275e-002, -5.6830682775932465e-002,
          -1.8790248827711392e-001, 9.2721614781546502e-002,
          -9.1833759977594176e-001, 3.5416423158170812e-002,
          8.8020474092893777e-002, 7.4873620532046839e-002,
          -1.5712520191601234e-001, -1.6217890733194976e-002,
          4.2736224341583001e-002, 8.1101388956346054e-002,
          -7.1669143951377232e-002, -2.0911802939506124e-001,
          1.5951120047119952e-001, -1.4247868549390763e-001,
          -8.3285860352310170e-002, -1.5577904452755885e-002,
          1.8276147225843600e-001, 1.0481621713332200e-001,
          7.6149190314929643e-002, 2.7806625372015781e-001,
          8.8023548348571147e-005, 3.8295434904514036e-002,
          6.5856987482192542e-002, 3.0869124843077713e-002,
          7.1182635304752287e-002, -4.8553589281273048e-002,
          4.2870512878589832e-002, 2.6193386312933224e-002,
          -5.0286620507227313e-002, -7.4498023037389199e-002,
          1.6055000478143883e-001, -7.0956590413601542e-002,
          8.6745978816100661e-002, 5.0066935731510415e-002,
          1.4449426314635017e-002, 2.2910414670864247e-002,
          5.3996431085680590e-003, 4.2443055000254332e-002,
          1.0217820683497730e-002, -1.2733419422075340e-001,
          4.7993836753274871e-002, -1.4800951741101964e-001,
          -5.1842825482333099e-002, -1.0112632910553424e-001,
          -1.7529041815369059e-001, 1.9792782674034403e-002,
          -9.5563336768143242e-002, -5.1903398689276993e-002,
          1.9736000421714899e-002, 5.0083819500576547e-002,
          1.3814913124894629e-001, -2.1294622219475267e-002,
          -1.1918323140954206e+000, 2.8245827498607167e-002,
          -1.7313481012582549e-001, -4.1857892858300334e-002,
          -5.6512012715539309e-002, -6.1567360788726183e-002,
          9.3263639582957192e-002, -1.6473436225802446e-001,
          -4.1344565536312994e-002, -6.7520093591819569e-002,
          4.2870408249471408e-002, -1.6010220693495822e-002,
          -1.2058953358117876e-001, 1.0753101873323713e-002,
          2.2711227045556601e-001, 1.5004567364071458e-001,
          9.3098938869171130e-002, 3.6799081617491808e-001,
          8.8115433097986934e-003, 1.4455887953933214e-002,
          1.5495032151534927e-001, 9.1914161153800175e-002,
          6.1333053883051408e-002, 3.4674159980107984e-002,
          6.6932452738857784e-002, 5.3805457900487443e-002,
          7.8569212055806151e-002, -9.8955502638276446e-002,
          1.2894114850652794e-001, 3.1814808078320961e-002,
          2.6378123700751020e-002, 1.2909151207925412e-001,
          5.9441256314045073e-002, 8.3615873479564687e-002,
          -7.0108197270678874e-003, 7.6938456237217193e-002,
          6.7624995528353396e-002, -1.3134571231527159e-001,
          2.7755704175055223e-002, -1.9763679416544003e-001,
          -4.1103970937403159e-002, 1.7538200918607466e-003,
          -1.8233179086580803e-001, -8.0537094202985868e-002,
          6.8511442696343655e-002, -8.9554111425550701e-003,
          2.8577847883709019e-002, -1.8051510036545237e-001,
          -4.2735903634076269e-002, -1.9446829500814951e-002,
          -8.2266956952233505e-001, -4.9888927021227415e-002,
          -1.6425941506218653e-001, 9.0842165354090010e-002,
          -2.2409029273542179e-002, -7.0457166919296640e-002,
          2.1250157885220743e-002, -2.6739164563921919e-001,
          6.5450874856896657e-002, -2.7568695253546792e-002,
          1.0116374792235672e-001, -2.6424549104024958e-001,
          -8.0239949163969967e-002, -3.8202971517623877e-003,
          -7.5506879550592265e-002, 7.3016712156081923e-002,
          -1.0278359402307299e-001, 9.2762541944922360e-003,
          -8.7571891689092740e-002, 7.7748266660051982e-002,
          1.2822353995993455e-001, 1.2566985121429886e-001,
          -5.9384152677411949e-002, -5.5342504209046885e-002,
          -7.4067687038278415e-002, -3.9115274675853906e-001,
          4.8564879674523831e-002, -1.2148791581695921e-002,
          3.2263039858951098e-002, 6.2488778166895902e-002,
          1.1503023610147342e-001, -3.2605350358127769e-002,
          4.9029904107876242e-002, 2.8869045643084873e-001,
          8.7032401505171081e-002, 1.6714765005295895e-001,
          -1.5886769274530962e-001, -7.4972530005833940e-002,
          3.2674760367646612e-002, -5.4713915121649671e-002,
          -1.6207631808325434e-001, 1.2875273042915639e-001,
          -5.9357053184795928e-002, -7.9973105399277170e-002,
          -8.8799278842233695e-002, -7.2711154685203144e-002,
          6.0724372607419502e-002, -1.4069588347240680e-001,
          -2.0552033058026858e-001, 1.1266148472882395e-001,
          -2.5544930591687459e-001, 7.9234583949041679e-003,
          -4.7094470328762184e-002, 7.3357197701428581e-002,
          -8.2294142558141978e-002, -7.3110018767185078e-002,
          5.8941073498375608e-002, -4.1402211546860399e-002,
          -6.4578550289900311e-002, -7.4751134677946432e-002,
          -3.9226290812484930e-002, -1.3704598784401195e-001,
          -3.6136233156484711e-002, 9.7854105693576734e-002,
          1.0862854249828141e-001, 1.9638834486617966e-002,
          -1.5341081022352045e-002, 2.6000251296405980e-001,
          -2.7007937392986538e-002, 7.5804369085959042e-002,
          -2.9175765584874272e-003, 3.2293571170996523e-002,
          3.2998257132080405e-002, -9.8227384805828627e-002,
          5.7337037165133047e-002, 7.7571607753248742e-002,
          -1.5475355708441865e-001, -2.3433934179536400e-002,
          6.5332915043507328e-002, -1.5991832712403010e-003,
          9.4765046706559705e-002, 1.7552877154141094e-001,
          -3.3266143234532987e-003, 9.9180668332592547e-003,
          5.4429940970040384e-002, 4.1420804945472740e-002,
          -2.7252108011406130e-002, -8.9085479629156777e-002,
          5.5181845816692394e-002, 1.3495079745269353e-001,
          3.8594555407573609e-002, 1.2044636824119196e-002,
          -2.0013387808564895e-001, 5.4688041249067884e-002,
          6.9682245523012290e-002, -4.1051482458982491e-002,
          5.3172787782533919e-002, -2.8988017249809175e-002,
          5.7613654920917079e-002, -4.7517082496489081e-002,
          -6.9538851207094465e-001, -6.7264660765511746e-003,
          -1.0873187669190428e-001, -2.1095780584137153e-002,
          6.3956451959494070e-003, -7.2871124555601186e-002,
          6.2803151174733188e-002, -1.7073201194022652e-001,
          -7.3461799758947552e-002, 5.6710495257606748e-002,
          -1.2812611399805646e-001, 8.9411477402834338e-002,
          -5.3274510268185936e-002, 1.7977430359876565e-002,
          1.9706074456868106e-001, 7.4464940745236519e-002,
          5.1267907779755324e-002, 2.9957857331289733e-001,
          -2.8513555201038498e-002, 7.1035676350119049e-003,
          1.1766156500083208e-001, 2.3703862044311404e-002,
          4.9919449848993609e-002, 3.4399243159984209e-002,
          3.7531284086944040e-002, -5.6924506425018333e-002,
          -2.2944605107673970e-002, -1.0985864090785026e-001,
          1.2222054081120606e-001, 1.6567383239536307e-001,
          -3.0350037915849773e-003, 1.5905171571569168e-001,
          1.0109390483265934e-001, 1.7753272849597071e-001,
          1.6462139015466865e-002, -1.5617255491106328e-002,
          3.2913360194891149e-003, -4.0396496378316903e-002,
          -8.1053584365079506e-002, 1.0772955781334063e-001,
          -8.6348041215467533e-002, -9.4446569930414313e-003,
          -6.3417616946592717e-002, 9.6108423123077560e-002,
          2.3744970299044613e-001, -3.1200496893987358e-002,
          9.3143284164639586e-002, -7.7475773084008423e-002,
          -6.2895065075941364e-002, -2.1557294830205940e-002,
          -6.0064282860668861e-001, -1.0777196080521892e-001,
          -8.9590470729790955e-002, 2.0996418529974591e-002,
          2.5260481003460417e-002, -5.2353262011064758e-002,
          -8.4906055907244850e-003, -2.2866728457822613e-001,
          6.2203338027751458e-002, 5.3268378771838008e-002,
          5.2075193883529408e-002, -1.8596149055997269e-001,
          -8.2213919286257472e-002, 3.3916167798030859e-003,
          -1.2978868781342673e-001, 3.7941882720571765e-002,
          -4.1923494598796442e-002, -5.8473261140365433e-002,
          -7.1179051943796756e-002, 3.5464520028390130e-002,
          1.6023064416744809e-001, 5.9901875751625734e-002,
          -3.9840722839049658e-002, 8.5463448984831394e-003,
          -4.8992583522297205e-002, -3.5237782508177024e-001,
          1.4162024778734136e-001, -6.8502839119040385e-002,
          6.6613806673172099e-002, 5.6667217946384726e-002,
          1.0058910062393492e-001, -2.3723551378268135e-002,
          1.0980166368306632e-001, 3.0287447139873430e-001,
          5.0708788993304554e-002, 1.2280422816389694e-001,
          -1.4375307298189202e-001, -6.2751390506391475e-002,
          1.2571433008074740e-002, -1.1248441381667847e-003,
          -1.9438477085468472e-001, 1.0090898095258026e-001,
          6.0255681486122963e-003, -5.7347406382161327e-002,
          -1.0324787354983932e-001, -4.9748298878570310e-002,
          3.7293992434053437e-002, -1.2999094298202349e-001,
          -2.5560862190764294e-001, 9.9479958122447004e-002,
          -5.7213596371663045e-001, -6.9998518845671695e-002,
          -4.9029448587781417e-002, 1.2818170086418137e-002,
          2.6301577126728960e-002, -3.4422641999140600e-002,
          -8.0738604885468249e-003, -1.5751975503526794e-001,
          1.5450191269877794e-001, 3.9756533940106045e-002,
          7.3573285235517122e-002, -1.7906322524491119e-001,
          -1.1135212347720161e-001, -5.6114901647318860e-002,
          -1.4089977720488553e-001, 9.0378999320278458e-002,
          1.6156956001838734e-002, -6.1250199142605891e-002,
          -5.6114712070833205e-002, -1.6966834016253072e-002,
          1.9457797822580239e-001, 8.8244909110281516e-002,
          -1.6804752996708517e-002, -3.8661823303043894e-004,
          -7.9079984023476407e-003, -3.3910701159127904e-001,
          2.1916753814049786e-001, -1.4229380736936909e-002,
          9.6974207884761049e-002, 4.6939876886112931e-002,
          -8.9575994783869482e-003, -4.0407766887575053e-002,
          1.2288850592131820e-001, 2.6452741609507829e-001,
          -1.0323025968398888e-002, 1.4403539485985234e-001,
          -1.6185283204505505e-001, -1.3369398645992533e-001,
          3.7541137230175978e-002, -8.7957719484267810e-002,
          -2.1396927763769125e-001, 1.1100607511891973e-001,
          1.2257369826915854e-002, -1.0528678712983319e-001,
          -2.3653062738296116e-001, -1.1725092494684402e-002,
          -1.1606043620330506e-002, -9.1503627621517022e-002,
          -2.4299590175433647e-001, 1.4114332177314678e-001,
          -1.2071104455746888e+000, 1.7774735477701090e-002,
          -2.1920060127724630e-001, -1.3717073896457987e-002,
          -5.5247300502561436e-002, -1.7189809514416807e-001,
          6.9672738278319199e-002, -5.9728100795645285e-002,
          -5.1748952347117814e-002, -1.0795357443216639e-002,
          5.5175973534766200e-002, -7.6761844971731774e-002,
          -1.1725083536712071e-001, 3.3410473711346984e-002,
          2.7010675852282828e-001, 1.3231404780149988e-001,
          1.0662985451270300e-001, 4.4068988163237455e-001,
          5.8327811163976333e-003, 4.2372527743082665e-002,
          1.3096825519945748e-001, 1.0969197694348051e-001,
          4.2187608343709042e-002, -4.0240656333057359e-002,
          1.2184929191190536e-001, 1.0123842734241785e-001,
          -4.4389075892232213e-004, -9.2886982416427732e-002,
          1.7222829243509064e-001, 2.5891300731706104e-002,
          -1.0678779735788867e-002, 1.2651134777736175e-001,
          7.7152981286111394e-002, 8.5773134772048537e-002,
          3.6471703507075275e-004, 9.6788329435178150e-002,
          1.1640799050774676e-001, -1.4718164379586027e-001,
          8.2072276373103950e-002, -2.0094981066653073e-001,
          -9.3819358750827184e-002, 1.4533783496338474e-002,
          -2.9274051974587223e-001, -1.2340529719752788e-001,
          9.4912342828409203e-003, -3.5582733060004007e-002,
          5.8718616579606135e-002, -1.3909653106606537e-001,
          -3.5849729049665262e-002, 2.6086290137636484e-002,
          -7.2895724327136846e-001, 3.2981207427000912e-002,
          -1.1933494535695080e-001, -2.5379980166443067e-003,
          -8.7218493598096206e-002, -1.3870187500280992e-001,
          6.5331814658981482e-002, -1.1829739672399792e-001,
          -7.2235388598656816e-002, -6.2662839659478053e-002,
          1.0864469794370002e-001, -1.0625907268169750e-001,
          -8.5192782476933085e-002, 2.2082121663918111e-002,
          2.2315205968181806e-001, 1.7094681421090971e-001,
          8.8125065587240273e-002, 2.6160791906963293e-001,
          6.5452130783603651e-002, 3.0349059085763252e-002,
          1.6806242666937329e-001, 6.3033799829439727e-002,
          5.0135366317146310e-002, -3.9737962777529265e-002,
          8.3202802230067527e-002, -4.9399850264942959e-002,
          2.5507685686196942e-002, -6.4699028926980304e-002,
          2.0123006000242261e-001, 3.8551756823304528e-002,
          -2.0862521976611276e-002, 7.0994480427925610e-002,
          7.5246906085196033e-002, 1.7010230053287365e-001,
          -1.2511016223663825e-002, 6.3312793629088884e-002,
          8.1795078091177698e-002, -1.3237440819129045e-001,
          2.1964697569329186e-002, -9.8247138344456739e-002,
          -7.1301272224570542e-002, -3.8669810345482621e-002,
          -1.7376054703534008e-001, -2.6363070131036226e-002,
          -9.0248194574036184e-003, -5.2569577226858080e-002,
          8.7111121330905303e-002, -1.3493890684415014e-001,
          1.9855888508530730e-002, -1.6777679811658185e-002,
          -6.9563119135977747e-001, 4.1859442317294673e-002,
          -1.7646288291689097e-001, 2.1146844973242599e-002,
          -9.2994307224283146e-002, -1.4590083880384491e-001,
          8.3344853684293618e-002, -1.5066371253406713e-001,
          2.2514196104312812e-002, -6.2143542419361930e-002,
          1.0312979989354480e-001, -7.1742077530992709e-002,
          -1.1823216029306431e-001, -1.0247850373407847e-002,
          1.5283159700746118e-001, 1.6450662111514694e-001,
          1.9079612736508999e-002, 3.1417585966090361e-001,
          -1.9341666860196682e-002, 2.9046710593362446e-002,
          1.7427157129650175e-001, 9.1035463329577043e-002,
          8.3966421696635707e-003, -3.0544060303427975e-002,
          5.1881363994829725e-002, 5.1679793081435927e-003,
          3.1659069220704758e-002, -7.7384619180522918e-002,
          1.7590030258189490e-001, 2.4383614091408629e-002,
          9.0866997884517554e-003, 1.0776438846388788e-001,
          6.0194537208215819e-002, 1.3678485626983414e-001,
          1.5793836406960766e-002, 4.9434323467707403e-002,
          3.7898751961262370e-002, -1.5528449605247238e-001,
          2.6790348043402926e-002, -8.0779310674509955e-002,
          -6.6905389122415920e-002, 1.7105314834130738e-003,
          -2.4389778610329538e-001, -1.9551957955920581e-002,
          5.0829626066806417e-002, -7.6635172063873117e-002,
          6.8116523551977726e-002, -1.5913630615446470e-001,
          -1.7677657970766501e-002, -6.4191457914523466e-003,
          -7.9515856403017648e-001, -5.9215962414315858e-004,
          -8.7134680631819672e-002, 9.2662415481048255e-002,
          -4.3951443627555417e-002, -6.1633122631672602e-002,
          1.8641864581029476e-002, -1.3437661920455224e-001,
          7.3497814263705899e-002, -9.0406213052269622e-003,
          1.0009744099976518e-001, -1.1810211540668214e-001,
          -7.5661410637386184e-002, 6.2184437144737308e-002,
          1.1954792499568365e-001, 8.0435056723152973e-002,
          5.5446608607112091e-002, 1.6206183355459189e-001,
          -8.7227878070034719e-003, 3.4364705228191614e-002,
          8.7740904622701246e-002, 1.4598341492195330e-001,
          -2.2716453611810964e-002, -1.3216477338677218e-001,
          3.2208040028588632e-002, -4.8929703051284530e-002,
          3.3543364529822352e-002, -7.6213466611241940e-002,
          6.4139677311365911e-002, 6.1209592462267620e-002,
          1.6785973682746470e-002, 4.2274856774671472e-002,
          3.0822925633143781e-002, 6.1684719960225391e-002,
          3.7617452075892843e-002, 1.5674204406672598e-001,
          5.2808390521371103e-002, -6.6744418888264670e-002,
          4.0643049007880731e-002, -1.1676550024011119e-001,
          -9.1300554107611315e-002, 7.1672841973627555e-002,
          -2.2306564560866779e-001, -8.4056898791116719e-002,
          -2.3104305370797430e-002, -4.0564094934400781e-002,
          2.9461501123748689e-002, -1.0111670108717356e-001,
          -9.9031662174654839e-002, 9.8534210872816788e-002,
          -1.5281887605765807e-001, 2.8160652723321848e-002,
          -1.2576204738645988e-001, 6.4315817185099503e-002,
          -4.1590463922012558e-002, 4.7402416535515059e-002,
          8.8499472134967953e-003, -1.7807282086364026e-001,
          8.1077046673515632e-003, -3.6845443561019882e-002,
          5.8008474711089511e-002, 6.6332171961845682e-002,
          -8.4702203309566862e-002, 6.0959270914134153e-002,
          3.8611152965732926e-001, 8.3299864826981115e-004,
          -1.9629672540967522e-001, 2.7213861916924903e-001,
          1.0762426031576343e-001, 1.6919256021192286e-001,
          1.6973149722422840e-002, 4.8347392999964711e-002,
          -4.1826949787973411e-002, -1.9412759788752360e-001,
          2.6471943952018429e-001, -2.5166099213589484e-002,
          7.7296011379998142e-002, -4.9327712280043179e-002,
          4.0176855341441629e-002, 8.7238256778441603e-002,
          -6.6786308953064658e-002, -3.6577201419932637e-003,
          -5.6694287170005998e-002, 1.6442244365458242e-001,
          9.0789966115548307e-002, 9.0728249074471731e-002,
          2.8062162225889614e-001, 2.7891309322197067e-002,
          2.2614700819221428e-001, 7.6547528843779467e-002,
          1.6036176646786085e-001, -1.4751776323100950e-002,
          -1.5320120124917059e-002, 1.5039915370313904e-002,
          6.2008284026736693e-002, -5.7259438062804445e-002,
          1.8689192968162474e-002, -1.6918297512991948e-001,
          -3.6504738869617540e-002, 7.8977430438225641e-003,
          -6.2176341535913143e-002, -7.7566822519585174e-002,
          1.6703338877376384e-001, 4.6293014891309416e-002,
          4.7904732200113778e-002, -1.8839511831437977e-002,
          -1.4785564056367721e-002, -2.9376830270253149e-002,
          2.1202993209838400e-001, 1.5005869864182850e-001,
          1.2965360184456997e-002, -1.2081982954857801e-001,
          5.0378511904126547e-003, 4.2223667990132004e-002,
          -4.5791939886698640e-001, -2.7165812483010671e-002,
          -5.7197039361470504e-002, -3.3676136636022418e-002,
          -9.8591726840672037e-002, 5.0162940062399200e-002,
          -1.5398016016845496e-003, 3.4923716352387046e-001,
          8.7999338184556630e-002, -6.0450240565207598e-003,
          -2.2984593053221497e-001, -1.8106260009479971e-001,
          1.6888859736221881e-001, -3.2685649299276781e-002,
          1.8850192469178256e-001, -4.1094194502457639e-002,
          -3.9373336080383868e-002, -2.2863471045779689e-002,
          4.0985124399767821e-002, 3.2905587353583554e-001,
          -3.2810691039132561e-002, 1.9896425722205816e-001,
          -3.6584142843964312e-001, -6.6190792845241347e-002,
          1.5029120174002941e-001, 1.9254172227340732e-001,
          2.8285605551026168e-002, 1.4668768080294300e-001,
          2.0151390937608812e-002, -9.3734451556832840e-002,
          -5.9057881055668629e-002, 5.6864598278284571e-002,
          1.7609295533026575e-001, -1.9656143922195299e-001,
          -2.7370976585595813e-001, 2.2782316378068004e-001,
          1.0313807071102652e+000, 3.0261243622381234e-002,
          9.7733825743749142e-002, 1.4556922965942590e-002,
          -6.6637201765358506e-002, -4.4282295277036652e-003,
          2.6815988593135054e-002, 6.8484167324381437e-002,
          -1.0253786476165480e-001, -1.2531219738271046e-001,
          1.4181906542044295e-001, -1.5123543244949963e-001,
          2.6932577292392759e-002, 2.7699860039392132e-002,
          -3.9656059402375110e-001, -2.1593172069558766e-002,
          -4.8486850659935410e-002, -2.2992212122090175e-001,
          -1.5075671385563733e-001, -4.5991195943965946e-002,
          3.5227509085934236e-002, -2.8095793034447003e-001,
          6.8188905627932977e-002, 1.8541217381317457e-001,
          -2.5955644198224298e-001, 1.1019252867141810e-003,
          5.2496132730863683e-002, 2.0024532096393582e-001,
          -9.2963627915554140e-002, -2.6091357662305151e-002,
          5.8672771698768632e-003, 5.7441718785646335e-002,
          8.3860205132350860e-002, -2.0363040611478289e-001,
          -1.2383194250252126e-001, -1.6787772519310715e-001,
          -1.3361736775247554e-001, 1.1352672054182444e-001,
          -2.0106102118816898e-002, 8.0957349857911087e-002,
          -2.3183560240584267e-002, -2.5602028159795259e-001,
          1.2952752794487005e-001, 1.2653610893791873e-002,
          -1.5092576397538889e-002, -6.8606731711229149e-002,
          -1.9861009231992681e-002, 7.4377469834153179e-002,
          2.9992576191561393e-001, -1.7300258945360472e-001,
          6.4308188119467286e-002, 6.4407781508005621e-002,
          2.3897332116277850e-001, 1.2497098511594977e-001,
          -9.7337115858569342e-002, -3.1163545126099534e-002,
          3.2701231091557495e-002, 4.4711544919747714e-002,
          -1.0704521930270898e-001, -1.7779642046523442e-001,
          8.6970789700484608e-002, -6.2505029377212376e-002,
          -1.2357893891408478e-001, 3.5162657365047076e-002,
          -1.6900741118504717e-001, 2.8783526466131915e-002,
          -6.3489280092338202e-002, 1.6222013323383487e-002,
          -4.8088991052231793e-002, 1.1602526494859094e-003,
          2.0518219312759589e-001, -7.6332841939522916e-002,
          1.7483879779118885e-001, 2.5653363612306546e-001,
          -9.0737131767396895e-002, -8.4000886144401116e-003,
          6.8878636196812254e-002, -5.9705653820948570e-002,
          4.7510752186486531e-002, -5.1381118526711133e-003,
          1.0296219337442505e-001, 1.5560231389490131e-001,
          1.8291110113474715e-001, 5.2934913804968033e-003,
          -1.7156440765068984e-001, -7.2374189253826479e-002,
          -1.4394176912082099e-001, -1.7174091904965577e-002,
          9.3956367086959452e-002, 6.5055505805607095e-002,
          -5.3552711643439360e-002, -1.5749542225391028e-001,
          4.7610558504985870e-002, 3.7653864897962880e-002,
          6.4360296412551239e-003, -8.5141760936693206e-002,
          1.3587739830786374e-001, -2.4648032698146938e-001,
          1.5188523811568561e-001, -8.7935424537682050e-002,
          -4.3998968112352327e-001, -1.5712812668504467e-002,
          1.1138510950224209e-001, -3.1172305224859777e-002,
          -4.4044455889883136e-002, -7.1293459220814134e-002,
          4.1301480236810184e-002, 6.0447747693115797e-002,
          -5.4676414382554779e-002, -1.4118358394170377e-001,
          8.6080324878107600e-002, -5.2820387942756411e-002,
          -4.2449823131918231e-002, 3.6319685072135940e-002,
          -2.9993060044767972e-001, 1.5515133652780618e-002,
          -2.2391774883609241e-002, -6.1320913500349711e-002,
          -1.2230218029768480e-001, -9.5416558104888749e-002,
          1.3496634601708252e-001, -3.4688346802602965e-002,
          1.2342011760776964e-001, 2.4694563890187082e-001,
          -2.2793001518058656e-001, 2.1596745708199103e-003,
          4.3063789647259682e-002, 1.4389443108208633e-002,
          -6.6843047643455597e-002, -3.9179560379227027e-002,
          1.7982983062881010e-002, 1.3355853540177243e-001,
          1.5479639424020947e-001, -6.0789270079381237e-002,
          -1.6098039255527299e-001, -5.0283058019140216e-002,
          -2.1087544651495735e-001, -3.2230181867774821e-002,
          3.8123404513919382e-003, 1.0873833656764016e-002,
          -1.2898642470110905e-001, -9.7722449380597431e-002,
          1.9535557449760037e-003, -6.7479866661856916e-002,
          3.4195004210504858e-002, -3.6852270942530227e-002,
          7.5139360452261564e-002, -1.4832650886442569e-001,
          3.8585847690801464e-002, -5.7524181915940789e-002,
          -2.0549656262813917e-001, 2.9805407612927264e-002,
          1.1204013218208903e-002, -3.4874779496658209e-002,
          -3.6743063066181754e-002, -4.2398873586513591e-002,
          4.2151859610194777e-002, 2.6335810470643730e-002,
          -8.0591219573715359e-002, -6.3426951752170932e-002,
          7.4138476246191326e-002, -2.9750788152483762e-002,
          -5.4142384203144565e-002, -2.4992870136688529e-002,
          -2.1729228554346466e-001, 2.0194350531606942e-002,
          9.9897533907820010e-003, -1.2740797591803762e-001,
          -8.9702370463065437e-002, -1.6962511645255776e-001,
          1.2955337736288772e-001, -2.1225112319586517e-001,
          8.3776969408034224e-002, 2.1077053413328031e-001,
          -2.0741756218582522e-001, -8.5407943277345952e-002,
          8.4327187662842029e-002, 1.7983640821311334e-002,
          -9.2799970432654588e-002, 9.3285723107032602e-003,
          6.7220276825082671e-003, 1.1324958908842724e-001,
          1.8106861765201004e-001, -1.1157740329412584e-001,
          -1.6747411731084924e-001, -1.3797673317372983e-001,
          -1.2249803123191673e-001, 2.5687902906713352e-002,
          -1.0307765180543109e-001, 1.8161074036516791e-003,
          -1.4582211320020169e-001, -1.9116798181035774e-001,
          1.1024437216266451e-001, 2.9371568928836186e-002,
          -1.5667713673463413e-002, -7.1694998335292220e-002,
          6.4180962993330995e-002, -7.3131872943943604e-002,
          9.2484300729673549e-002, -1.3387609373717241e-001,
          -1.1880145967555238e+000, -5.4690928679657393e-002,
          -1.2201180274692205e-001, -6.4277171784504553e-002,
          1.7517684457280570e-002, -3.9696215173040360e-002,
          2.3470505236250331e-002, 7.9192433773686954e-002,
          2.9553988679070210e-002, -4.0314128888145678e-003,
          2.1433165335187659e-002, -3.1114104819320084e-002,
          -1.5378383850282281e-002, -6.2391950753912573e-002,
          -1.9565290912984382e-001, 9.3008429720146824e-003,
          1.2289565312725841e-002, 3.8049296151097034e-002,
          -8.9463951084158930e-002, -8.5918298589434117e-002,
          2.1921429805040103e-002, 6.9803833559880929e-002,
          9.0821171228369968e-002, 1.6344025389741867e-001,
          -2.1695031606588330e-001, -1.1448534890047733e-001,
          3.2301303962412264e-002, -9.9825906057492225e-002,
          -6.3044108027875426e-002, -3.0534382898283217e-002,
          3.6897615073409391e-002, 7.8145050357713519e-002,
          1.5110878485019293e-002, 8.5832160087167306e-002,
          -8.7092064128025434e-002, 2.8280977263326467e-002,
          -2.5749759159733754e-001, -3.4366945357384784e-002,
          6.0185163658334567e-002, -8.6152161501275824e-003,
          -9.1574499240063598e-002, 3.2325452959315513e-002,
          1.0631396437256330e-001, -6.0101470890454547e-002,
          -5.8378566075626644e-002, -1.0241866568122663e-003,
          1.6007584432094565e-001, -8.3487575706898687e-002,
          -1.3947996004723778e-001, 5.7144717223699411e-002,
          -3.1843773981157308e-001, -8.9467952311589924e-002,
          4.9563923781727574e-002, 3.5110241487587658e-002,
          1.6919509151122780e-002, -2.1079420731897121e-002,
          -1.5358141654275908e-002, 2.3803155153131646e-002,
          1.1390661439500971e-001, 2.6500642488972659e-002,
          5.2653717317403245e-002, -1.3785245682305566e-001,
          -8.5598862762342326e-003, 5.9575375046631282e-002,
          -5.0597682089480212e-001, -8.8005039808266624e-003,
          -3.5582214698146424e-002, -6.4299776592148770e-003,
          -1.4260456788008419e-001, 7.1816866377549443e-002,
          5.8858477324081782e-002, 1.2434244516621075e-001,
          8.8701300658761251e-002, 1.8988755721331571e-001,
          -3.1024503880324128e-001, -1.7348425588049540e-001,
          6.3541975001008468e-003, -1.1441952052345143e-001,
          -5.8603751120168607e-002, -9.9011947680838930e-002,
          2.6792963340692890e-003, 9.3776506866661571e-002,
          9.4227718743765454e-002, 9.7572507135014669e-002,
          -7.3897967268192824e-002, 1.4267645748794264e-001,
          -3.3385239060340166e-001, -1.5650713214488705e-002,
          1.5183619377317856e-001, 1.7343721834506559e-001,
          -1.1121859778226323e-001, 3.5410683847393057e-002,
          5.7169603667241831e-002, -1.1640611836667054e-001,
          -5.3844944013982723e-002, 7.4536234530106243e-002,
          6.2336800790112890e-002, -5.1515234740783844e-002,
          -1.2903350747693668e-001, 7.6644407416093602e-002,
          6.4477013207946868e-002, -7.4579936798541040e-003,
          9.1588564530659333e-002, -2.9002312522939312e-002,
          -3.7819827763860614e-002, -4.7424395685102313e-003,
          1.9808588782436524e-002, 5.8912387478571998e-002,
          -2.1118826200166932e-002, -6.7318821186003588e-002,
          6.6117801512994082e-002, -2.1342019593483544e-002,
          -3.9574978186397401e-002, 4.6825858789023678e-002,
          -3.1711052963744740e-001, -3.3484722469197940e-003,
          9.3233893153771268e-003, -1.3935111601214520e-001,
          -1.2880001580707404e-001, -1.3357609158473688e-001,
          1.4712841716502245e-001, -1.3274546746252611e-001,
          1.1102127275179939e-001, 2.1267749809728823e-001,
          -1.7039822083900386e-001, -1.8587179372301570e-002,
          3.2309692838567508e-002, 1.8386100962649334e-002,
          -6.8144875419561338e-002, -5.9057810662057654e-002,
          -1.7033691150720336e-002, 1.5320797510027964e-001,
          1.6438443187394003e-001, -1.4503739319328132e-001,
          -1.5922075314776868e-001, -5.4837209688452127e-002,
          -2.0352374751738711e-001, -5.0320855370626395e-003,
          -4.7987163009099498e-002, 1.6045551478766663e-002,
          -1.2114462071016531e-001, -1.4226014052584934e-001,
          -4.9702200177195836e-003, -8.8990104614366350e-002,
          -1.8009257420604524e-002, -4.0551121750541985e-002,
          1.1318385964348986e-002, -9.4078829082100898e-003,
          9.4857157795874780e-002, -9.7066652546220836e-002,
          6.3040540733333961e-001, -7.7210861852680859e-003,
          9.6776631655675592e-003, -1.0359738657712227e-001,
          -1.0068347307725492e-001, -8.2601969573788455e-003,
          3.7501233466214465e-002, 9.7192517939022255e-002,
          -1.4461847205080811e-001, -2.6082115395987632e-001,
          1.4425842138687511e-001, -1.1771192520537654e-001,
          4.0538388141653811e-004, 5.1131734060674925e-003,
          4.7408655560107961e-002, -1.6287670227452498e-002,
          -3.1247729648517814e-002, -1.9508731349834982e-002,
          -7.4918351067478975e-002, -1.3640662782895543e-001,
          6.5040191311065060e-002, -2.7783301644142366e-001,
          4.9433207892944378e-002, 9.4325461162570193e-002,
          5.5224909453840093e-002, 1.4931332467802835e-001,
          -4.6934914521367589e-002, 1.5730332544689143e-001,
          -7.4226499730899120e-002, -1.1599921681245151e-001,
          -3.2003110422016798e-002, 1.1407396040197311e-001,
          2.4118350083165395e-002, -3.6049442042432772e-001,
          -7.8557613011562055e-002, -1.9529581001990870e-001,
          1.0904093997332651e-001, 4.7461932214679413e-003,
          -6.6780156815627739e-002, -7.6761703002500542e-002,
          2.9323925975854641e-002, -2.5172464190978028e-001,
          -7.3951861341951211e-002, -2.5138352363980151e-002,
          -1.9478449205844999e-002, -9.9889996643136886e-002,
          -8.8511540544121192e-002, 1.2842701605904874e-001,
          4.1557936916753735e-001, -1.9936748281881417e-001,
          -2.6236966884761392e-001, -8.1164511991960973e-003,
          6.3122796390039274e-002, 4.3626914119956145e-002,
          -2.7243209593593030e-002, -8.6861650710727420e-002,
          5.9625925492155007e-002, 1.7788554117828355e-004,
          -1.0929162334657957e-002, -5.5888998902395765e-002,
          6.1872631070091277e-002, -1.2257192671937148e-001,
          -6.8586540102933399e-002, 1.1694411838643379e-002,
          -2.7385631572102653e-001, -9.5579413767627481e-003,
          -7.0779174383603427e-002, -4.9448998670328145e-003,
          -1.1283227741740121e-001, -1.4938146255628580e-002,
          1.4711413716126656e-001, -4.0336115303983788e-002,
          1.1937987810522639e-001, 1.9194277335675911e-001,
          -2.0146888025068402e-001, -6.9750869469626497e-002,
          5.1406767649491640e-002, 2.1985996004265113e-002,
          -7.2561458988532447e-003, 3.1193327704669718e-002,
          -2.0765197684106474e-003, 1.3008181778833267e-001,
          1.4496512533923506e-001, 4.1454663351583168e-002,
          -1.6540506207206171e-001, -8.7925039477412370e-002,
          -2.4227272618402548e-001, -2.2112678168917706e-002,
          8.6367734113509745e-002, -4.5402407642251896e-002,
          -1.0363425732097865e-001, -1.0597086847283625e-001,
          5.0095033773266988e-003, 6.3982569605781946e-004,
          -5.0127610948020339e-002, -8.6796112041602910e-002,
          1.5823184601969986e-001, -1.9689099495379150e-001,
          -4.8929794542249020e-003, -5.6982025207132581e-002,
          1.1003511749908114e-001, 4.4670483808056313e-002,
          1.7495484042743881e-001, 8.9601171579559991e-002,
          -4.8009635081565194e-002, -1.0926010417401458e-001,
          7.0467412860987205e-002, -6.2123683577301421e-002,
          -1.7392472686658441e-002, -9.8455297962431812e-002,
          6.6239698591734980e-002, -1.2655319576805552e-003,
          -1.1042345628712490e-001, 4.2012965309498586e-002,
          -1.3330441354481640e-001, 9.5389964806086261e-002,
          -6.1778607070761396e-002, 9.4857035207709828e-002,
          -6.9777188316474281e-002, -3.6818912604018377e-003,
          2.3679306304539399e-001, -6.6970156893226149e-002,
          1.4051477726075218e-001, 1.8081777928033049e-001,
          -1.3243593825444314e-001, -4.7042422237736671e-002,
          1.1777617007216559e-001, 1.9565161070526783e-002,
          6.7609402006751931e-002, 9.4718542349216783e-002,
          -7.5377093997428271e-002, 1.7613178983910779e-001,
          2.5308489375604776e-001, 9.0830100500332273e-002,
          -2.4652957688971525e-001, -9.0744511526459973e-002,
          -1.2915048973196711e-001, -3.8576968978617066e-002,
          4.3555098830308732e-002, -5.4359911155606837e-002,
          -1.4962401835604575e-001, -1.3110319982468721e-001,
          3.3816336563941098e-002, 6.2519867921966574e-003,
          4.6553064033971303e-002, -1.0729892683584556e-001,
          1.0750046736439214e-001, -3.2634813580972905e-001,
          2.4519389613818304e-002, -1.0305671146125145e-001,
          -1.1606508574112628e-001, -2.1307299249489344e-002,
          1.0748812560838368e-001, 6.0502450591024132e-002,
          -8.5405339300941935e-002, -7.3731279821362627e-002,
          3.4284032538463800e-002, -8.5732837683088255e-003,
          2.0058220319345639e-003, -1.8117148407450095e-001,
          1.1856958942462952e-001, -1.0411217644279576e-001,
          -1.0951910806226406e-001, 4.3660897420404028e-002,
          -2.7891483615487928e-001, 6.5932089081156817e-002,
          -7.2066251276422730e-002, 6.8516431313052961e-002,
          -1.1836647065246525e-001, -3.7280457580479230e-002,
          1.7884544982409342e-001, -9.9481047917607049e-002,
          1.1955995459314139e-001, 2.4232760669475961e-001,
          -2.4382588508338077e-001, -2.5424279207585755e-004,
          8.5976501800886812e-002, 1.1324533535240369e-002,
          3.4511103390998471e-002, 3.0630756075717452e-002,
          3.0728569894115300e-002, 1.6891815247313893e-001,
          2.1099560959331806e-001, 3.1477426218110768e-002,
          -1.9730905833351087e-001, -1.0659619350709766e-001,
          -1.7354139271259303e-001, -1.0245145728825798e-001,
          1.0124724062211626e-001, 1.3516425088866720e-002,
          -1.7605133044388904e-001, -1.3277688418460998e-001,
          4.0761250630713092e-002, 1.8554420052595010e-002,
          -3.6179359222489549e-002, -1.1739441413294142e-001,
          1.1653461469713121e-001, -1.9795982289625025e-001,
          8.2110230058403635e-002, -8.3889818417056811e-002,
          -2.2353045401305227e-001, -3.8243321182478140e-002,
          1.7873181961393650e-001, 3.4352733699124713e-002,
